digraph Tree {
node [shape=box, style="filled, rounded", color="black", fontname="helvetica"] ;
edge [fontname="helvetica"] ;
0 [label="mean_saturation <= 50.134\ngini = 0.843\nsamples = 47\nvalue = [15, 11, 14, 16, 9, 5, 10]\nclass = 2000", fillcolor="#fcffff"] ;
1 [label="mean_hue <= 91.957\ngini = 0.809\nsamples = 38\nvalue = [15, 11, 14, 16, 6, 5, 0]\nclass = 2000", fillcolor="#fbfffe"] ;
0 -> 1 [labeldistance=2.5, labelangle=45, headlabel="True"] ;
2 [label="mean_saturation <= 29.95\ngini = 0.758\nsamples = 29\nvalue = [15, 0, 8, 16, 6, 5, 0]\nclass = 2000", fillcolor="#f9fefe"] ;
1 -> 2 ;
3 [label="mean_value <= 233.999\ngini = 0.709\nsamples = 20\nvalue = [15, 0, 1, 9, 5, 5, 0]\nclass = 1000", fillcolor="#f9e2d1"] ;
2 -> 3 ;
4 [label="mean_value <= 212.79\ngini = 0.492\nsamples = 12\nvalue = [15, 0, 0, 2, 4, 1, 0]\nclass = 1000", fillcolor="#efb286"] ;
3 -> 4 ;
5 [label="gini = 0.0\nsamples = 3\nvalue = [7, 0, 0, 0, 0, 0, 0]\nclass = 1000", fillcolor="#e58139"] ;
4 -> 5 ;
6 [label="mean_hue <= 81.385\ngini = 0.622\nsamples = 9\nvalue = [8, 0, 0, 2, 4, 1, 0]\nclass = 1000", fillcolor="#f6d1b7"] ;
4 -> 6 ;
7 [label="mean_hue <= 41.614\ngini = 0.514\nsamples = 8\nvalue = [8, 0, 0, 2, 1, 1, 0]\nclass = 1000", fillcolor="#efb388"] ;
6 -> 7 ;
8 [label="gini = 0.0\nsamples = 1\nvalue = [0, 0, 0, 0, 0, 1, 0]\nclass = 5000", fillcolor="#b139e5"] ;
7 -> 8 ;
9 [label="mean_value <= 223.197\ngini = 0.43\nsamples = 7\nvalue = [8, 0, 0, 2, 1, 0, 0]\nclass = 1000", fillcolor="#eeab7b"] ;
7 -> 9 ;
10 [label="gini = 0.0\nsamples = 2\nvalue = [0, 0, 0, 2, 0, 0, 0]\nclass = 2000", fillcolor="#39e5e2"] ;
9 -> 10 ;
11 [label="mean_saturation <= 16.322\ngini = 0.198\nsamples = 5\nvalue = [8, 0, 0, 0, 1, 0, 0]\nclass = 1000", fillcolor="#e89152"] ;
9 -> 11 ;
12 [label="gini = 0.0\nsamples = 4\nvalue = [8, 0, 0, 0, 0, 0, 0]\nclass = 1000", fillcolor="#e58139"] ;
11 -> 12 ;
13 [label="gini = 0.0\nsamples = 1\nvalue = [0, 0, 0, 0, 1, 0, 0]\nclass = 20000", fillcolor="#3956e5"] ;
11 -> 13 ;
14 [label="gini = 0.0\nsamples = 1\nvalue = [0, 0, 0, 0, 3, 0, 0]\nclass = 20000", fillcolor="#3956e5"] ;
6 -> 14 ;
15 [label="mean_value <= 244.691\ngini = 0.604\nsamples = 8\nvalue = [0, 0, 1, 7, 1, 4, 0]\nclass = 2000", fillcolor="#bdf6f5"] ;
3 -> 15 ;
16 [label="mean_saturation <= 15.995\ngini = 0.37\nsamples = 5\nvalue = [0, 0, 1, 7, 1, 0, 0]\nclass = 2000", fillcolor="#6aece9"] ;
15 -> 16 ;
17 [label="gini = 0.0\nsamples = 3\nvalue = [0, 0, 0, 7, 0, 0, 0]\nclass = 2000", fillcolor="#39e5e2"] ;
16 -> 17 ;
18 [label="mean_hue <= 51.812\ngini = 0.5\nsamples = 2\nvalue = [0, 0, 1, 0, 1, 0, 0]\nclass = 100000", fillcolor="#ffffff"] ;
16 -> 18 ;
19 [label="gini = 0.0\nsamples = 1\nvalue = [0, 0, 1, 0, 0, 0, 0]\nclass = 100000", fillcolor="#39e54d"] ;
18 -> 19 ;
20 [label="gini = 0.0\nsamples = 1\nvalue = [0, 0, 0, 0, 1, 0, 0]\nclass = 20000", fillcolor="#3956e5"] ;
18 -> 20 ;
21 [label="gini = 0.0\nsamples = 3\nvalue = [0, 0, 0, 0, 0, 4, 0]\nclass = 5000", fillcolor="#b139e5"] ;
15 -> 21 ;
22 [label="mean_hue <= 80.394\ngini = 0.56\nsamples = 9\nvalue = [0, 0, 7, 7, 1, 0, 0]\nclass = 100000", fillcolor="#ffffff"] ;
2 -> 22 ;
23 [label="mean_saturation <= 30.359\ngini = 0.219\nsamples = 5\nvalue = [0, 0, 7, 1, 0, 0, 0]\nclass = 100000", fillcolor="#55e966"] ;
22 -> 23 ;
24 [label="mean_hue <= 73.252\ngini = 0.5\nsamples = 2\nvalue = [0, 0, 1, 1, 0, 0, 0]\nclass = 100000", fillcolor="#ffffff"] ;
23 -> 24 ;
25 [label="gini = 0.0\nsamples = 1\nvalue = [0, 0, 1, 0, 0, 0, 0]\nclass = 100000", fillcolor="#39e54d"] ;
24 -> 25 ;
26 [label="gini = 0.0\nsamples = 1\nvalue = [0, 0, 0, 1, 0, 0, 0]\nclass = 2000", fillcolor="#39e5e2"] ;
24 -> 26 ;
27 [label="gini = 0.0\nsamples = 3\nvalue = [0, 0, 6, 0, 0, 0, 0]\nclass = 100000", fillcolor="#39e54d"] ;
23 -> 27 ;
28 [label="mean_saturation <= 38.833\ngini = 0.245\nsamples = 4\nvalue = [0, 0, 0, 6, 1, 0, 0]\nclass = 2000", fillcolor="#5ae9e7"] ;
22 -> 28 ;
29 [label="gini = 0.0\nsamples = 1\nvalue = [0, 0, 0, 0, 1, 0, 0]\nclass = 20000", fillcolor="#3956e5"] ;
28 -> 29 ;
30 [label="gini = 0.0\nsamples = 3\nvalue = [0, 0, 0, 6, 0, 0, 0]\nclass = 2000", fillcolor="#39e5e2"] ;
28 -> 30 ;
31 [label="mean_hue <= 108.705\ngini = 0.457\nsamples = 9\nvalue = [0, 11, 6, 0, 0, 0, 0]\nclass = 10000", fillcolor="#def3a5"] ;
1 -> 31 ;
32 [label="gini = 0.0\nsamples = 6\nvalue = [0, 11, 0, 0, 0, 0, 0]\nclass = 10000", fillcolor="#b7e539"] ;
31 -> 32 ;
33 [label="gini = 0.0\nsamples = 3\nvalue = [0, 0, 6, 0, 0, 0, 0]\nclass = 100000", fillcolor="#39e54d"] ;
31 -> 33 ;
34 [label="mean_value <= 222.644\ngini = 0.355\nsamples = 9\nvalue = [0, 0, 0, 0, 3, 0, 10]\nclass = 50000", fillcolor="#ed74aa"] ;
0 -> 34 [labeldistance=2.5, labelangle=-45, headlabel="False"] ;
35 [label="gini = 0.0\nsamples = 2\nvalue = [0, 0, 0, 0, 3, 0, 0]\nclass = 20000", fillcolor="#3956e5"] ;
34 -> 35 ;
36 [label="gini = 0.0\nsamples = 7\nvalue = [0, 0, 0, 0, 0, 0, 10]\nclass = 50000", fillcolor="#e53986"] ;
34 -> 36 ;
}