digraph Tree {
node [shape=box, style="filled, rounded", color="black", fontname="helvetica"] ;
edge [fontname="helvetica"] ;
0 [label="mean_value <= 226.014\ngini = 0.842\nsamples = 48\nvalue = [10, 6, 17, 15, 8, 14, 10]\nclass = 100000", fillcolor="#f9fefa"] ;
1 [label="mean_value <= 222.05\ngini = 0.721\nsamples = 15\nvalue = [5, 0, 0, 8, 5, 11, 0]\nclass = 5000", fillcolor="#f4e3fb"] ;
0 -> 1 [labeldistance=2.5, labelangle=45, headlabel="True"] ;
2 [label="mean_hue <= 72.665\ngini = 0.648\nsamples = 10\nvalue = [5, 0, 0, 8, 5, 0, 0]\nclass = 2000", fillcolor="#d1f9f8"] ;
1 -> 2 ;
3 [label="gini = 0.0\nsamples = 2\nvalue = [5, 0, 0, 0, 0, 0, 0]\nclass = 1000", fillcolor="#e58139"] ;
2 -> 3 ;
4 [label="mean_saturation <= 50.005\ngini = 0.473\nsamples = 8\nvalue = [0, 0, 0, 8, 5, 0, 0]\nclass = 2000", fillcolor="#b5f5f4"] ;
2 -> 4 ;
5 [label="gini = 0.0\nsamples = 4\nvalue = [0, 0, 0, 8, 0, 0, 0]\nclass = 2000", fillcolor="#39e5e2"] ;
4 -> 5 ;
6 [label="gini = 0.0\nsamples = 4\nvalue = [0, 0, 0, 0, 5, 0, 0]\nclass = 20000", fillcolor="#3956e5"] ;
4 -> 6 ;
7 [label="gini = 0.0\nsamples = 5\nvalue = [0, 0, 0, 0, 0, 11, 0]\nclass = 5000", fillcolor="#b139e5"] ;
1 -> 7 ;
8 [label="mean_value <= 226.886\ngini = 0.801\nsamples = 33\nvalue = [5, 6, 17, 7, 3, 3, 10]\nclass = 100000", fillcolor="#ddfbe1"] ;
0 -> 8 [labeldistance=2.5, labelangle=-45, headlabel="False"] ;
9 [label="gini = 0.0\nsamples = 2\nvalue = [0, 4, 0, 0, 0, 0, 0]\nclass = 10000", fillcolor="#b7e539"] ;
8 -> 9 ;
10 [label="mean_value <= 230.78\ngini = 0.78\nsamples = 31\nvalue = [5, 2, 17, 7, 3, 3, 10]\nclass = 100000", fillcolor="#dafadd"] ;
8 -> 10 ;
11 [label="mean_value <= 228.33\ngini = 0.219\nsamples = 4\nvalue = [0, 1, 7, 0, 0, 0, 0]\nclass = 100000", fillcolor="#55e966"] ;
10 -> 11 ;
12 [label="mean_value <= 227.615\ngini = 0.5\nsamples = 2\nvalue = [0, 1, 1, 0, 0, 0, 0]\nclass = 10000", fillcolor="#ffffff"] ;
11 -> 12 ;
13 [label="gini = 0.0\nsamples = 1\nvalue = [0, 0, 1, 0, 0, 0, 0]\nclass = 100000", fillcolor="#39e54d"] ;
12 -> 13 ;
14 [label="gini = 0.0\nsamples = 1\nvalue = [0, 1, 0, 0, 0, 0, 0]\nclass = 10000", fillcolor="#b7e539"] ;
12 -> 14 ;
15 [label="gini = 0.0\nsamples = 2\nvalue = [0, 0, 6, 0, 0, 0, 0]\nclass = 100000", fillcolor="#39e54d"] ;
11 -> 15 ;
16 [label="mean_hue <= 82.192\ngini = 0.807\nsamples = 27\nvalue = [5, 1, 10, 7, 3, 3, 10]\nclass = 100000", fillcolor="#ffffff"] ;
10 -> 16 ;
17 [label="mean_saturation <= 13.307\ngini = 0.766\nsamples = 15\nvalue = [5, 0, 4, 7, 2, 3, 0]\nclass = 2000", fillcolor="#e6fcfb"] ;
16 -> 17 ;
18 [label="mean_value <= 244.694\ngini = 0.219\nsamples = 5\nvalue = [0, 0, 0, 7, 0, 1, 0]\nclass = 2000", fillcolor="#55e9e6"] ;
17 -> 18 ;
19 [label="gini = 0.0\nsamples = 4\nvalue = [0, 0, 0, 7, 0, 0, 0]\nclass = 2000", fillcolor="#39e5e2"] ;
18 -> 19 ;
20 [label="gini = 0.0\nsamples = 1\nvalue = [0, 0, 0, 0, 0, 1, 0]\nclass = 5000", fillcolor="#b139e5"] ;
18 -> 20 ;
21 [label="mean_value <= 234.138\ngini = 0.71\nsamples = 10\nvalue = [5, 0, 4, 0, 2, 2, 0]\nclass = 1000", fillcolor="#fcf1e9"] ;
17 -> 21 ;
22 [label="gini = 0.0\nsamples = 4\nvalue = [5, 0, 0, 0, 0, 0, 0]\nclass = 1000", fillcolor="#e58139"] ;
21 -> 22 ;
23 [label="mean_hue <= 39.916\ngini = 0.625\nsamples = 6\nvalue = [0, 0, 4, 0, 2, 2, 0]\nclass = 100000", fillcolor="#bdf6c4"] ;
21 -> 23 ;
24 [label="gini = 0.0\nsamples = 3\nvalue = [0, 0, 4, 0, 0, 0, 0]\nclass = 100000", fillcolor="#39e54d"] ;
23 -> 24 ;
25 [label="mean_saturation <= 16.078\ngini = 0.5\nsamples = 3\nvalue = [0, 0, 0, 0, 2, 2, 0]\nclass = 20000", fillcolor="#ffffff"] ;
23 -> 25 ;
26 [label="gini = 0.0\nsamples = 1\nvalue = [0, 0, 0, 0, 0, 2, 0]\nclass = 5000", fillcolor="#b139e5"] ;
25 -> 26 ;
27 [label="gini = 0.0\nsamples = 2\nvalue = [0, 0, 0, 0, 2, 0, 0]\nclass = 20000", fillcolor="#3956e5"] ;
25 -> 27 ;
28 [label="mean_hue <= 105.066\ngini = 0.574\nsamples = 12\nvalue = [0, 1, 6, 0, 1, 0, 10]\nclass = 50000", fillcolor="#f6bdd7"] ;
16 -> 28 ;
29 [label="mean_saturation <= 42.034\ngini = 0.292\nsamples = 8\nvalue = [0, 1, 0, 0, 1, 0, 10]\nclass = 50000", fillcolor="#ea5d9c"] ;
28 -> 29 ;
30 [label="mean_saturation <= 33.523\ngini = 0.5\nsamples = 2\nvalue = [0, 1, 0, 0, 1, 0, 0]\nclass = 10000", fillcolor="#ffffff"] ;
29 -> 30 ;
31 [label="gini = 0.0\nsamples = 1\nvalue = [0, 1, 0, 0, 0, 0, 0]\nclass = 10000", fillcolor="#b7e539"] ;
30 -> 31 ;
32 [label="gini = 0.0\nsamples = 1\nvalue = [0, 0, 0, 0, 1, 0, 0]\nclass = 20000", fillcolor="#3956e5"] ;
30 -> 32 ;
33 [label="gini = 0.0\nsamples = 6\nvalue = [0, 0, 0, 0, 0, 0, 10]\nclass = 50000", fillcolor="#e53986"] ;
29 -> 33 ;
34 [label="gini = 0.0\nsamples = 4\nvalue = [0, 0, 6, 0, 0, 0, 0]\nclass = 100000", fillcolor="#39e54d"] ;
28 -> 34 ;
}