digraph Tree {
node [shape=box, style="filled, rounded", color="black", fontname="helvetica"] ;
edge [fontname="helvetica"] ;
0 [label="mean_saturation <= 50.134\ngini = 0.842\nsamples = 55\nvalue = [6, 10, 12, 9, 10, 15, 18]\nclass = 50000", fillcolor="#fef6f9"] ;
1 [label="mean_value <= 241.005\ngini = 0.815\nsamples = 42\nvalue = [6, 10, 12, 9, 6, 15, 0]\nclass = 5000", fillcolor="#faf2fd"] ;
0 -> 1 [labeldistance=2.5, labelangle=45, headlabel="True"] ;
2 [label="mean_value <= 225.962\ngini = 0.814\nsamples = 33\nvalue = [6, 10, 3, 9, 6, 9, 0]\nclass = 10000", fillcolor="#fdfef9"] ;
1 -> 2 ;
3 [label="mean_value <= 222.114\ngini = 0.602\nsamples = 12\nvalue = [2, 1, 0, 4, 0, 9, 0]\nclass = 5000", fillcolor="#deacf4"] ;
2 -> 3 ;
4 [label="mean_value <= 221.609\ngini = 0.571\nsamples = 7\nvalue = [2, 1, 0, 4, 0, 0, 0]\nclass = 2000", fillcolor="#b0f5f3"] ;
3 -> 4 ;
5 [label="mean_saturation <= 34.574\ngini = 0.444\nsamples = 6\nvalue = [2, 0, 0, 4, 0, 0, 0]\nclass = 2000", fillcolor="#9cf2f0"] ;
4 -> 5 ;
6 [label="mean_value <= 212.79\ngini = 0.5\nsamples = 4\nvalue = [2, 0, 0, 2, 0, 0, 0]\nclass = 1000", fillcolor="#ffffff"] ;
5 -> 6 ;
7 [label="gini = 0.0\nsamples = 1\nvalue = [1, 0, 0, 0, 0, 0, 0]\nclass = 1000", fillcolor="#e58139"] ;
6 -> 7 ;
8 [label="mean_value <= 213.168\ngini = 0.444\nsamples = 3\nvalue = [1, 0, 0, 2, 0, 0, 0]\nclass = 2000", fillcolor="#9cf2f0"] ;
6 -> 8 ;
9 [label="gini = 0.0\nsamples = 1\nvalue = [0, 0, 0, 1, 0, 0, 0]\nclass = 2000", fillcolor="#39e5e2"] ;
8 -> 9 ;
10 [label="mean_hue <= 61.275\ngini = 0.5\nsamples = 2\nvalue = [1, 0, 0, 1, 0, 0, 0]\nclass = 1000", fillcolor="#ffffff"] ;
8 -> 10 ;
11 [label="gini = 0.0\nsamples = 1\nvalue = [0, 0, 0, 1, 0, 0, 0]\nclass = 2000", fillcolor="#39e5e2"] ;
10 -> 11 ;
12 [label="gini = 0.0\nsamples = 1\nvalue = [1, 0, 0, 0, 0, 0, 0]\nclass = 1000", fillcolor="#e58139"] ;
10 -> 12 ;
13 [label="gini = 0.0\nsamples = 2\nvalue = [0, 0, 0, 2, 0, 0, 0]\nclass = 2000", fillcolor="#39e5e2"] ;
5 -> 13 ;
14 [label="gini = 0.0\nsamples = 1\nvalue = [0, 1, 0, 0, 0, 0, 0]\nclass = 10000", fillcolor="#b7e539"] ;
4 -> 14 ;
15 [label="gini = 0.0\nsamples = 5\nvalue = [0, 0, 0, 0, 0, 9, 0]\nclass = 5000", fillcolor="#b139e5"] ;
3 -> 15 ;
16 [label="mean_hue <= 91.708\ngini = 0.771\nsamples = 21\nvalue = [4, 9, 3, 5, 6, 0, 0]\nclass = 10000", fillcolor="#f5fbe3"] ;
2 -> 16 ;
17 [label="mean_hue <= 80.563\ngini = 0.735\nsamples = 14\nvalue = [4, 0, 3, 5, 6, 0, 0]\nclass = 20000", fillcolor="#f0f2fd"] ;
16 -> 17 ;
18 [label="mean_saturation <= 15.96\ngini = 0.724\nsamples = 11\nvalue = [4, 0, 3, 5, 2, 0, 0]\nclass = 2000", fillcolor="#ebfcfc"] ;
17 -> 18 ;
19 [label="mean_value <= 234.623\ngini = 0.494\nsamples = 6\nvalue = [4, 0, 0, 5, 0, 0, 0]\nclass = 2000", fillcolor="#d7faf9"] ;
18 -> 19 ;
20 [label="gini = 0.0\nsamples = 3\nvalue = [4, 0, 0, 0, 0, 0, 0]\nclass = 1000", fillcolor="#e58139"] ;
19 -> 20 ;
21 [label="gini = 0.0\nsamples = 3\nvalue = [0, 0, 0, 5, 0, 0, 0]\nclass = 2000", fillcolor="#39e5e2"] ;
19 -> 21 ;
22 [label="mean_hue <= 45.152\ngini = 0.48\nsamples = 5\nvalue = [0, 0, 3, 0, 2, 0, 0]\nclass = 100000", fillcolor="#bdf6c4"] ;
18 -> 22 ;
23 [label="gini = 0.0\nsamples = 2\nvalue = [0, 0, 2, 0, 0, 0, 0]\nclass = 100000", fillcolor="#39e54d"] ;
22 -> 23 ;
24 [label="mean_value <= 229.515\ngini = 0.444\nsamples = 3\nvalue = [0, 0, 1, 0, 2, 0, 0]\nclass = 20000", fillcolor="#9caaf2"] ;
22 -> 24 ;
25 [label="gini = 0.0\nsamples = 1\nvalue = [0, 0, 1, 0, 0, 0, 0]\nclass = 100000", fillcolor="#39e54d"] ;
24 -> 25 ;
26 [label="gini = 0.0\nsamples = 2\nvalue = [0, 0, 0, 0, 2, 0, 0]\nclass = 20000", fillcolor="#3956e5"] ;
24 -> 26 ;
27 [label="gini = 0.0\nsamples = 3\nvalue = [0, 0, 0, 0, 4, 0, 0]\nclass = 20000", fillcolor="#3956e5"] ;
17 -> 27 ;
28 [label="gini = 0.0\nsamples = 7\nvalue = [0, 9, 0, 0, 0, 0, 0]\nclass = 10000", fillcolor="#b7e539"] ;
16 -> 28 ;
29 [label="mean_saturation <= 15.505\ngini = 0.48\nsamples = 9\nvalue = [0, 0, 9, 0, 0, 6, 0]\nclass = 100000", fillcolor="#bdf6c4"] ;
1 -> 29 ;
30 [label="gini = 0.0\nsamples = 4\nvalue = [0, 0, 0, 0, 0, 6, 0]\nclass = 5000", fillcolor="#b139e5"] ;
29 -> 30 ;
31 [label="gini = 0.0\nsamples = 5\nvalue = [0, 0, 9, 0, 0, 0, 0]\nclass = 100000", fillcolor="#39e54d"] ;
29 -> 31 ;
32 [label="mean_value <= 223.998\ngini = 0.298\nsamples = 13\nvalue = [0, 0, 0, 0, 4, 0, 18]\nclass = 50000", fillcolor="#eb65a1"] ;
0 -> 32 [labeldistance=2.5, labelangle=-45, headlabel="False"] ;
33 [label="gini = 0.0\nsamples = 3\nvalue = [0, 0, 0, 0, 4, 0, 0]\nclass = 20000", fillcolor="#3956e5"] ;
32 -> 33 ;
34 [label="gini = 0.0\nsamples = 10\nvalue = [0, 0, 0, 0, 0, 0, 18]\nclass = 50000", fillcolor="#e53986"] ;
32 -> 34 ;
}