digraph Tree {
node [shape=box, style="filled, rounded", color="black", fontname="helvetica"] ;
edge [fontname="helvetica"] ;
0 [label="mean_value <= 238.581\ngini = 0.847\nsamples = 52\nvalue = [5, 12, 14, 9, 13, 13, 14]\nclass = 100000", fillcolor="#ffffff"] ;
1 [label="mean_saturation <= 16.812\ngini = 0.837\nsamples = 36\nvalue = [5, 12, 8, 8, 13, 7, 4]\nclass = 20000", fillcolor="#fbfbfe"] ;
0 -> 1 [labeldistance=2.5, labelangle=45, headlabel="True"] ;
2 [label="mean_saturation <= 12.287\ngini = 0.653\nsamples = 9\nvalue = [4, 0, 0, 4, 0, 6, 0]\nclass = 5000", fillcolor="#efd7fa"] ;
1 -> 2 ;
3 [label="mean_hue <= 57.12\ngini = 0.5\nsamples = 3\nvalue = [3, 0, 0, 3, 0, 0, 0]\nclass = 1000", fillcolor="#ffffff"] ;
2 -> 3 ;
4 [label="gini = 0.0\nsamples = 2\nvalue = [0, 0, 0, 3, 0, 0, 0]\nclass = 2000", fillcolor="#39e5e2"] ;
3 -> 4 ;
5 [label="gini = 0.0\nsamples = 1\nvalue = [3, 0, 0, 0, 0, 0, 0]\nclass = 1000", fillcolor="#e58139"] ;
3 -> 5 ;
6 [label="mean_hue <= 43.359\ngini = 0.406\nsamples = 6\nvalue = [1, 0, 0, 1, 0, 6, 0]\nclass = 5000", fillcolor="#c772ec"] ;
2 -> 6 ;
7 [label="gini = 0.0\nsamples = 4\nvalue = [0, 0, 0, 0, 0, 6, 0]\nclass = 5000", fillcolor="#b139e5"] ;
6 -> 7 ;
8 [label="mean_hue <= 67.628\ngini = 0.5\nsamples = 2\nvalue = [1, 0, 0, 1, 0, 0, 0]\nclass = 1000", fillcolor="#ffffff"] ;
6 -> 8 ;
9 [label="gini = 0.0\nsamples = 1\nvalue = [0, 0, 0, 1, 0, 0, 0]\nclass = 2000", fillcolor="#39e5e2"] ;
8 -> 9 ;
10 [label="gini = 0.0\nsamples = 1\nvalue = [1, 0, 0, 0, 0, 0, 0]\nclass = 1000", fillcolor="#e58139"] ;
8 -> 10 ;
11 [label="mean_hue <= 94.379\ngini = 0.778\nsamples = 27\nvalue = [1, 12, 8, 4, 13, 1, 4]\nclass = 20000", fillcolor="#f9fafe"] ;
1 -> 11 ;
12 [label="mean_saturation <= 95.789\ngini = 0.722\nsamples = 18\nvalue = [1, 0, 8, 4, 13, 1, 4]\nclass = 20000", fillcolor="#d4daf9"] ;
11 -> 12 ;
13 [label="mean_value <= 226.665\ngini = 0.656\nsamples = 16\nvalue = [1, 0, 8, 4, 13, 1, 0]\nclass = 20000", fillcolor="#cbd3f8"] ;
12 -> 13 ;
14 [label="mean_value <= 218.466\ngini = 0.66\nsamples = 6\nvalue = [1, 0, 0, 4, 4, 1, 0]\nclass = 2000", fillcolor="#ffffff"] ;
13 -> 14 ;
15 [label="mean_saturation <= 41.966\ngini = 0.32\nsamples = 4\nvalue = [1, 0, 0, 0, 4, 0, 0]\nclass = 20000", fillcolor="#6a80ec"] ;
14 -> 15 ;
16 [label="gini = 0.0\nsamples = 1\nvalue = [1, 0, 0, 0, 0, 0, 0]\nclass = 1000", fillcolor="#e58139"] ;
15 -> 16 ;
17 [label="gini = 0.0\nsamples = 3\nvalue = [0, 0, 0, 0, 4, 0, 0]\nclass = 20000", fillcolor="#3956e5"] ;
15 -> 17 ;
18 [label="mean_saturation <= 25.57\ngini = 0.32\nsamples = 2\nvalue = [0, 0, 0, 4, 0, 1, 0]\nclass = 2000", fillcolor="#6aece9"] ;
14 -> 18 ;
19 [label="gini = 0.0\nsamples = 1\nvalue = [0, 0, 0, 0, 0, 1, 0]\nclass = 5000", fillcolor="#b139e5"] ;
18 -> 19 ;
20 [label="gini = 0.0\nsamples = 1\nvalue = [0, 0, 0, 4, 0, 0, 0]\nclass = 2000", fillcolor="#39e5e2"] ;
18 -> 20 ;
21 [label="mean_hue <= 71.909\ngini = 0.498\nsamples = 10\nvalue = [0, 0, 8, 0, 9, 0, 0]\nclass = 20000", fillcolor="#e9ecfc"] ;
13 -> 21 ;
22 [label="mean_saturation <= 26.103\ngini = 0.245\nsamples = 4\nvalue = [0, 0, 6, 0, 1, 0, 0]\nclass = 100000", fillcolor="#5ae96b"] ;
21 -> 22 ;
23 [label="gini = 0.0\nsamples = 1\nvalue = [0, 0, 0, 0, 1, 0, 0]\nclass = 20000", fillcolor="#3956e5"] ;
22 -> 23 ;
24 [label="gini = 0.0\nsamples = 3\nvalue = [0, 0, 6, 0, 0, 0, 0]\nclass = 100000", fillcolor="#39e54d"] ;
22 -> 24 ;
25 [label="mean_hue <= 79.411\ngini = 0.32\nsamples = 6\nvalue = [0, 0, 2, 0, 8, 0, 0]\nclass = 20000", fillcolor="#6a80ec"] ;
21 -> 25 ;
26 [label="mean_hue <= 76.332\ngini = 0.48\nsamples = 3\nvalue = [0, 0, 2, 0, 3, 0, 0]\nclass = 20000", fillcolor="#bdc7f6"] ;
25 -> 26 ;
27 [label="gini = 0.0\nsamples = 2\nvalue = [0, 0, 0, 0, 3, 0, 0]\nclass = 20000", fillcolor="#3956e5"] ;
26 -> 27 ;
28 [label="gini = 0.0\nsamples = 1\nvalue = [0, 0, 2, 0, 0, 0, 0]\nclass = 100000", fillcolor="#39e54d"] ;
26 -> 28 ;
29 [label="gini = 0.0\nsamples = 3\nvalue = [0, 0, 0, 0, 5, 0, 0]\nclass = 20000", fillcolor="#3956e5"] ;
25 -> 29 ;
30 [label="gini = 0.0\nsamples = 2\nvalue = [0, 0, 0, 0, 0, 0, 4]\nclass = 50000", fillcolor="#e53986"] ;
12 -> 30 ;
31 [label="gini = 0.0\nsamples = 9\nvalue = [0, 12, 0, 0, 0, 0, 0]\nclass = 10000", fillcolor="#b7e539"] ;
11 -> 31 ;
32 [label="mean_saturation <= 34.871\ngini = 0.673\nsamples = 16\nvalue = [0, 0, 6, 1, 0, 6, 10]\nclass = 50000", fillcolor="#f9d0e3"] ;
0 -> 32 [labeldistance=2.5, labelangle=-45, headlabel="False"] ;
33 [label="mean_saturation <= 15.869\ngini = 0.568\nsamples = 10\nvalue = [0, 0, 6, 1, 0, 6, 0]\nclass = 100000", fillcolor="#ffffff"] ;
32 -> 33 ;
34 [label="mean_hue <= 64.411\ngini = 0.245\nsamples = 5\nvalue = [0, 0, 0, 1, 0, 6, 0]\nclass = 5000", fillcolor="#be5ae9"] ;
33 -> 34 ;
35 [label="gini = 0.0\nsamples = 4\nvalue = [0, 0, 0, 0, 0, 6, 0]\nclass = 5000", fillcolor="#b139e5"] ;
34 -> 35 ;
36 [label="gini = 0.0\nsamples = 1\nvalue = [0, 0, 0, 1, 0, 0, 0]\nclass = 2000", fillcolor="#39e5e2"] ;
34 -> 36 ;
37 [label="gini = 0.0\nsamples = 5\nvalue = [0, 0, 6, 0, 0, 0, 0]\nclass = 100000", fillcolor="#39e54d"] ;
33 -> 37 ;
38 [label="gini = 0.0\nsamples = 6\nvalue = [0, 0, 0, 0, 0, 0, 10]\nclass = 50000", fillcolor="#e53986"] ;
32 -> 38 ;
}