digraph Tree {
node [shape=box, style="filled, rounded", color="black", fontname="helvetica"] ;
edge [fontname="helvetica"] ;
0 [label="mean_value <= 235.149\ngini = 0.853\nsamples = 49\nvalue = [12, 10, 12, 12, 15, 8, 11]\nclass = 20000", fillcolor="#f6f8fe"] ;
1 [label="mean_hue <= 91.782\ngini = 0.761\nsamples = 28\nvalue = [12, 10, 0, 7, 15, 3, 0]\nclass = 20000", fillcolor="#eef1fd"] ;
0 -> 1 [labeldistance=2.5, labelangle=45, headlabel="True"] ;
2 [label="mean_saturation <= 48.518\ngini = 0.688\nsamples = 22\nvalue = [12, 0, 0, 7, 15, 3, 0]\nclass = 20000", fillcolor="#e7ebfc"] ;
1 -> 2 ;
3 [label="mean_value <= 216.092\ngini = 0.678\nsamples = 17\nvalue = [12, 0, 0, 7, 4, 3, 0]\nclass = 1000", fillcolor="#f8decb"] ;
2 -> 3 ;
4 [label="gini = 0.0\nsamples = 4\nvalue = [6, 0, 0, 0, 0, 0, 0]\nclass = 1000", fillcolor="#e58139"] ;
3 -> 4 ;
5 [label="mean_hue <= 40.323\ngini = 0.725\nsamples = 13\nvalue = [6, 0, 0, 7, 4, 3, 0]\nclass = 2000", fillcolor="#f1fdfd"] ;
3 -> 5 ;
6 [label="gini = 0.0\nsamples = 2\nvalue = [0, 0, 0, 0, 0, 3, 0]\nclass = 5000", fillcolor="#b139e5"] ;
5 -> 6 ;
7 [label="mean_value <= 225.377\ngini = 0.651\nsamples = 11\nvalue = [6, 0, 0, 7, 4, 0, 0]\nclass = 2000", fillcolor="#edfdfc"] ;
5 -> 7 ;
8 [label="gini = 0.0\nsamples = 3\nvalue = [0, 0, 0, 6, 0, 0, 0]\nclass = 2000", fillcolor="#39e5e2"] ;
7 -> 8 ;
9 [label="mean_saturation <= 16.322\ngini = 0.562\nsamples = 8\nvalue = [6, 0, 0, 1, 4, 0, 0]\nclass = 1000", fillcolor="#f8dbc6"] ;
7 -> 9 ;
10 [label="mean_value <= 234.086\ngini = 0.245\nsamples = 5\nvalue = [6, 0, 0, 1, 0, 0, 0]\nclass = 1000", fillcolor="#e9965a"] ;
9 -> 10 ;
11 [label="gini = 0.0\nsamples = 4\nvalue = [6, 0, 0, 0, 0, 0, 0]\nclass = 1000", fillcolor="#e58139"] ;
10 -> 11 ;
12 [label="gini = 0.0\nsamples = 1\nvalue = [0, 0, 0, 1, 0, 0, 0]\nclass = 2000", fillcolor="#39e5e2"] ;
10 -> 12 ;
13 [label="gini = 0.0\nsamples = 3\nvalue = [0, 0, 0, 0, 4, 0, 0]\nclass = 20000", fillcolor="#3956e5"] ;
9 -> 13 ;
14 [label="gini = 0.0\nsamples = 5\nvalue = [0, 0, 0, 0, 11, 0, 0]\nclass = 20000", fillcolor="#3956e5"] ;
2 -> 14 ;
15 [label="gini = 0.0\nsamples = 6\nvalue = [0, 10, 0, 0, 0, 0, 0]\nclass = 10000", fillcolor="#b7e539"] ;
1 -> 15 ;
16 [label="mean_value <= 244.324\ngini = 0.711\nsamples = 21\nvalue = [0, 0, 12, 5, 0, 5, 11]\nclass = 100000", fillcolor="#f6fef7"] ;
0 -> 16 [labeldistance=2.5, labelangle=-45, headlabel="False"] ;
17 [label="mean_hue <= 103.195\ngini = 0.636\nsamples = 16\nvalue = [0, 0, 11, 5, 0, 0, 10]\nclass = 100000", fillcolor="#f3fdf4"] ;
16 -> 17 ;
18 [label="mean_saturation <= 45.551\ngini = 0.586\nsamples = 12\nvalue = [0, 0, 3, 5, 0, 0, 10]\nclass = 50000", fillcolor="#f5b3d0"] ;
17 -> 18 ;
19 [label="mean_hue <= 34.499\ngini = 0.469\nsamples = 6\nvalue = [0, 0, 3, 5, 0, 0, 0]\nclass = 2000", fillcolor="#b0f5f3"] ;
18 -> 19 ;
20 [label="mean_saturation <= 15.207\ngini = 0.375\nsamples = 3\nvalue = [0, 0, 3, 1, 0, 0, 0]\nclass = 100000", fillcolor="#7bee88"] ;
19 -> 20 ;
21 [label="gini = 0.0\nsamples = 1\nvalue = [0, 0, 0, 1, 0, 0, 0]\nclass = 2000", fillcolor="#39e5e2"] ;
20 -> 21 ;
22 [label="gini = 0.0\nsamples = 2\nvalue = [0, 0, 3, 0, 0, 0, 0]\nclass = 100000", fillcolor="#39e54d"] ;
20 -> 22 ;
23 [label="gini = 0.0\nsamples = 3\nvalue = [0, 0, 0, 4, 0, 0, 0]\nclass = 2000", fillcolor="#39e5e2"] ;
19 -> 23 ;
24 [label="gini = 0.0\nsamples = 6\nvalue = [0, 0, 0, 0, 0, 0, 10]\nclass = 50000", fillcolor="#e53986"] ;
18 -> 24 ;
25 [label="gini = 0.0\nsamples = 4\nvalue = [0, 0, 8, 0, 0, 0, 0]\nclass = 100000", fillcolor="#39e54d"] ;
17 -> 25 ;
26 [label="mean_saturation <= 15.977\ngini = 0.449\nsamples = 5\nvalue = [0, 0, 1, 0, 0, 5, 1]\nclass = 5000", fillcolor="#cb7bee"] ;
16 -> 26 ;
27 [label="gini = 0.0\nsamples = 3\nvalue = [0, 0, 0, 0, 0, 5, 0]\nclass = 5000", fillcolor="#b139e5"] ;
26 -> 27 ;
28 [label="mean_value <= 246.843\ngini = 0.5\nsamples = 2\nvalue = [0, 0, 1, 0, 0, 0, 1]\nclass = 100000", fillcolor="#ffffff"] ;
26 -> 28 ;
29 [label="gini = 0.0\nsamples = 1\nvalue = [0, 0, 1, 0, 0, 0, 0]\nclass = 100000", fillcolor="#39e54d"] ;
28 -> 29 ;
30 [label="gini = 0.0\nsamples = 1\nvalue = [0, 0, 0, 0, 0, 0, 1]\nclass = 50000", fillcolor="#e53986"] ;
28 -> 30 ;
}