digraph Tree {
node [shape=box, style="filled, rounded", color="black", fontname="helvetica"] ;
edge [fontname="helvetica"] ;
0 [label="mean_value <= 239.475\ngini = 0.851\nsamples = 51\nvalue = [13, 12, 16, 11, 9, 10, 9]\nclass = 100000", fillcolor="#f6fef7"] ;
1 [label="mean_hue <= 94.21\ngini = 0.833\nsamples = 38\nvalue = [13, 12, 8, 10, 9, 8, 1]\nclass = 1000", fillcolor="#fefcfb"] ;
0 -> 1 [labeldistance=2.5, labelangle=45, headlabel="True"] ;
2 [label="mean_value <= 226.579\ngini = 0.792\nsamples = 28\nvalue = [13, 0, 5, 10, 9, 8, 1]\nclass = 1000", fillcolor="#fdf5ef"] ;
1 -> 2 ;
3 [label="mean_saturation <= 20.25\ngini = 0.703\nsamples = 14\nvalue = [5, 0, 0, 8, 2, 8, 0]\nclass = 2000", fillcolor="#ffffff"] ;
2 -> 3 ;
4 [label="gini = 0.0\nsamples = 5\nvalue = [0, 0, 0, 0, 0, 8, 0]\nclass = 5000", fillcolor="#b139e5"] ;
3 -> 4 ;
5 [label="mean_hue <= 70.176\ngini = 0.587\nsamples = 9\nvalue = [5, 0, 0, 8, 2, 0, 0]\nclass = 2000", fillcolor="#c4f7f6"] ;
3 -> 5 ;
6 [label="gini = 0.0\nsamples = 3\nvalue = [5, 0, 0, 0, 0, 0, 0]\nclass = 1000", fillcolor="#e58139"] ;
5 -> 6 ;
7 [label="mean_hue <= 84.476\ngini = 0.32\nsamples = 6\nvalue = [0, 0, 0, 8, 2, 0, 0]\nclass = 2000", fillcolor="#6aece9"] ;
5 -> 7 ;
8 [label="mean_value <= 217.112\ngini = 0.444\nsamples = 4\nvalue = [0, 0, 0, 4, 2, 0, 0]\nclass = 2000", fillcolor="#9cf2f0"] ;
7 -> 8 ;
9 [label="mean_hue <= 80.787\ngini = 0.444\nsamples = 3\nvalue = [0, 0, 0, 1, 2, 0, 0]\nclass = 20000", fillcolor="#9caaf2"] ;
8 -> 9 ;
10 [label="gini = 0.0\nsamples = 1\nvalue = [0, 0, 0, 0, 1, 0, 0]\nclass = 20000", fillcolor="#3956e5"] ;
9 -> 10 ;
11 [label="mean_saturation <= 57.513\ngini = 0.5\nsamples = 2\nvalue = [0, 0, 0, 1, 1, 0, 0]\nclass = 2000", fillcolor="#ffffff"] ;
9 -> 11 ;
12 [label="gini = 0.0\nsamples = 1\nvalue = [0, 0, 0, 1, 0, 0, 0]\nclass = 2000", fillcolor="#39e5e2"] ;
11 -> 12 ;
13 [label="gini = 0.0\nsamples = 1\nvalue = [0, 0, 0, 0, 1, 0, 0]\nclass = 20000", fillcolor="#3956e5"] ;
11 -> 13 ;
14 [label="gini = 0.0\nsamples = 1\nvalue = [0, 0, 0, 3, 0, 0, 0]\nclass = 2000", fillcolor="#39e5e2"] ;
8 -> 14 ;
15 [label="gini = 0.0\nsamples = 2\nvalue = [0, 0, 0, 4, 0, 0, 0]\nclass = 2000", fillcolor="#39e5e2"] ;
7 -> 15 ;
16 [label="mean_saturation <= 16.322\ngini = 0.73\nsamples = 14\nvalue = [8, 0, 5, 2, 7, 0, 1]\nclass = 1000", fillcolor="#fdf7f3"] ;
2 -> 16 ;
17 [label="mean_hue <= 57.12\ngini = 0.32\nsamples = 6\nvalue = [8, 0, 0, 2, 0, 0, 0]\nclass = 1000", fillcolor="#eca06a"] ;
16 -> 17 ;
18 [label="gini = 0.0\nsamples = 2\nvalue = [0, 0, 0, 2, 0, 0, 0]\nclass = 2000", fillcolor="#39e5e2"] ;
17 -> 18 ;
19 [label="gini = 0.0\nsamples = 4\nvalue = [8, 0, 0, 0, 0, 0, 0]\nclass = 1000", fillcolor="#e58139"] ;
17 -> 19 ;
20 [label="mean_hue <= 73.261\ngini = 0.556\nsamples = 8\nvalue = [0, 0, 5, 0, 7, 0, 1]\nclass = 20000", fillcolor="#ced5f8"] ;
16 -> 20 ;
21 [label="gini = 0.0\nsamples = 2\nvalue = [0, 0, 4, 0, 0, 0, 0]\nclass = 100000", fillcolor="#39e54d"] ;
20 -> 21 ;
22 [label="mean_hue <= 90.932\ngini = 0.37\nsamples = 6\nvalue = [0, 0, 1, 0, 7, 0, 1]\nclass = 20000", fillcolor="#6a80ec"] ;
20 -> 22 ;
23 [label="mean_saturation <= 32.091\ngini = 0.219\nsamples = 5\nvalue = [0, 0, 1, 0, 7, 0, 0]\nclass = 20000", fillcolor="#556ee9"] ;
22 -> 23 ;
24 [label="mean_hue <= 76.332\ngini = 0.444\nsamples = 3\nvalue = [0, 0, 1, 0, 2, 0, 0]\nclass = 20000", fillcolor="#9caaf2"] ;
23 -> 24 ;
25 [label="gini = 0.0\nsamples = 1\nvalue = [0, 0, 0, 0, 1, 0, 0]\nclass = 20000", fillcolor="#3956e5"] ;
24 -> 25 ;
26 [label="mean_value <= 230.023\ngini = 0.5\nsamples = 2\nvalue = [0, 0, 1, 0, 1, 0, 0]\nclass = 100000", fillcolor="#ffffff"] ;
24 -> 26 ;
27 [label="gini = 0.0\nsamples = 1\nvalue = [0, 0, 1, 0, 0, 0, 0]\nclass = 100000", fillcolor="#39e54d"] ;
26 -> 27 ;
28 [label="gini = 0.0\nsamples = 1\nvalue = [0, 0, 0, 0, 1, 0, 0]\nclass = 20000", fillcolor="#3956e5"] ;
26 -> 28 ;
29 [label="gini = 0.0\nsamples = 2\nvalue = [0, 0, 0, 0, 5, 0, 0]\nclass = 20000", fillcolor="#3956e5"] ;
23 -> 29 ;
30 [label="gini = 0.0\nsamples = 1\nvalue = [0, 0, 0, 0, 0, 0, 1]\nclass = 50000", fillcolor="#e53986"] ;
22 -> 30 ;
31 [label="mean_hue <= 96.898\ngini = 0.32\nsamples = 10\nvalue = [0, 12, 3, 0, 0, 0, 0]\nclass = 10000", fillcolor="#c9ec6a"] ;
1 -> 31 ;
32 [label="gini = 0.0\nsamples = 4\nvalue = [0, 6, 0, 0, 0, 0, 0]\nclass = 10000", fillcolor="#b7e539"] ;
31 -> 32 ;
33 [label="mean_value <= 228.958\ngini = 0.444\nsamples = 6\nvalue = [0, 6, 3, 0, 0, 0, 0]\nclass = 10000", fillcolor="#dbf29c"] ;
31 -> 33 ;
34 [label="gini = 0.0\nsamples = 3\nvalue = [0, 4, 0, 0, 0, 0, 0]\nclass = 10000", fillcolor="#b7e539"] ;
33 -> 34 ;
35 [label="mean_saturation <= 33.2\ngini = 0.48\nsamples = 3\nvalue = [0, 2, 3, 0, 0, 0, 0]\nclass = 100000", fillcolor="#bdf6c4"] ;
33 -> 35 ;
36 [label="gini = 0.0\nsamples = 1\nvalue = [0, 0, 3, 0, 0, 0, 0]\nclass = 100000", fillcolor="#39e54d"] ;
35 -> 36 ;
37 [label="gini = 0.0\nsamples = 2\nvalue = [0, 2, 0, 0, 0, 0, 0]\nclass = 10000", fillcolor="#b7e539"] ;
35 -> 37 ;
38 [label="mean_value <= 242.849\ngini = 0.632\nsamples = 13\nvalue = [0, 0, 8, 1, 0, 2, 8]\nclass = 100000", fillcolor="#ffffff"] ;
0 -> 38 [labeldistance=2.5, labelangle=-45, headlabel="False"] ;
39 [label="mean_saturation <= 38.297\ngini = 0.494\nsamples = 5\nvalue = [0, 0, 2, 1, 0, 0, 6]\nclass = 50000", fillcolor="#f08eba"] ;
38 -> 39 ;
40 [label="mean_saturation <= 15.735\ngini = 0.444\nsamples = 2\nvalue = [0, 0, 2, 1, 0, 0, 0]\nclass = 100000", fillcolor="#9cf2a6"] ;
39 -> 40 ;
41 [label="gini = 0.0\nsamples = 1\nvalue = [0, 0, 0, 1, 0, 0, 0]\nclass = 2000", fillcolor="#39e5e2"] ;
40 -> 41 ;
42 [label="gini = 0.0\nsamples = 1\nvalue = [0, 0, 2, 0, 0, 0, 0]\nclass = 100000", fillcolor="#39e54d"] ;
40 -> 42 ;
43 [label="gini = 0.0\nsamples = 3\nvalue = [0, 0, 0, 0, 0, 0, 6]\nclass = 50000", fillcolor="#e53986"] ;
39 -> 43 ;
44 [label="mean_saturation <= 16.028\ngini = 0.56\nsamples = 8\nvalue = [0, 0, 6, 0, 0, 2, 2]\nclass = 100000", fillcolor="#9cf2a6"] ;
38 -> 44 ;
45 [label="gini = 0.0\nsamples = 2\nvalue = [0, 0, 0, 0, 0, 2, 0]\nclass = 5000", fillcolor="#b139e5"] ;
44 -> 45 ;
46 [label="mean_hue <= 108.481\ngini = 0.375\nsamples = 6\nvalue = [0, 0, 6, 0, 0, 0, 2]\nclass = 100000", fillcolor="#7bee88"] ;
44 -> 46 ;
47 [label="mean_value <= 244.554\ngini = 0.444\nsamples = 3\nvalue = [0, 0, 1, 0, 0, 0, 2]\nclass = 50000", fillcolor="#f29cc2"] ;
46 -> 47 ;
48 [label="gini = 0.0\nsamples = 1\nvalue = [0, 0, 1, 0, 0, 0, 0]\nclass = 100000", fillcolor="#39e54d"] ;
47 -> 48 ;
49 [label="gini = 0.0\nsamples = 2\nvalue = [0, 0, 0, 0, 0, 0, 2]\nclass = 50000", fillcolor="#e53986"] ;
47 -> 49 ;
50 [label="gini = 0.0\nsamples = 3\nvalue = [0, 0, 5, 0, 0, 0, 0]\nclass = 100000", fillcolor="#39e54d"] ;
46 -> 50 ;
}