digraph Tree {
node [shape=box, style="filled, rounded", color="black", fontname="helvetica"] ;
edge [fontname="helvetica"] ;
0 [label="mean_saturation <= 95.789\ngini = 0.849\nsamples = 50\nvalue = [12, 14, 6, 13, 13, 13, 9]\nclass = 10000", fillcolor="#fefffc"] ;
1 [label="mean_saturation <= 31.334\ngini = 0.829\nsamples = 46\nvalue = [12, 14, 6, 13, 13, 13, 1]\nclass = 10000", fillcolor="#fefffc"] ;
0 -> 1 [labeldistance=2.5, labelangle=45, headlabel="True"] ;
2 [label="mean_saturation <= 13.307\ngini = 0.783\nsamples = 31\nvalue = [12, 2, 4, 11, 5, 13, 0]\nclass = 5000", fillcolor="#fdf9fe"] ;
1 -> 2 ;
3 [label="mean_hue <= 25.726\ngini = 0.32\nsamples = 7\nvalue = [0, 0, 0, 8, 0, 2, 0]\nclass = 2000", fillcolor="#6aece9"] ;
2 -> 3 ;
4 [label="gini = 0.0\nsamples = 1\nvalue = [0, 0, 0, 0, 0, 1, 0]\nclass = 5000", fillcolor="#b139e5"] ;
3 -> 4 ;
5 [label="mean_value <= 244.694\ngini = 0.198\nsamples = 6\nvalue = [0, 0, 0, 8, 0, 1, 0]\nclass = 2000", fillcolor="#52e8e6"] ;
3 -> 5 ;
6 [label="gini = 0.0\nsamples = 5\nvalue = [0, 0, 0, 8, 0, 0, 0]\nclass = 2000", fillcolor="#39e5e2"] ;
5 -> 6 ;
7 [label="gini = 0.0\nsamples = 1\nvalue = [0, 0, 0, 0, 0, 1, 0]\nclass = 5000", fillcolor="#b139e5"] ;
5 -> 7 ;
8 [label="mean_saturation <= 23.275\ngini = 0.767\nsamples = 24\nvalue = [12, 2, 4, 3, 5, 11, 0]\nclass = 1000", fillcolor="#fefaf7"] ;
2 -> 8 ;
9 [label="mean_saturation <= 18.079\ngini = 0.759\nsamples = 18\nvalue = [6, 2, 4, 1, 5, 11, 0]\nclass = 5000", fillcolor="#eed4f9"] ;
8 -> 9 ;
10 [label="mean_saturation <= 15.667\ngini = 0.659\nsamples = 11\nvalue = [6, 2, 0, 1, 1, 9, 0]\nclass = 5000", fillcolor="#edd1f9"] ;
9 -> 10 ;
11 [label="mean_saturation <= 14.178\ngini = 0.562\nsamples = 6\nvalue = [6, 0, 0, 1, 0, 4, 0]\nclass = 1000", fillcolor="#f8dbc6"] ;
10 -> 11 ;
12 [label="gini = 0.0\nsamples = 2\nvalue = [0, 0, 0, 0, 0, 4, 0]\nclass = 5000", fillcolor="#b139e5"] ;
11 -> 12 ;
13 [label="mean_saturation <= 14.307\ngini = 0.245\nsamples = 4\nvalue = [6, 0, 0, 1, 0, 0, 0]\nclass = 1000", fillcolor="#e9965a"] ;
11 -> 13 ;
14 [label="gini = 0.0\nsamples = 1\nvalue = [3, 0, 0, 0, 0, 0, 0]\nclass = 1000", fillcolor="#e58139"] ;
13 -> 14 ;
15 [label="mean_value <= 224.279\ngini = 0.375\nsamples = 3\nvalue = [3, 0, 0, 1, 0, 0, 0]\nclass = 1000", fillcolor="#eeab7b"] ;
13 -> 15 ;
16 [label="gini = 0.0\nsamples = 1\nvalue = [0, 0, 0, 1, 0, 0, 0]\nclass = 2000", fillcolor="#39e5e2"] ;
15 -> 16 ;
17 [label="gini = 0.0\nsamples = 2\nvalue = [3, 0, 0, 0, 0, 0, 0]\nclass = 1000", fillcolor="#e58139"] ;
15 -> 17 ;
18 [label="mean_value <= 226.559\ngini = 0.531\nsamples = 5\nvalue = [0, 2, 0, 0, 1, 5, 0]\nclass = 5000", fillcolor="#d89cf2"] ;
10 -> 18 ;
19 [label="gini = 0.0\nsamples = 3\nvalue = [0, 0, 0, 0, 0, 5, 0]\nclass = 5000", fillcolor="#b139e5"] ;
18 -> 19 ;
20 [label="mean_saturation <= 17.409\ngini = 0.444\nsamples = 2\nvalue = [0, 2, 0, 0, 1, 0, 0]\nclass = 10000", fillcolor="#dbf29c"] ;
18 -> 20 ;
21 [label="gini = 0.0\nsamples = 1\nvalue = [0, 2, 0, 0, 0, 0, 0]\nclass = 10000", fillcolor="#b7e539"] ;
20 -> 21 ;
22 [label="gini = 0.0\nsamples = 1\nvalue = [0, 0, 0, 0, 1, 0, 0]\nclass = 20000", fillcolor="#3956e5"] ;
20 -> 22 ;
23 [label="mean_value <= 237.543\ngini = 0.64\nsamples = 7\nvalue = [0, 0, 4, 0, 4, 2, 0]\nclass = 100000", fillcolor="#ffffff"] ;
9 -> 23 ;
24 [label="mean_saturation <= 21.524\ngini = 0.444\nsamples = 4\nvalue = [0, 0, 0, 0, 4, 2, 0]\nclass = 20000", fillcolor="#9caaf2"] ;
23 -> 24 ;
25 [label="mean_value <= 230.321\ngini = 0.444\nsamples = 2\nvalue = [0, 0, 0, 0, 1, 2, 0]\nclass = 5000", fillcolor="#d89cf2"] ;
24 -> 25 ;
26 [label="gini = 0.0\nsamples = 1\nvalue = [0, 0, 0, 0, 0, 2, 0]\nclass = 5000", fillcolor="#b139e5"] ;
25 -> 26 ;
27 [label="gini = 0.0\nsamples = 1\nvalue = [0, 0, 0, 0, 1, 0, 0]\nclass = 20000", fillcolor="#3956e5"] ;
25 -> 27 ;
28 [label="gini = 0.0\nsamples = 2\nvalue = [0, 0, 0, 0, 3, 0, 0]\nclass = 20000", fillcolor="#3956e5"] ;
24 -> 28 ;
29 [label="gini = 0.0\nsamples = 3\nvalue = [0, 0, 4, 0, 0, 0, 0]\nclass = 100000", fillcolor="#39e54d"] ;
23 -> 29 ;
30 [label="mean_value <= 212.79\ngini = 0.375\nsamples = 6\nvalue = [6, 0, 0, 2, 0, 0, 0]\nclass = 1000", fillcolor="#eeab7b"] ;
8 -> 30 ;
31 [label="gini = 0.0\nsamples = 3\nvalue = [5, 0, 0, 0, 0, 0, 0]\nclass = 1000", fillcolor="#e58139"] ;
30 -> 31 ;
32 [label="mean_value <= 213.168\ngini = 0.444\nsamples = 3\nvalue = [1, 0, 0, 2, 0, 0, 0]\nclass = 2000", fillcolor="#9cf2f0"] ;
30 -> 32 ;
33 [label="gini = 0.0\nsamples = 1\nvalue = [0, 0, 0, 1, 0, 0, 0]\nclass = 2000", fillcolor="#39e5e2"] ;
32 -> 33 ;
34 [label="mean_saturation <= 27.096\ngini = 0.5\nsamples = 2\nvalue = [1, 0, 0, 1, 0, 0, 0]\nclass = 1000", fillcolor="#ffffff"] ;
32 -> 34 ;
35 [label="gini = 0.0\nsamples = 1\nvalue = [1, 0, 0, 0, 0, 0, 0]\nclass = 1000", fillcolor="#e58139"] ;
34 -> 35 ;
36 [label="gini = 0.0\nsamples = 1\nvalue = [0, 0, 0, 1, 0, 0, 0]\nclass = 2000", fillcolor="#39e5e2"] ;
34 -> 36 ;
37 [label="mean_hue <= 92.057\ngini = 0.653\nsamples = 15\nvalue = [0, 12, 2, 2, 8, 0, 1]\nclass = 10000", fillcolor="#eef9d0"] ;
1 -> 37 ;
38 [label="mean_hue <= 49.283\ngini = 0.568\nsamples = 9\nvalue = [0, 0, 2, 2, 8, 0, 1]\nclass = 20000", fillcolor="#93a3f1"] ;
37 -> 38 ;
39 [label="gini = 0.0\nsamples = 1\nvalue = [0, 0, 2, 0, 0, 0, 0]\nclass = 100000", fillcolor="#39e54d"] ;
38 -> 39 ;
40 [label="mean_value <= 241.501\ngini = 0.43\nsamples = 8\nvalue = [0, 0, 0, 2, 8, 0, 1]\nclass = 20000", fillcolor="#7b8eee"] ;
38 -> 40 ;
41 [label="mean_saturation <= 48.56\ngini = 0.32\nsamples = 7\nvalue = [0, 0, 0, 2, 8, 0, 0]\nclass = 20000", fillcolor="#6a80ec"] ;
40 -> 41 ;
42 [label="mean_hue <= 86.938\ngini = 0.5\nsamples = 3\nvalue = [0, 0, 0, 2, 2, 0, 0]\nclass = 2000", fillcolor="#ffffff"] ;
41 -> 42 ;
43 [label="gini = 0.0\nsamples = 2\nvalue = [0, 0, 0, 2, 0, 0, 0]\nclass = 2000", fillcolor="#39e5e2"] ;
42 -> 43 ;
44 [label="gini = 0.0\nsamples = 1\nvalue = [0, 0, 0, 0, 2, 0, 0]\nclass = 20000", fillcolor="#3956e5"] ;
42 -> 44 ;
45 [label="gini = 0.0\nsamples = 4\nvalue = [0, 0, 0, 0, 6, 0, 0]\nclass = 20000", fillcolor="#3956e5"] ;
41 -> 45 ;
46 [label="gini = 0.0\nsamples = 1\nvalue = [0, 0, 0, 0, 0, 0, 1]\nclass = 50000", fillcolor="#e53986"] ;
40 -> 46 ;
47 [label="gini = 0.0\nsamples = 6\nvalue = [0, 12, 0, 0, 0, 0, 0]\nclass = 10000", fillcolor="#b7e539"] ;
37 -> 47 ;
48 [label="gini = 0.0\nsamples = 4\nvalue = [0, 0, 0, 0, 0, 0, 8]\nclass = 50000", fillcolor="#e53986"] ;
0 -> 48 [labeldistance=2.5, labelangle=-45, headlabel="False"] ;
}