digraph Tree {
node [shape=box, style="filled, rounded", color="black", fontname="helvetica"] ;
edge [fontname="helvetica"] ;
0 [label="mean_hue <= 94.425\ngini = 0.847\nsamples = 45\nvalue = [10, 14, 15, 12, 5, 13, 11]\nclass = 100000", fillcolor="#fcfffc"] ;
1 [label="mean_saturation <= 52.413\ngini = 0.81\nsamples = 33\nvalue = [10, 0, 4, 12, 5, 13, 11]\nclass = 5000", fillcolor="#fdfafe"] ;
0 -> 1 [labeldistance=2.5, labelangle=45, headlabel="True"] ;
2 [label="mean_value <= 221.09\ngini = 0.752\nsamples = 26\nvalue = [10, 0, 4, 12, 3, 13, 0]\nclass = 5000", fillcolor="#fcf8fe"] ;
1 -> 2 ;
3 [label="mean_hue <= 73.194\ngini = 0.463\nsamples = 5\nvalue = [4, 0, 0, 7, 0, 0, 0]\nclass = 2000", fillcolor="#aaf4f3"] ;
2 -> 3 ;
4 [label="mean_value <= 214.942\ngini = 0.444\nsamples = 3\nvalue = [4, 0, 0, 2, 0, 0, 0]\nclass = 1000", fillcolor="#f2c09c"] ;
3 -> 4 ;
5 [label="gini = 0.0\nsamples = 2\nvalue = [4, 0, 0, 0, 0, 0, 0]\nclass = 1000", fillcolor="#e58139"] ;
4 -> 5 ;
6 [label="gini = 0.0\nsamples = 1\nvalue = [0, 0, 0, 2, 0, 0, 0]\nclass = 2000", fillcolor="#39e5e2"] ;
4 -> 6 ;
7 [label="gini = 0.0\nsamples = 2\nvalue = [0, 0, 0, 5, 0, 0, 0]\nclass = 2000", fillcolor="#39e5e2"] ;
3 -> 7 ;
8 [label="mean_value <= 227.431\ngini = 0.735\nsamples = 21\nvalue = [6, 0, 4, 5, 3, 13, 0]\nclass = 5000", fillcolor="#e9c8f8"] ;
2 -> 8 ;
9 [label="gini = 0.0\nsamples = 4\nvalue = [0, 0, 0, 0, 0, 8, 0]\nclass = 5000", fillcolor="#b139e5"] ;
8 -> 9 ;
10 [label="mean_value <= 243.979\ngini = 0.79\nsamples = 17\nvalue = [6, 0, 4, 5, 3, 5, 0]\nclass = 1000", fillcolor="#fef8f4"] ;
8 -> 10 ;
11 [label="mean_value <= 234.086\ngini = 0.735\nsamples = 14\nvalue = [6, 0, 4, 5, 3, 0, 0]\nclass = 1000", fillcolor="#fdf5f0"] ;
10 -> 11 ;
12 [label="mean_hue <= 75.108\ngini = 0.245\nsamples = 6\nvalue = [6, 0, 0, 0, 1, 0, 0]\nclass = 1000", fillcolor="#e9965a"] ;
11 -> 12 ;
13 [label="gini = 0.0\nsamples = 3\nvalue = [3, 0, 0, 0, 0, 0, 0]\nclass = 1000", fillcolor="#e58139"] ;
12 -> 13 ;
14 [label="mean_hue <= 75.565\ngini = 0.375\nsamples = 3\nvalue = [3, 0, 0, 0, 1, 0, 0]\nclass = 1000", fillcolor="#eeab7b"] ;
12 -> 14 ;
15 [label="gini = 0.0\nsamples = 1\nvalue = [0, 0, 0, 0, 1, 0, 0]\nclass = 20000", fillcolor="#3956e5"] ;
14 -> 15 ;
16 [label="gini = 0.0\nsamples = 2\nvalue = [3, 0, 0, 0, 0, 0, 0]\nclass = 1000", fillcolor="#e58139"] ;
14 -> 16 ;
17 [label="mean_value <= 241.645\ngini = 0.628\nsamples = 8\nvalue = [0, 0, 4, 5, 2, 0, 0]\nclass = 2000", fillcolor="#e3fbfb"] ;
11 -> 17 ;
18 [label="mean_hue <= 24.019\ngini = 0.593\nsamples = 7\nvalue = [0, 0, 2, 5, 2, 0, 0]\nclass = 2000", fillcolor="#aaf4f3"] ;
17 -> 18 ;
19 [label="gini = 0.0\nsamples = 2\nvalue = [0, 0, 2, 0, 0, 0, 0]\nclass = 100000", fillcolor="#39e54d"] ;
18 -> 19 ;
20 [label="mean_hue <= 70.806\ngini = 0.408\nsamples = 5\nvalue = [0, 0, 0, 5, 2, 0, 0]\nclass = 2000", fillcolor="#88efee"] ;
18 -> 20 ;
21 [label="gini = 0.0\nsamples = 4\nvalue = [0, 0, 0, 5, 0, 0, 0]\nclass = 2000", fillcolor="#39e5e2"] ;
20 -> 21 ;
22 [label="gini = 0.0\nsamples = 1\nvalue = [0, 0, 0, 0, 2, 0, 0]\nclass = 20000", fillcolor="#3956e5"] ;
20 -> 22 ;
23 [label="gini = 0.0\nsamples = 1\nvalue = [0, 0, 2, 0, 0, 0, 0]\nclass = 100000", fillcolor="#39e54d"] ;
17 -> 23 ;
24 [label="gini = 0.0\nsamples = 3\nvalue = [0, 0, 0, 0, 0, 5, 0]\nclass = 5000", fillcolor="#b139e5"] ;
10 -> 24 ;
25 [label="mean_value <= 222.644\ngini = 0.26\nsamples = 7\nvalue = [0, 0, 0, 0, 2, 0, 11]\nclass = 50000", fillcolor="#ea5d9c"] ;
1 -> 25 ;
26 [label="gini = 0.0\nsamples = 1\nvalue = [0, 0, 0, 0, 2, 0, 0]\nclass = 20000", fillcolor="#3956e5"] ;
25 -> 26 ;
27 [label="gini = 0.0\nsamples = 6\nvalue = [0, 0, 0, 0, 0, 0, 11]\nclass = 50000", fillcolor="#e53986"] ;
25 -> 27 ;
28 [label="mean_value <= 239.356\ngini = 0.493\nsamples = 12\nvalue = [0, 14, 11, 0, 0, 0, 0]\nclass = 10000", fillcolor="#f0f9d5"] ;
0 -> 28 [labeldistance=2.5, labelangle=-45, headlabel="False"] ;
29 [label="mean_value <= 228.229\ngini = 0.124\nsamples = 8\nvalue = [0, 14, 1, 0, 0, 0, 0]\nclass = 10000", fillcolor="#bce747"] ;
28 -> 29 ;
30 [label="gini = 0.0\nsamples = 3\nvalue = [0, 7, 0, 0, 0, 0, 0]\nclass = 10000", fillcolor="#b7e539"] ;
29 -> 30 ;
31 [label="mean_saturation <= 32.444\ngini = 0.219\nsamples = 5\nvalue = [0, 7, 1, 0, 0, 0, 0]\nclass = 10000", fillcolor="#c1e955"] ;
29 -> 31 ;
32 [label="gini = 0.0\nsamples = 1\nvalue = [0, 0, 1, 0, 0, 0, 0]\nclass = 100000", fillcolor="#39e54d"] ;
31 -> 32 ;
33 [label="gini = 0.0\nsamples = 4\nvalue = [0, 7, 0, 0, 0, 0, 0]\nclass = 10000", fillcolor="#b7e539"] ;
31 -> 33 ;
34 [label="gini = 0.0\nsamples = 4\nvalue = [0, 0, 10, 0, 0, 0, 0]\nclass = 100000", fillcolor="#39e54d"] ;
28 -> 34 ;
}