digraph Tree {
node [shape=box, style="filled, rounded", color="black", fontname="helvetica"] ;
edge [fontname="helvetica"] ;
0 [label="mean_value <= 221.609\ngini = 0.848\nsamples = 47\nvalue = [10, 15, 15, 12, 6, 10, 12]\nclass = 10000", fillcolor="#ffffff"] ;
1 [label="mean_value <= 212.79\ngini = 0.665\nsamples = 12\nvalue = [6, 0, 0, 7, 6, 0, 0]\nclass = 2000", fillcolor="#f0fdfd"] ;
0 -> 1 [labeldistance=2.5, labelangle=45, headlabel="True"] ;
2 [label="mean_value <= 211.271\ngini = 0.375\nsamples = 5\nvalue = [6, 0, 0, 0, 2, 0, 0]\nclass = 1000", fillcolor="#eeab7b"] ;
1 -> 2 ;
3 [label="gini = 0.0\nsamples = 1\nvalue = [0, 0, 0, 0, 2, 0, 0]\nclass = 20000", fillcolor="#3956e5"] ;
2 -> 3 ;
4 [label="gini = 0.0\nsamples = 4\nvalue = [6, 0, 0, 0, 0, 0, 0]\nclass = 1000", fillcolor="#e58139"] ;
2 -> 4 ;
5 [label="mean_hue <= 83.066\ngini = 0.463\nsamples = 7\nvalue = [0, 0, 0, 7, 4, 0, 0]\nclass = 2000", fillcolor="#aaf4f3"] ;
1 -> 5 ;
6 [label="mean_saturation <= 39.999\ngini = 0.49\nsamples = 5\nvalue = [0, 0, 0, 3, 4, 0, 0]\nclass = 20000", fillcolor="#ced5f8"] ;
5 -> 6 ;
7 [label="gini = 0.0\nsamples = 2\nvalue = [0, 0, 0, 3, 0, 0, 0]\nclass = 2000", fillcolor="#39e5e2"] ;
6 -> 7 ;
8 [label="gini = 0.0\nsamples = 3\nvalue = [0, 0, 0, 0, 4, 0, 0]\nclass = 20000", fillcolor="#3956e5"] ;
6 -> 8 ;
9 [label="gini = 0.0\nsamples = 2\nvalue = [0, 0, 0, 4, 0, 0, 0]\nclass = 2000", fillcolor="#39e5e2"] ;
5 -> 9 ;
10 [label="mean_value <= 226.665\ngini = 0.802\nsamples = 35\nvalue = [4, 15, 15, 5, 0, 10, 12]\nclass = 10000", fillcolor="#ffffff"] ;
0 -> 10 [labeldistance=2.5, labelangle=-45, headlabel="False"] ;
11 [label="mean_value <= 222.114\ngini = 0.397\nsamples = 6\nvalue = [0, 3, 0, 0, 0, 8, 0]\nclass = 5000", fillcolor="#ce83ef"] ;
10 -> 11 ;
12 [label="gini = 0.0\nsamples = 1\nvalue = [0, 2, 0, 0, 0, 0, 0]\nclass = 10000", fillcolor="#b7e539"] ;
11 -> 12 ;
13 [label="mean_hue <= 63.954\ngini = 0.198\nsamples = 5\nvalue = [0, 1, 0, 0, 0, 8, 0]\nclass = 5000", fillcolor="#bb52e8"] ;
11 -> 13 ;
14 [label="gini = 0.0\nsamples = 4\nvalue = [0, 0, 0, 0, 0, 8, 0]\nclass = 5000", fillcolor="#b139e5"] ;
13 -> 14 ;
15 [label="gini = 0.0\nsamples = 1\nvalue = [0, 1, 0, 0, 0, 0, 0]\nclass = 10000", fillcolor="#b7e539"] ;
13 -> 15 ;
16 [label="mean_value <= 239.852\ngini = 0.777\nsamples = 29\nvalue = [4, 12, 15, 5, 0, 2, 12]\nclass = 100000", fillcolor="#effdf1"] ;
10 -> 16 ;
17 [label="mean_saturation <= 72.977\ngini = 0.761\nsamples = 20\nvalue = [4, 12, 6, 4, 0, 0, 9]\nclass = 10000", fillcolor="#f7fce8"] ;
16 -> 17 ;
18 [label="mean_saturation <= 16.236\ngini = 0.686\nsamples = 15\nvalue = [4, 12, 6, 4, 0, 0, 0]\nclass = 10000", fillcolor="#e9f7c4"] ;
17 -> 18 ;
19 [label="mean_value <= 234.719\ngini = 0.5\nsamples = 6\nvalue = [4, 0, 0, 4, 0, 0, 0]\nclass = 1000", fillcolor="#ffffff"] ;
18 -> 19 ;
20 [label="gini = 0.0\nsamples = 3\nvalue = [4, 0, 0, 0, 0, 0, 0]\nclass = 1000", fillcolor="#e58139"] ;
19 -> 20 ;
21 [label="gini = 0.0\nsamples = 3\nvalue = [0, 0, 0, 4, 0, 0, 0]\nclass = 2000", fillcolor="#39e5e2"] ;
19 -> 21 ;
22 [label="mean_value <= 227.615\ngini = 0.444\nsamples = 9\nvalue = [0, 12, 6, 0, 0, 0, 0]\nclass = 10000", fillcolor="#dbf29c"] ;
18 -> 22 ;
23 [label="gini = 0.0\nsamples = 1\nvalue = [0, 0, 4, 0, 0, 0, 0]\nclass = 100000", fillcolor="#39e54d"] ;
22 -> 23 ;
24 [label="mean_saturation <= 31.988\ngini = 0.245\nsamples = 8\nvalue = [0, 12, 2, 0, 0, 0, 0]\nclass = 10000", fillcolor="#c3e95a"] ;
22 -> 24 ;
25 [label="mean_saturation <= 24.45\ngini = 0.444\nsamples = 2\nvalue = [0, 2, 1, 0, 0, 0, 0]\nclass = 10000", fillcolor="#dbf29c"] ;
24 -> 25 ;
26 [label="gini = 0.0\nsamples = 1\nvalue = [0, 2, 0, 0, 0, 0, 0]\nclass = 10000", fillcolor="#b7e539"] ;
25 -> 26 ;
27 [label="gini = 0.0\nsamples = 1\nvalue = [0, 0, 1, 0, 0, 0, 0]\nclass = 100000", fillcolor="#39e54d"] ;
25 -> 27 ;
28 [label="mean_hue <= 57.383\ngini = 0.165\nsamples = 6\nvalue = [0, 10, 1, 0, 0, 0, 0]\nclass = 10000", fillcolor="#bee84d"] ;
24 -> 28 ;
29 [label="gini = 0.0\nsamples = 1\nvalue = [0, 0, 1, 0, 0, 0, 0]\nclass = 100000", fillcolor="#39e54d"] ;
28 -> 29 ;
30 [label="gini = 0.0\nsamples = 5\nvalue = [0, 10, 0, 0, 0, 0, 0]\nclass = 10000", fillcolor="#b7e539"] ;
28 -> 30 ;
31 [label="gini = 0.0\nsamples = 5\nvalue = [0, 0, 0, 0, 0, 0, 9]\nclass = 50000", fillcolor="#e53986"] ;
17 -> 31 ;
32 [label="mean_value <= 245.452\ngini = 0.578\nsamples = 9\nvalue = [0, 0, 9, 1, 0, 2, 3]\nclass = 100000", fillcolor="#9cf2a6"] ;
16 -> 32 ;
33 [label="mean_saturation <= 15.008\ngini = 0.314\nsamples = 6\nvalue = [0, 0, 9, 1, 0, 1, 0]\nclass = 100000", fillcolor="#61ea71"] ;
32 -> 33 ;
34 [label="mean_hue <= 43.208\ngini = 0.5\nsamples = 2\nvalue = [0, 0, 0, 1, 0, 1, 0]\nclass = 2000", fillcolor="#ffffff"] ;
33 -> 34 ;
35 [label="gini = 0.0\nsamples = 1\nvalue = [0, 0, 0, 1, 0, 0, 0]\nclass = 2000", fillcolor="#39e5e2"] ;
34 -> 35 ;
36 [label="gini = 0.0\nsamples = 1\nvalue = [0, 0, 0, 0, 0, 1, 0]\nclass = 5000", fillcolor="#b139e5"] ;
34 -> 36 ;
37 [label="gini = 0.0\nsamples = 4\nvalue = [0, 0, 9, 0, 0, 0, 0]\nclass = 100000", fillcolor="#39e54d"] ;
33 -> 37 ;
38 [label="mean_value <= 247.427\ngini = 0.375\nsamples = 3\nvalue = [0, 0, 0, 0, 0, 1, 3]\nclass = 50000", fillcolor="#ee7bae"] ;
32 -> 38 ;
39 [label="mean_hue <= 64.369\ngini = 0.5\nsamples = 2\nvalue = [0, 0, 0, 0, 0, 1, 1]\nclass = 5000", fillcolor="#ffffff"] ;
38 -> 39 ;
40 [label="gini = 0.0\nsamples = 1\nvalue = [0, 0, 0, 0, 0, 1, 0]\nclass = 5000", fillcolor="#b139e5"] ;
39 -> 40 ;
41 [label="gini = 0.0\nsamples = 1\nvalue = [0, 0, 0, 0, 0, 0, 1]\nclass = 50000", fillcolor="#e53986"] ;
39 -> 41 ;
42 [label="gini = 0.0\nsamples = 1\nvalue = [0, 0, 0, 0, 0, 0, 2]\nclass = 50000", fillcolor="#e53986"] ;
38 -> 42 ;
}