digraph Tree {
node [shape=box, style="filled, rounded", color="black", fontname="helvetica"] ;
edge [fontname="helvetica"] ;
0 [label="mean_saturation <= 50.134\ngini = 0.848\nsamples = 51\nvalue = [8, 17, 9, 14, 11, 11, 10]\nclass = 10000", fillcolor="#fcfef6"] ;
1 [label="mean_value <= 244.243\ngini = 0.816\nsamples = 41\nvalue = [8, 17, 9, 14, 7, 11, 0]\nclass = 10000", fillcolor="#fbfef4"] ;
0 -> 1 [labeldistance=2.5, labelangle=45, headlabel="True"] ;
2 [label="mean_hue <= 91.708\ngini = 0.803\nsamples = 36\nvalue = [8, 17, 8, 14, 7, 5, 0]\nclass = 10000", fillcolor="#fafdf2"] ;
1 -> 2 ;
3 [label="mean_value <= 237.212\ngini = 0.758\nsamples = 24\nvalue = [8, 0, 4, 14, 7, 5, 0]\nclass = 2000", fillcolor="#d7faf9"] ;
2 -> 3 ;
4 [label="mean_hue <= 75.242\ngini = 0.784\nsamples = 20\nvalue = [8, 0, 4, 9, 7, 5, 0]\nclass = 2000", fillcolor="#f7fefe"] ;
3 -> 4 ;
5 [label="mean_saturation <= 27.624\ngini = 0.698\nsamples = 11\nvalue = [8, 0, 4, 0, 2, 5, 0]\nclass = 1000", fillcolor="#f9e4d5"] ;
4 -> 5 ;
6 [label="mean_saturation <= 23.049\ngini = 0.587\nsamples = 9\nvalue = [8, 0, 0, 0, 2, 5, 0]\nclass = 1000", fillcolor="#f7d9c4"] ;
5 -> 6 ;
7 [label="mean_hue <= 47.052\ngini = 0.628\nsamples = 7\nvalue = [4, 0, 0, 0, 2, 5, 0]\nclass = 5000", fillcolor="#f4e3fb"] ;
6 -> 7 ;
8 [label="gini = 0.0\nsamples = 3\nvalue = [0, 0, 0, 0, 0, 5, 0]\nclass = 5000", fillcolor="#b139e5"] ;
7 -> 8 ;
9 [label="mean_value <= 234.051\ngini = 0.444\nsamples = 4\nvalue = [4, 0, 0, 0, 2, 0, 0]\nclass = 1000", fillcolor="#f2c09c"] ;
7 -> 9 ;
10 [label="gini = 0.0\nsamples = 2\nvalue = [4, 0, 0, 0, 0, 0, 0]\nclass = 1000", fillcolor="#e58139"] ;
9 -> 10 ;
11 [label="gini = 0.0\nsamples = 2\nvalue = [0, 0, 0, 0, 2, 0, 0]\nclass = 20000", fillcolor="#3956e5"] ;
9 -> 11 ;
12 [label="gini = 0.0\nsamples = 2\nvalue = [4, 0, 0, 0, 0, 0, 0]\nclass = 1000", fillcolor="#e58139"] ;
6 -> 12 ;
13 [label="gini = 0.0\nsamples = 2\nvalue = [0, 0, 4, 0, 0, 0, 0]\nclass = 100000", fillcolor="#39e54d"] ;
5 -> 13 ;
14 [label="mean_saturation <= 43.186\ngini = 0.459\nsamples = 9\nvalue = [0, 0, 0, 9, 5, 0, 0]\nclass = 2000", fillcolor="#a7f3f2"] ;
4 -> 14 ;
15 [label="mean_value <= 224.414\ngini = 0.496\nsamples = 7\nvalue = [0, 0, 0, 6, 5, 0, 0]\nclass = 2000", fillcolor="#defbfa"] ;
14 -> 15 ;
16 [label="gini = 0.0\nsamples = 2\nvalue = [0, 0, 0, 4, 0, 0, 0]\nclass = 2000", fillcolor="#39e5e2"] ;
15 -> 16 ;
17 [label="mean_value <= 236.381\ngini = 0.408\nsamples = 5\nvalue = [0, 0, 0, 2, 5, 0, 0]\nclass = 20000", fillcolor="#889aef"] ;
15 -> 17 ;
18 [label="mean_saturation <= 14.551\ngini = 0.5\nsamples = 3\nvalue = [0, 0, 0, 2, 2, 0, 0]\nclass = 2000", fillcolor="#ffffff"] ;
17 -> 18 ;
19 [label="gini = 0.0\nsamples = 1\nvalue = [0, 0, 0, 2, 0, 0, 0]\nclass = 2000", fillcolor="#39e5e2"] ;
18 -> 19 ;
20 [label="gini = 0.0\nsamples = 2\nvalue = [0, 0, 0, 0, 2, 0, 0]\nclass = 20000", fillcolor="#3956e5"] ;
18 -> 20 ;
21 [label="gini = 0.0\nsamples = 2\nvalue = [0, 0, 0, 0, 3, 0, 0]\nclass = 20000", fillcolor="#3956e5"] ;
17 -> 21 ;
22 [label="gini = 0.0\nsamples = 2\nvalue = [0, 0, 0, 3, 0, 0, 0]\nclass = 2000", fillcolor="#39e5e2"] ;
14 -> 22 ;
23 [label="gini = 0.0\nsamples = 4\nvalue = [0, 0, 0, 5, 0, 0, 0]\nclass = 2000", fillcolor="#39e5e2"] ;
3 -> 23 ;
24 [label="mean_value <= 239.356\ngini = 0.308\nsamples = 12\nvalue = [0, 17, 4, 0, 0, 0, 0]\nclass = 10000", fillcolor="#c8eb68"] ;
2 -> 24 ;
25 [label="gini = 0.0\nsamples = 9\nvalue = [0, 17, 0, 0, 0, 0, 0]\nclass = 10000", fillcolor="#b7e539"] ;
24 -> 25 ;
26 [label="gini = 0.0\nsamples = 3\nvalue = [0, 0, 4, 0, 0, 0, 0]\nclass = 100000", fillcolor="#39e54d"] ;
24 -> 26 ;
27 [label="mean_saturation <= 16.234\ngini = 0.245\nsamples = 5\nvalue = [0, 0, 1, 0, 0, 6, 0]\nclass = 5000", fillcolor="#be5ae9"] ;
1 -> 27 ;
28 [label="gini = 0.0\nsamples = 4\nvalue = [0, 0, 0, 0, 0, 6, 0]\nclass = 5000", fillcolor="#b139e5"] ;
27 -> 28 ;
29 [label="gini = 0.0\nsamples = 1\nvalue = [0, 0, 1, 0, 0, 0, 0]\nclass = 100000", fillcolor="#39e54d"] ;
27 -> 29 ;
30 [label="mean_hue <= 84.549\ngini = 0.408\nsamples = 10\nvalue = [0, 0, 0, 0, 4, 0, 10]\nclass = 50000", fillcolor="#ef88b6"] ;
0 -> 30 [labeldistance=2.5, labelangle=-45, headlabel="False"] ;
31 [label="gini = 0.0\nsamples = 3\nvalue = [0, 0, 0, 0, 4, 0, 0]\nclass = 20000", fillcolor="#3956e5"] ;
30 -> 31 ;
32 [label="gini = 0.0\nsamples = 7\nvalue = [0, 0, 0, 0, 0, 0, 10]\nclass = 50000", fillcolor="#e53986"] ;
30 -> 32 ;
}