digraph Tree {
node [shape=box, style="filled, rounded", color="black", fontname="helvetica"] ;
edge [fontname="helvetica"] ;
0 [label="mean_saturation <= 55.469\ngini = 0.845\nsamples = 53\nvalue = [9, 17, 12, 7, 15, 9, 11]\nclass = 10000", fillcolor="#fdfef9"] ;
1 [label="mean_saturation <= 31.425\ngini = 0.819\nsamples = 44\nvalue = [9, 17, 12, 7, 12, 9, 0]\nclass = 10000", fillcolor="#f8fded"] ;
0 -> 1 [labeldistance=2.5, labelangle=45, headlabel="True"] ;
2 [label="mean_value <= 239.483\ngini = 0.802\nsamples = 30\nvalue = [9, 3, 11, 5, 4, 9, 0]\nclass = 100000", fillcolor="#f3fdf4"] ;
1 -> 2 ;
3 [label="mean_saturation <= 27.269\ngini = 0.796\nsamples = 21\nvalue = [9, 3, 2, 5, 4, 7, 0]\nclass = 1000", fillcolor="#fdf4ee"] ;
2 -> 3 ;
4 [label="mean_hue <= 27.346\ngini = 0.757\nsamples = 18\nvalue = [9, 3, 0, 3, 4, 7, 0]\nclass = 1000", fillcolor="#fcf2ea"] ;
3 -> 4 ;
5 [label="gini = 0.0\nsamples = 6\nvalue = [0, 0, 0, 0, 0, 7, 0]\nclass = 5000", fillcolor="#b139e5"] ;
4 -> 5 ;
6 [label="mean_value <= 234.086\ngini = 0.681\nsamples = 12\nvalue = [9, 3, 0, 3, 4, 0, 0]\nclass = 1000", fillcolor="#f6d5bd"] ;
4 -> 6 ;
7 [label="mean_value <= 232.104\ngini = 0.56\nsamples = 8\nvalue = [9, 3, 0, 0, 3, 0, 0]\nclass = 1000", fillcolor="#f2c09c"] ;
6 -> 7 ;
8 [label="mean_saturation <= 22.79\ngini = 0.66\nsamples = 6\nvalue = [4, 3, 0, 0, 3, 0, 0]\nclass = 1000", fillcolor="#fbede3"] ;
7 -> 8 ;
9 [label="mean_hue <= 88.584\ngini = 0.612\nsamples = 4\nvalue = [1, 3, 0, 0, 3, 0, 0]\nclass = 10000", fillcolor="#ffffff"] ;
8 -> 9 ;
10 [label="mean_saturation <= 16.989\ngini = 0.375\nsamples = 2\nvalue = [1, 0, 0, 0, 3, 0, 0]\nclass = 20000", fillcolor="#7b8eee"] ;
9 -> 10 ;
11 [label="gini = 0.0\nsamples = 1\nvalue = [1, 0, 0, 0, 0, 0, 0]\nclass = 1000", fillcolor="#e58139"] ;
10 -> 11 ;
12 [label="gini = 0.0\nsamples = 1\nvalue = [0, 0, 0, 0, 3, 0, 0]\nclass = 20000", fillcolor="#3956e5"] ;
10 -> 12 ;
13 [label="gini = 0.0\nsamples = 2\nvalue = [0, 3, 0, 0, 0, 0, 0]\nclass = 10000", fillcolor="#b7e539"] ;
9 -> 13 ;
14 [label="gini = 0.0\nsamples = 2\nvalue = [3, 0, 0, 0, 0, 0, 0]\nclass = 1000", fillcolor="#e58139"] ;
8 -> 14 ;
15 [label="gini = 0.0\nsamples = 2\nvalue = [5, 0, 0, 0, 0, 0, 0]\nclass = 1000", fillcolor="#e58139"] ;
7 -> 15 ;
16 [label="mean_saturation <= 15.341\ngini = 0.375\nsamples = 4\nvalue = [0, 0, 0, 3, 1, 0, 0]\nclass = 2000", fillcolor="#7beeec"] ;
6 -> 16 ;
17 [label="gini = 0.0\nsamples = 3\nvalue = [0, 0, 0, 3, 0, 0, 0]\nclass = 2000", fillcolor="#39e5e2"] ;
16 -> 17 ;
18 [label="gini = 0.0\nsamples = 1\nvalue = [0, 0, 0, 0, 1, 0, 0]\nclass = 20000", fillcolor="#3956e5"] ;
16 -> 18 ;
19 [label="mean_saturation <= 30.15\ngini = 0.5\nsamples = 3\nvalue = [0, 0, 2, 2, 0, 0, 0]\nclass = 100000", fillcolor="#ffffff"] ;
3 -> 19 ;
20 [label="gini = 0.0\nsamples = 1\nvalue = [0, 0, 1, 0, 0, 0, 0]\nclass = 100000", fillcolor="#39e54d"] ;
19 -> 20 ;
21 [label="mean_value <= 223.832\ngini = 0.444\nsamples = 2\nvalue = [0, 0, 1, 2, 0, 0, 0]\nclass = 2000", fillcolor="#9cf2f0"] ;
19 -> 21 ;
22 [label="gini = 0.0\nsamples = 1\nvalue = [0, 0, 0, 2, 0, 0, 0]\nclass = 2000", fillcolor="#39e5e2"] ;
21 -> 22 ;
23 [label="gini = 0.0\nsamples = 1\nvalue = [0, 0, 1, 0, 0, 0, 0]\nclass = 100000", fillcolor="#39e54d"] ;
21 -> 23 ;
24 [label="mean_hue <= 80.421\ngini = 0.298\nsamples = 9\nvalue = [0, 0, 9, 0, 0, 2, 0]\nclass = 100000", fillcolor="#65eb75"] ;
2 -> 24 ;
25 [label="mean_hue <= 39.493\ngini = 0.444\nsamples = 3\nvalue = [0, 0, 1, 0, 0, 2, 0]\nclass = 5000", fillcolor="#d89cf2"] ;
24 -> 25 ;
26 [label="gini = 0.0\nsamples = 1\nvalue = [0, 0, 1, 0, 0, 0, 0]\nclass = 100000", fillcolor="#39e54d"] ;
25 -> 26 ;
27 [label="gini = 0.0\nsamples = 2\nvalue = [0, 0, 0, 0, 0, 2, 0]\nclass = 5000", fillcolor="#b139e5"] ;
25 -> 27 ;
28 [label="gini = 0.0\nsamples = 6\nvalue = [0, 0, 8, 0, 0, 0, 0]\nclass = 100000", fillcolor="#39e54d"] ;
24 -> 28 ;
29 [label="mean_saturation <= 51.276\ngini = 0.576\nsamples = 14\nvalue = [0, 14, 1, 2, 8, 0, 0]\nclass = 10000", fillcolor="#e6f6b9"] ;
1 -> 29 ;
30 [label="mean_saturation <= 40.718\ngini = 0.533\nsamples = 13\nvalue = [0, 14, 1, 2, 5, 0, 0]\nclass = 10000", fillcolor="#d9f196"] ;
29 -> 30 ;
31 [label="mean_hue <= 91.708\ngini = 0.314\nsamples = 7\nvalue = [0, 9, 1, 0, 1, 0, 0]\nclass = 10000", fillcolor="#c5ea61"] ;
30 -> 31 ;
32 [label="mean_value <= 235.82\ngini = 0.5\nsamples = 2\nvalue = [0, 0, 1, 0, 1, 0, 0]\nclass = 100000", fillcolor="#ffffff"] ;
31 -> 32 ;
33 [label="gini = 0.0\nsamples = 1\nvalue = [0, 0, 1, 0, 0, 0, 0]\nclass = 100000", fillcolor="#39e54d"] ;
32 -> 33 ;
34 [label="gini = 0.0\nsamples = 1\nvalue = [0, 0, 0, 0, 1, 0, 0]\nclass = 20000", fillcolor="#3956e5"] ;
32 -> 34 ;
35 [label="gini = 0.0\nsamples = 5\nvalue = [0, 9, 0, 0, 0, 0, 0]\nclass = 10000", fillcolor="#b7e539"] ;
31 -> 35 ;
36 [label="mean_saturation <= 49.831\ngini = 0.628\nsamples = 6\nvalue = [0, 5, 0, 2, 4, 0, 0]\nclass = 10000", fillcolor="#f5fbe3"] ;
30 -> 36 ;
37 [label="mean_value <= 218.788\ngini = 0.625\nsamples = 5\nvalue = [0, 2, 0, 2, 4, 0, 0]\nclass = 20000", fillcolor="#bdc7f6"] ;
36 -> 37 ;
38 [label="gini = 0.0\nsamples = 1\nvalue = [0, 0, 0, 0, 2, 0, 0]\nclass = 20000", fillcolor="#3956e5"] ;
37 -> 38 ;
39 [label="mean_saturation <= 43.186\ngini = 0.667\nsamples = 4\nvalue = [0, 2, 0, 2, 2, 0, 0]\nclass = 10000", fillcolor="#ffffff"] ;
37 -> 39 ;
40 [label="gini = 0.0\nsamples = 1\nvalue = [0, 0, 0, 0, 2, 0, 0]\nclass = 20000", fillcolor="#3956e5"] ;
39 -> 40 ;
41 [label="mean_value <= 226.302\ngini = 0.5\nsamples = 3\nvalue = [0, 2, 0, 2, 0, 0, 0]\nclass = 10000", fillcolor="#ffffff"] ;
39 -> 41 ;
42 [label="gini = 0.0\nsamples = 2\nvalue = [0, 0, 0, 2, 0, 0, 0]\nclass = 2000", fillcolor="#39e5e2"] ;
41 -> 42 ;
43 [label="gini = 0.0\nsamples = 1\nvalue = [0, 2, 0, 0, 0, 0, 0]\nclass = 10000", fillcolor="#b7e539"] ;
41 -> 43 ;
44 [label="gini = 0.0\nsamples = 1\nvalue = [0, 3, 0, 0, 0, 0, 0]\nclass = 10000", fillcolor="#b7e539"] ;
36 -> 44 ;
45 [label="gini = 0.0\nsamples = 1\nvalue = [0, 0, 0, 0, 3, 0, 0]\nclass = 20000", fillcolor="#3956e5"] ;
29 -> 45 ;
46 [label="mean_value <= 222.644\ngini = 0.337\nsamples = 9\nvalue = [0, 0, 0, 0, 3, 0, 11]\nclass = 50000", fillcolor="#ec6fa7"] ;
0 -> 46 [labeldistance=2.5, labelangle=-45, headlabel="False"] ;
47 [label="gini = 0.0\nsamples = 2\nvalue = [0, 0, 0, 0, 3, 0, 0]\nclass = 20000", fillcolor="#3956e5"] ;
46 -> 47 ;
48 [label="gini = 0.0\nsamples = 7\nvalue = [0, 0, 0, 0, 0, 0, 11]\nclass = 50000", fillcolor="#e53986"] ;
46 -> 48 ;
}