digraph Tree {
node [shape=box, style="filled, rounded", color="black", fontname="helvetica"] ;
edge [fontname="helvetica"] ;
0 [label="mean_saturation <= 48.863\ngini = 0.847\nsamples = 46\nvalue = [8, 11, 10, 16, 16, 8, 11]\nclass = 2000", fillcolor="#ffffff"] ;
1 [label="mean_hue <= 91.708\ngini = 0.82\nsamples = 36\nvalue = [8, 11, 10, 16, 8, 8, 0]\nclass = 2000", fillcolor="#ebfcfc"] ;
0 -> 1 [labeldistance=2.5, labelangle=45, headlabel="True"] ;
2 [label="mean_value <= 221.612\ngini = 0.744\nsamples = 25\nvalue = [8, 0, 2, 16, 8, 8, 0]\nclass = 2000", fillcolor="#d0f9f8"] ;
1 -> 2 ;
3 [label="mean_value <= 215.319\ngini = 0.18\nsamples = 6\nvalue = [1, 0, 0, 9, 0, 0, 0]\nclass = 2000", fillcolor="#4fe8e5"] ;
2 -> 3 ;
4 [label="mean_saturation <= 24.562\ngini = 0.5\nsamples = 2\nvalue = [1, 0, 0, 1, 0, 0, 0]\nclass = 1000", fillcolor="#ffffff"] ;
3 -> 4 ;
5 [label="gini = 0.0\nsamples = 1\nvalue = [1, 0, 0, 0, 0, 0, 0]\nclass = 1000", fillcolor="#e58139"] ;
4 -> 5 ;
6 [label="gini = 0.0\nsamples = 1\nvalue = [0, 0, 0, 1, 0, 0, 0]\nclass = 2000", fillcolor="#39e5e2"] ;
4 -> 6 ;
7 [label="gini = 0.0\nsamples = 4\nvalue = [0, 0, 0, 8, 0, 0, 0]\nclass = 2000", fillcolor="#39e5e2"] ;
3 -> 7 ;
8 [label="mean_saturation <= 18.156\ngini = 0.775\nsamples = 19\nvalue = [7, 0, 2, 7, 8, 8, 0]\nclass = 20000", fillcolor="#ffffff"] ;
2 -> 8 ;
9 [label="mean_hue <= 56.455\ngini = 0.665\nsamples = 13\nvalue = [7, 0, 0, 7, 0, 8, 0]\nclass = 5000", fillcolor="#faf2fd"] ;
8 -> 9 ;
10 [label="mean_saturation <= 12.528\ngini = 0.473\nsamples = 8\nvalue = [0, 0, 0, 5, 0, 8, 0]\nclass = 5000", fillcolor="#e2b5f5"] ;
9 -> 10 ;
11 [label="gini = 0.0\nsamples = 3\nvalue = [0, 0, 0, 5, 0, 0, 0]\nclass = 2000", fillcolor="#39e5e2"] ;
10 -> 11 ;
12 [label="gini = 0.0\nsamples = 5\nvalue = [0, 0, 0, 0, 0, 8, 0]\nclass = 5000", fillcolor="#b139e5"] ;
10 -> 12 ;
13 [label="mean_saturation <= 12.922\ngini = 0.346\nsamples = 5\nvalue = [7, 0, 0, 2, 0, 0, 0]\nclass = 1000", fillcolor="#eca572"] ;
9 -> 13 ;
14 [label="mean_saturation <= 11.479\ngini = 0.444\nsamples = 2\nvalue = [1, 0, 0, 2, 0, 0, 0]\nclass = 2000", fillcolor="#9cf2f0"] ;
13 -> 14 ;
15 [label="gini = 0.0\nsamples = 1\nvalue = [1, 0, 0, 0, 0, 0, 0]\nclass = 1000", fillcolor="#e58139"] ;
14 -> 15 ;
16 [label="gini = 0.0\nsamples = 1\nvalue = [0, 0, 0, 2, 0, 0, 0]\nclass = 2000", fillcolor="#39e5e2"] ;
14 -> 16 ;
17 [label="gini = 0.0\nsamples = 3\nvalue = [6, 0, 0, 0, 0, 0, 0]\nclass = 1000", fillcolor="#e58139"] ;
13 -> 17 ;
18 [label="mean_value <= 231.874\ngini = 0.32\nsamples = 6\nvalue = [0, 0, 2, 0, 8, 0, 0]\nclass = 20000", fillcolor="#6a80ec"] ;
8 -> 18 ;
19 [label="gini = 0.0\nsamples = 1\nvalue = [0, 0, 1, 0, 0, 0, 0]\nclass = 100000", fillcolor="#39e54d"] ;
18 -> 19 ;
20 [label="mean_value <= 240.159\ngini = 0.198\nsamples = 5\nvalue = [0, 0, 1, 0, 8, 0, 0]\nclass = 20000", fillcolor="#526be8"] ;
18 -> 20 ;
21 [label="gini = 0.0\nsamples = 4\nvalue = [0, 0, 0, 0, 8, 0, 0]\nclass = 20000", fillcolor="#3956e5"] ;
20 -> 21 ;
22 [label="gini = 0.0\nsamples = 1\nvalue = [0, 0, 1, 0, 0, 0, 0]\nclass = 100000", fillcolor="#39e54d"] ;
20 -> 22 ;
23 [label="mean_hue <= 108.222\ngini = 0.488\nsamples = 11\nvalue = [0, 11, 8, 0, 0, 0, 0]\nclass = 10000", fillcolor="#ebf8c9"] ;
1 -> 23 ;
24 [label="mean_saturation <= 26.157\ngini = 0.26\nsamples = 7\nvalue = [0, 11, 2, 0, 0, 0, 0]\nclass = 10000", fillcolor="#c4ea5d"] ;
23 -> 24 ;
25 [label="gini = 0.0\nsamples = 2\nvalue = [0, 6, 0, 0, 0, 0, 0]\nclass = 10000", fillcolor="#b7e539"] ;
24 -> 25 ;
26 [label="mean_value <= 228.958\ngini = 0.408\nsamples = 5\nvalue = [0, 5, 2, 0, 0, 0, 0]\nclass = 10000", fillcolor="#d4ef88"] ;
24 -> 26 ;
27 [label="gini = 0.0\nsamples = 2\nvalue = [0, 3, 0, 0, 0, 0, 0]\nclass = 10000", fillcolor="#b7e539"] ;
26 -> 27 ;
28 [label="mean_saturation <= 33.791\ngini = 0.5\nsamples = 3\nvalue = [0, 2, 2, 0, 0, 0, 0]\nclass = 10000", fillcolor="#ffffff"] ;
26 -> 28 ;
29 [label="gini = 0.0\nsamples = 1\nvalue = [0, 0, 2, 0, 0, 0, 0]\nclass = 100000", fillcolor="#39e54d"] ;
28 -> 29 ;
30 [label="gini = 0.0\nsamples = 2\nvalue = [0, 2, 0, 0, 0, 0, 0]\nclass = 10000", fillcolor="#b7e539"] ;
28 -> 30 ;
31 [label="gini = 0.0\nsamples = 4\nvalue = [0, 0, 6, 0, 0, 0, 0]\nclass = 100000", fillcolor="#39e54d"] ;
23 -> 31 ;
32 [label="mean_saturation <= 93.629\ngini = 0.488\nsamples = 10\nvalue = [0, 0, 0, 0, 8, 0, 11]\nclass = 50000", fillcolor="#f8c9de"] ;
0 -> 32 [labeldistance=2.5, labelangle=-45, headlabel="False"] ;
33 [label="mean_value <= 230.497\ngini = 0.498\nsamples = 8\nvalue = [0, 0, 0, 0, 8, 0, 7]\nclass = 20000", fillcolor="#e6eafc"] ;
32 -> 33 ;
34 [label="gini = 0.0\nsamples = 4\nvalue = [0, 0, 0, 0, 8, 0, 0]\nclass = 20000", fillcolor="#3956e5"] ;
33 -> 34 ;
35 [label="gini = 0.0\nsamples = 4\nvalue = [0, 0, 0, 0, 0, 0, 7]\nclass = 50000", fillcolor="#e53986"] ;
33 -> 35 ;
36 [label="gini = 0.0\nsamples = 2\nvalue = [0, 0, 0, 0, 0, 0, 4]\nclass = 50000", fillcolor="#e53986"] ;
32 -> 36 ;
}