digraph Tree {
node [shape=box, style="filled, rounded", color="black", fontname="helvetica"] ;
edge [fontname="helvetica"] ;
0 [label="mean_hue <= 94.783\ngini = 0.846\nsamples = 49\nvalue = [7, 16, 10, 13, 15, 11, 8]\nclass = 10000", fillcolor="#fefffc"] ;
1 [label="mean_hue <= 53.544\ngini = 0.812\nsamples = 37\nvalue = [7, 0, 5, 13, 15, 11, 8]\nclass = 20000", fillcolor="#f6f8fe"] ;
0 -> 1 [labeldistance=2.5, labelangle=45, headlabel="True"] ;
2 [label="mean_value <= 232.38\ngini = 0.272\nsamples = 9\nvalue = [0, 0, 1, 1, 0, 11, 0]\nclass = 5000", fillcolor="#be5ae9"] ;
1 -> 2 ;
3 [label="gini = 0.0\nsamples = 4\nvalue = [0, 0, 0, 0, 0, 7, 0]\nclass = 5000", fillcolor="#b139e5"] ;
2 -> 3 ;
4 [label="mean_value <= 243.968\ngini = 0.5\nsamples = 5\nvalue = [0, 0, 1, 1, 0, 4, 0]\nclass = 5000", fillcolor="#d088ef"] ;
2 -> 4 ;
5 [label="mean_hue <= 29.527\ngini = 0.5\nsamples = 2\nvalue = [0, 0, 1, 1, 0, 0, 0]\nclass = 100000", fillcolor="#ffffff"] ;
4 -> 5 ;
6 [label="gini = 0.0\nsamples = 1\nvalue = [0, 0, 0, 1, 0, 0, 0]\nclass = 2000", fillcolor="#39e5e2"] ;
5 -> 6 ;
7 [label="gini = 0.0\nsamples = 1\nvalue = [0, 0, 1, 0, 0, 0, 0]\nclass = 100000", fillcolor="#39e54d"] ;
5 -> 7 ;
8 [label="gini = 0.0\nsamples = 3\nvalue = [0, 0, 0, 0, 0, 4, 0]\nclass = 5000", fillcolor="#b139e5"] ;
4 -> 8 ;
9 [label="mean_saturation <= 50.033\ngini = 0.765\nsamples = 28\nvalue = [7, 0, 4, 12, 15, 0, 8]\nclass = 20000", fillcolor="#eef0fd"] ;
1 -> 9 ;
10 [label="mean_value <= 224.524\ngini = 0.715\nsamples = 20\nvalue = [7, 0, 4, 12, 11, 0, 0]\nclass = 2000", fillcolor="#f6fefe"] ;
9 -> 10 ;
11 [label="mean_hue <= 68.889\ngini = 0.449\nsamples = 7\nvalue = [2, 0, 0, 10, 2, 0, 0]\nclass = 2000", fillcolor="#7beeec"] ;
10 -> 11 ;
12 [label="mean_value <= 215.319\ngini = 0.5\nsamples = 2\nvalue = [2, 0, 0, 2, 0, 0, 0]\nclass = 1000", fillcolor="#ffffff"] ;
11 -> 12 ;
13 [label="gini = 0.0\nsamples = 1\nvalue = [2, 0, 0, 0, 0, 0, 0]\nclass = 1000", fillcolor="#e58139"] ;
12 -> 13 ;
14 [label="gini = 0.0\nsamples = 1\nvalue = [0, 0, 0, 2, 0, 0, 0]\nclass = 2000", fillcolor="#39e5e2"] ;
12 -> 14 ;
15 [label="mean_saturation <= 48.56\ngini = 0.32\nsamples = 5\nvalue = [0, 0, 0, 8, 2, 0, 0]\nclass = 2000", fillcolor="#6aece9"] ;
11 -> 15 ;
16 [label="gini = 0.0\nsamples = 4\nvalue = [0, 0, 0, 8, 0, 0, 0]\nclass = 2000", fillcolor="#39e5e2"] ;
15 -> 16 ;
17 [label="gini = 0.0\nsamples = 1\nvalue = [0, 0, 0, 0, 2, 0, 0]\nclass = 20000", fillcolor="#3956e5"] ;
15 -> 17 ;
18 [label="mean_value <= 229.071\ngini = 0.685\nsamples = 13\nvalue = [5, 0, 4, 2, 9, 0, 0]\nclass = 20000", fillcolor="#cad2f8"] ;
10 -> 18 ;
19 [label="gini = 0.0\nsamples = 2\nvalue = [0, 0, 4, 0, 0, 0, 0]\nclass = 100000", fillcolor="#39e54d"] ;
18 -> 19 ;
20 [label="mean_value <= 234.086\ngini = 0.57\nsamples = 11\nvalue = [5, 0, 0, 2, 9, 0, 0]\nclass = 20000", fillcolor="#b7c2f6"] ;
18 -> 20 ;
21 [label="mean_saturation <= 15.865\ngini = 0.5\nsamples = 6\nvalue = [5, 0, 0, 0, 5, 0, 0]\nclass = 1000", fillcolor="#ffffff"] ;
20 -> 21 ;
22 [label="gini = 0.0\nsamples = 4\nvalue = [5, 0, 0, 0, 0, 0, 0]\nclass = 1000", fillcolor="#e58139"] ;
21 -> 22 ;
23 [label="gini = 0.0\nsamples = 2\nvalue = [0, 0, 0, 0, 5, 0, 0]\nclass = 20000", fillcolor="#3956e5"] ;
21 -> 23 ;
24 [label="mean_saturation <= 15.995\ngini = 0.444\nsamples = 5\nvalue = [0, 0, 0, 2, 4, 0, 0]\nclass = 20000", fillcolor="#9caaf2"] ;
20 -> 24 ;
25 [label="gini = 0.0\nsamples = 2\nvalue = [0, 0, 0, 2, 0, 0, 0]\nclass = 2000", fillcolor="#39e5e2"] ;
24 -> 25 ;
26 [label="gini = 0.0\nsamples = 3\nvalue = [0, 0, 0, 0, 4, 0, 0]\nclass = 20000", fillcolor="#3956e5"] ;
24 -> 26 ;
27 [label="mean_value <= 229.022\ngini = 0.444\nsamples = 8\nvalue = [0, 0, 0, 0, 4, 0, 8]\nclass = 50000", fillcolor="#f29cc2"] ;
9 -> 27 ;
28 [label="gini = 0.0\nsamples = 3\nvalue = [0, 0, 0, 0, 4, 0, 0]\nclass = 20000", fillcolor="#3956e5"] ;
27 -> 28 ;
29 [label="gini = 0.0\nsamples = 5\nvalue = [0, 0, 0, 0, 0, 0, 8]\nclass = 50000", fillcolor="#e53986"] ;
27 -> 29 ;
30 [label="mean_saturation <= 20.073\ngini = 0.363\nsamples = 12\nvalue = [0, 16, 5, 0, 0, 0, 0]\nclass = 10000", fillcolor="#ceed77"] ;
0 -> 30 [labeldistance=2.5, labelangle=-45, headlabel="False"] ;
31 [label="mean_value <= 233.866\ngini = 0.408\nsamples = 5\nvalue = [0, 2, 5, 0, 0, 0, 0]\nclass = 100000", fillcolor="#88ef94"] ;
30 -> 31 ;
32 [label="gini = 0.0\nsamples = 1\nvalue = [0, 2, 0, 0, 0, 0, 0]\nclass = 10000", fillcolor="#b7e539"] ;
31 -> 32 ;
33 [label="gini = 0.0\nsamples = 4\nvalue = [0, 0, 5, 0, 0, 0, 0]\nclass = 100000", fillcolor="#39e54d"] ;
31 -> 33 ;
34 [label="gini = 0.0\nsamples = 7\nvalue = [0, 14, 0, 0, 0, 0, 0]\nclass = 10000", fillcolor="#b7e539"] ;
30 -> 34 ;
}