digraph Tree {
node [shape=box, style="filled, rounded", color="black", fontname="helvetica"] ;
edge [fontname="helvetica"] ;
0 [label="mean_value <= 237.099\ngini = 0.854\nsamples = 52\nvalue = [11, 14, 13, 9, 11, 10, 12]\nclass = 10000", fillcolor="#fefffc"] ;
1 [label="mean_saturation <= 30.068\ngini = 0.796\nsamples = 34\nvalue = [11, 14, 4, 3, 11, 5, 1]\nclass = 10000", fillcolor="#f9fdef"] ;
0 -> 1 [labeldistance=2.5, labelangle=45, headlabel="True"] ;
2 [label="mean_value <= 218.257\ngini = 0.694\nsamples = 18\nvalue = [11, 3, 0, 0, 6, 5, 0]\nclass = 1000", fillcolor="#f8decb"] ;
1 -> 2 ;
3 [label="gini = 0.0\nsamples = 4\nvalue = [7, 0, 0, 0, 0, 0, 0]\nclass = 1000", fillcolor="#e58139"] ;
2 -> 3 ;
4 [label="mean_saturation <= 16.812\ngini = 0.735\nsamples = 14\nvalue = [4, 3, 0, 0, 6, 5, 0]\nclass = 20000", fillcolor="#f0f2fd"] ;
2 -> 4 ;
5 [label="mean_saturation <= 15.305\ngini = 0.5\nsamples = 7\nvalue = [4, 0, 0, 0, 0, 4, 0]\nclass = 1000", fillcolor="#ffffff"] ;
4 -> 5 ;
6 [label="mean_value <= 227.431\ngini = 0.32\nsamples = 5\nvalue = [4, 0, 0, 0, 0, 1, 0]\nclass = 1000", fillcolor="#eca06a"] ;
5 -> 6 ;
7 [label="gini = 0.0\nsamples = 1\nvalue = [0, 0, 0, 0, 0, 1, 0]\nclass = 5000", fillcolor="#b139e5"] ;
6 -> 7 ;
8 [label="gini = 0.0\nsamples = 4\nvalue = [4, 0, 0, 0, 0, 0, 0]\nclass = 1000", fillcolor="#e58139"] ;
6 -> 8 ;
9 [label="gini = 0.0\nsamples = 2\nvalue = [0, 0, 0, 0, 0, 3, 0]\nclass = 5000", fillcolor="#b139e5"] ;
5 -> 9 ;
10 [label="mean_hue <= 88.584\ngini = 0.54\nsamples = 7\nvalue = [0, 3, 0, 0, 6, 1, 0]\nclass = 20000", fillcolor="#aab7f4"] ;
4 -> 10 ;
11 [label="mean_hue <= 46.072\ngini = 0.245\nsamples = 5\nvalue = [0, 0, 0, 0, 6, 1, 0]\nclass = 20000", fillcolor="#5a72e9"] ;
10 -> 11 ;
12 [label="gini = 0.0\nsamples = 1\nvalue = [0, 0, 0, 0, 0, 1, 0]\nclass = 5000", fillcolor="#b139e5"] ;
11 -> 12 ;
13 [label="gini = 0.0\nsamples = 4\nvalue = [0, 0, 0, 0, 6, 0, 0]\nclass = 20000", fillcolor="#3956e5"] ;
11 -> 13 ;
14 [label="gini = 0.0\nsamples = 2\nvalue = [0, 3, 0, 0, 0, 0, 0]\nclass = 10000", fillcolor="#b7e539"] ;
10 -> 14 ;
15 [label="mean_hue <= 93.768\ngini = 0.701\nsamples = 16\nvalue = [0, 11, 4, 3, 5, 0, 1]\nclass = 10000", fillcolor="#e8f7c0"] ;
1 -> 15 ;
16 [label="mean_saturation <= 48.56\ngini = 0.698\nsamples = 10\nvalue = [0, 0, 4, 3, 5, 0, 1]\nclass = 20000", fillcolor="#e9ecfc"] ;
15 -> 16 ;
17 [label="mean_saturation <= 41.38\ngini = 0.642\nsamples = 7\nvalue = [0, 0, 4, 3, 2, 0, 0]\nclass = 100000", fillcolor="#defbe1"] ;
16 -> 17 ;
18 [label="mean_value <= 236.048\ngini = 0.571\nsamples = 5\nvalue = [0, 0, 4, 1, 2, 0, 0]\nclass = 100000", fillcolor="#b0f5b8"] ;
17 -> 18 ;
19 [label="mean_hue <= 47.646\ngini = 0.32\nsamples = 4\nvalue = [0, 0, 4, 1, 0, 0, 0]\nclass = 100000", fillcolor="#6aec79"] ;
18 -> 19 ;
20 [label="gini = 0.0\nsamples = 2\nvalue = [0, 0, 3, 0, 0, 0, 0]\nclass = 100000", fillcolor="#39e54d"] ;
19 -> 20 ;
21 [label="mean_value <= 223.832\ngini = 0.5\nsamples = 2\nvalue = [0, 0, 1, 1, 0, 0, 0]\nclass = 100000", fillcolor="#ffffff"] ;
19 -> 21 ;
22 [label="gini = 0.0\nsamples = 1\nvalue = [0, 0, 0, 1, 0, 0, 0]\nclass = 2000", fillcolor="#39e5e2"] ;
21 -> 22 ;
23 [label="gini = 0.0\nsamples = 1\nvalue = [0, 0, 1, 0, 0, 0, 0]\nclass = 100000", fillcolor="#39e54d"] ;
21 -> 23 ;
24 [label="gini = 0.0\nsamples = 1\nvalue = [0, 0, 0, 0, 2, 0, 0]\nclass = 20000", fillcolor="#3956e5"] ;
18 -> 24 ;
25 [label="gini = 0.0\nsamples = 2\nvalue = [0, 0, 0, 2, 0, 0, 0]\nclass = 2000", fillcolor="#39e5e2"] ;
17 -> 25 ;
26 [label="mean_value <= 223.998\ngini = 0.375\nsamples = 3\nvalue = [0, 0, 0, 0, 3, 0, 1]\nclass = 20000", fillcolor="#7b8eee"] ;
16 -> 26 ;
27 [label="gini = 0.0\nsamples = 2\nvalue = [0, 0, 0, 0, 3, 0, 0]\nclass = 20000", fillcolor="#3956e5"] ;
26 -> 27 ;
28 [label="gini = 0.0\nsamples = 1\nvalue = [0, 0, 0, 0, 0, 0, 1]\nclass = 50000", fillcolor="#e53986"] ;
26 -> 28 ;
29 [label="gini = 0.0\nsamples = 6\nvalue = [0, 11, 0, 0, 0, 0, 0]\nclass = 10000", fillcolor="#b7e539"] ;
15 -> 29 ;
30 [label="mean_saturation <= 34.871\ngini = 0.726\nsamples = 18\nvalue = [0, 0, 9, 6, 0, 5, 11]\nclass = 50000", fillcolor="#fdedf4"] ;
0 -> 30 [labeldistance=2.5, labelangle=-45, headlabel="False"] ;
31 [label="mean_value <= 245.549\ngini = 0.645\nsamples = 11\nvalue = [0, 0, 9, 6, 0, 5, 0]\nclass = 100000", fillcolor="#d5f9d9"] ;
30 -> 31 ;
32 [label="mean_value <= 239.918\ngini = 0.581\nsamples = 9\nvalue = [0, 0, 9, 6, 0, 2, 0]\nclass = 100000", fillcolor="#c9f8ce"] ;
31 -> 32 ;
33 [label="gini = 0.0\nsamples = 2\nvalue = [0, 0, 0, 3, 0, 0, 0]\nclass = 2000", fillcolor="#39e5e2"] ;
32 -> 33 ;
34 [label="mean_value <= 243.583\ngini = 0.52\nsamples = 7\nvalue = [0, 0, 9, 3, 0, 2, 0]\nclass = 100000", fillcolor="#93f19e"] ;
32 -> 34 ;
35 [label="gini = 0.0\nsamples = 3\nvalue = [0, 0, 5, 0, 0, 0, 0]\nclass = 100000", fillcolor="#39e54d"] ;
34 -> 35 ;
36 [label="mean_hue <= 102.504\ngini = 0.642\nsamples = 4\nvalue = [0, 0, 4, 3, 0, 2, 0]\nclass = 100000", fillcolor="#defbe1"] ;
34 -> 36 ;
37 [label="mean_value <= 244.243\ngini = 0.48\nsamples = 2\nvalue = [0, 0, 0, 3, 0, 2, 0]\nclass = 2000", fillcolor="#bdf6f5"] ;
36 -> 37 ;
38 [label="gini = 0.0\nsamples = 1\nvalue = [0, 0, 0, 3, 0, 0, 0]\nclass = 2000", fillcolor="#39e5e2"] ;
37 -> 38 ;
39 [label="gini = 0.0\nsamples = 1\nvalue = [0, 0, 0, 0, 0, 2, 0]\nclass = 5000", fillcolor="#b139e5"] ;
37 -> 39 ;
40 [label="gini = 0.0\nsamples = 2\nvalue = [0, 0, 4, 0, 0, 0, 0]\nclass = 100000", fillcolor="#39e54d"] ;
36 -> 40 ;
41 [label="gini = 0.0\nsamples = 2\nvalue = [0, 0, 0, 0, 0, 3, 0]\nclass = 5000", fillcolor="#b139e5"] ;
31 -> 41 ;
42 [label="gini = 0.0\nsamples = 7\nvalue = [0, 0, 0, 0, 0, 0, 11]\nclass = 50000", fillcolor="#e53986"] ;
30 -> 42 ;
}