digraph Tree {
node [shape=box, style="filled, rounded", color="black", fontname="helvetica"] ;
edge [fontname="helvetica"] ;
0 [label="mean_saturation <= 50.134\ngini = 0.847\nsamples = 48\nvalue = [8, 18, 10, 11, 10, 10, 13]\nclass = 10000", fillcolor="#fafdf0"] ;
1 [label="mean_value <= 212.79\ngini = 0.812\nsamples = 35\nvalue = [8, 18, 10, 11, 6, 10, 0]\nclass = 10000", fillcolor="#f5fce4"] ;
0 -> 1 [labeldistance=2.5, labelangle=45, headlabel="True"] ;
2 [label="gini = 0.0\nsamples = 4\nvalue = [7, 0, 0, 0, 0, 0, 0]\nclass = 1000", fillcolor="#e58139"] ;
1 -> 2 ;
3 [label="mean_value <= 234.952\ngini = 0.783\nsamples = 31\nvalue = [1, 18, 10, 11, 6, 10, 0]\nclass = 10000", fillcolor="#f4fbe0"] ;
1 -> 3 ;
4 [label="mean_hue <= 91.782\ngini = 0.676\nsamples = 20\nvalue = [1, 16, 0, 5, 5, 5, 0]\nclass = 10000", fillcolor="#e2f4ae"] ;
3 -> 4 ;
5 [label="mean_saturation <= 16.898\ngini = 0.703\nsamples = 11\nvalue = [1, 0, 0, 5, 5, 5, 0]\nclass = 2000", fillcolor="#ffffff"] ;
4 -> 5 ;
6 [label="mean_value <= 229.471\ngini = 0.278\nsamples = 4\nvalue = [1, 0, 0, 0, 0, 5, 0]\nclass = 5000", fillcolor="#c161ea"] ;
5 -> 6 ;
7 [label="gini = 0.0\nsamples = 3\nvalue = [0, 0, 0, 0, 0, 5, 0]\nclass = 5000", fillcolor="#b139e5"] ;
6 -> 7 ;
8 [label="gini = 0.0\nsamples = 1\nvalue = [1, 0, 0, 0, 0, 0, 0]\nclass = 1000", fillcolor="#e58139"] ;
6 -> 8 ;
9 [label="mean_saturation <= 48.56\ngini = 0.5\nsamples = 7\nvalue = [0, 0, 0, 5, 5, 0, 0]\nclass = 2000", fillcolor="#ffffff"] ;
5 -> 9 ;
10 [label="mean_hue <= 82.668\ngini = 0.408\nsamples = 6\nvalue = [0, 0, 0, 5, 2, 0, 0]\nclass = 2000", fillcolor="#88efee"] ;
9 -> 10 ;
11 [label="mean_value <= 221.49\ngini = 0.444\nsamples = 3\nvalue = [0, 0, 0, 1, 2, 0, 0]\nclass = 20000", fillcolor="#9caaf2"] ;
10 -> 11 ;
12 [label="gini = 0.0\nsamples = 1\nvalue = [0, 0, 0, 1, 0, 0, 0]\nclass = 2000", fillcolor="#39e5e2"] ;
11 -> 12 ;
13 [label="gini = 0.0\nsamples = 2\nvalue = [0, 0, 0, 0, 2, 0, 0]\nclass = 20000", fillcolor="#3956e5"] ;
11 -> 13 ;
14 [label="gini = 0.0\nsamples = 3\nvalue = [0, 0, 0, 4, 0, 0, 0]\nclass = 2000", fillcolor="#39e5e2"] ;
10 -> 14 ;
15 [label="gini = 0.0\nsamples = 1\nvalue = [0, 0, 0, 0, 3, 0, 0]\nclass = 20000", fillcolor="#3956e5"] ;
9 -> 15 ;
16 [label="gini = 0.0\nsamples = 9\nvalue = [0, 16, 0, 0, 0, 0, 0]\nclass = 10000", fillcolor="#b7e539"] ;
4 -> 16 ;
17 [label="mean_value <= 244.243\ngini = 0.712\nsamples = 11\nvalue = [0, 2, 10, 6, 1, 5, 0]\nclass = 100000", fillcolor="#d3f9d7"] ;
3 -> 17 ;
18 [label="mean_value <= 238.106\ngini = 0.637\nsamples = 7\nvalue = [0, 2, 8, 6, 1, 0, 0]\nclass = 100000", fillcolor="#dbfadf"] ;
17 -> 18 ;
19 [label="mean_saturation <= 35.228\ngini = 0.611\nsamples = 3\nvalue = [0, 2, 3, 0, 1, 0, 0]\nclass = 100000", fillcolor="#cef8d2"] ;
18 -> 19 ;
20 [label="gini = 0.0\nsamples = 1\nvalue = [0, 2, 0, 0, 0, 0, 0]\nclass = 10000", fillcolor="#b7e539"] ;
19 -> 20 ;
21 [label="mean_value <= 236.067\ngini = 0.375\nsamples = 2\nvalue = [0, 0, 3, 0, 1, 0, 0]\nclass = 100000", fillcolor="#7bee88"] ;
19 -> 21 ;
22 [label="gini = 0.0\nsamples = 1\nvalue = [0, 0, 3, 0, 0, 0, 0]\nclass = 100000", fillcolor="#39e54d"] ;
21 -> 22 ;
23 [label="gini = 0.0\nsamples = 1\nvalue = [0, 0, 0, 0, 1, 0, 0]\nclass = 20000", fillcolor="#3956e5"] ;
21 -> 23 ;
24 [label="mean_saturation <= 15.918\ngini = 0.496\nsamples = 4\nvalue = [0, 0, 5, 6, 0, 0, 0]\nclass = 2000", fillcolor="#defbfa"] ;
18 -> 24 ;
25 [label="gini = 0.0\nsamples = 2\nvalue = [0, 0, 0, 6, 0, 0, 0]\nclass = 2000", fillcolor="#39e5e2"] ;
24 -> 25 ;
26 [label="gini = 0.0\nsamples = 2\nvalue = [0, 0, 5, 0, 0, 0, 0]\nclass = 100000", fillcolor="#39e54d"] ;
24 -> 26 ;
27 [label="mean_saturation <= 16.763\ngini = 0.408\nsamples = 4\nvalue = [0, 0, 2, 0, 0, 5, 0]\nclass = 5000", fillcolor="#d088ef"] ;
17 -> 27 ;
28 [label="gini = 0.0\nsamples = 3\nvalue = [0, 0, 0, 0, 0, 5, 0]\nclass = 5000", fillcolor="#b139e5"] ;
27 -> 28 ;
29 [label="gini = 0.0\nsamples = 1\nvalue = [0, 0, 2, 0, 0, 0, 0]\nclass = 100000", fillcolor="#39e54d"] ;
27 -> 29 ;
30 [label="mean_hue <= 83.713\ngini = 0.36\nsamples = 13\nvalue = [0, 0, 0, 0, 4, 0, 13]\nclass = 50000", fillcolor="#ed76ab"] ;
0 -> 30 [labeldistance=2.5, labelangle=-45, headlabel="False"] ;
31 [label="gini = 0.0\nsamples = 4\nvalue = [0, 0, 0, 0, 4, 0, 0]\nclass = 20000", fillcolor="#3956e5"] ;
30 -> 31 ;
32 [label="gini = 0.0\nsamples = 9\nvalue = [0, 0, 0, 0, 0, 0, 13]\nclass = 50000", fillcolor="#e53986"] ;
30 -> 32 ;
}