digraph Tree {
node [shape=box, style="filled, rounded", color="black", fontname="helvetica"] ;
edge [fontname="helvetica"] ;
0 [label="mean_saturation <= 14.178\ngini = 0.841\nsamples = 54\nvalue = [7, 11, 14, 11, 13, 18, 6]\nclass = 5000", fillcolor="#faf3fd"] ;
1 [label="mean_hue <= 53.544\ngini = 0.423\nsamples = 10\nvalue = [0, 0, 0, 7, 0, 16, 0]\nclass = 5000", fillcolor="#d390f0"] ;
0 -> 1 [labeldistance=2.5, labelangle=45, headlabel="True"] ;
2 [label="mean_saturation <= 12.528\ngini = 0.266\nsamples = 8\nvalue = [0, 0, 0, 3, 0, 16, 0]\nclass = 5000", fillcolor="#c05eea"] ;
1 -> 2 ;
3 [label="mean_hue <= 43.193\ngini = 0.5\nsamples = 3\nvalue = [0, 0, 0, 3, 0, 3, 0]\nclass = 2000", fillcolor="#ffffff"] ;
2 -> 3 ;
4 [label="gini = 0.0\nsamples = 1\nvalue = [0, 0, 0, 2, 0, 0, 0]\nclass = 2000", fillcolor="#39e5e2"] ;
3 -> 4 ;
5 [label="mean_saturation <= 10.663\ngini = 0.375\nsamples = 2\nvalue = [0, 0, 0, 1, 0, 3, 0]\nclass = 5000", fillcolor="#cb7bee"] ;
3 -> 5 ;
6 [label="gini = 0.0\nsamples = 1\nvalue = [0, 0, 0, 1, 0, 0, 0]\nclass = 2000", fillcolor="#39e5e2"] ;
5 -> 6 ;
7 [label="gini = 0.0\nsamples = 1\nvalue = [0, 0, 0, 0, 0, 3, 0]\nclass = 5000", fillcolor="#b139e5"] ;
5 -> 7 ;
8 [label="gini = 0.0\nsamples = 5\nvalue = [0, 0, 0, 0, 0, 13, 0]\nclass = 5000", fillcolor="#b139e5"] ;
2 -> 8 ;
9 [label="gini = 0.0\nsamples = 2\nvalue = [0, 0, 0, 4, 0, 0, 0]\nclass = 2000", fillcolor="#39e5e2"] ;
1 -> 9 ;
10 [label="mean_saturation <= 50.134\ngini = 0.818\nsamples = 44\nvalue = [7, 11, 14, 4, 13, 2, 6]\nclass = 100000", fillcolor="#fafefb"] ;
0 -> 10 [labeldistance=2.5, labelangle=-45, headlabel="False"] ;
11 [label="mean_value <= 233.955\ngini = 0.789\nsamples = 35\nvalue = [7, 11, 14, 4, 9, 2, 0]\nclass = 100000", fillcolor="#effdf0"] ;
10 -> 11 ;
12 [label="mean_saturation <= 31.988\ngini = 0.778\nsamples = 24\nvalue = [7, 10, 3, 4, 3, 2, 0]\nclass = 10000", fillcolor="#f5fbe4"] ;
11 -> 12 ;
13 [label="mean_hue <= 40.951\ngini = 0.781\nsamples = 16\nvalue = [7, 2, 3, 3, 2, 2, 0]\nclass = 1000", fillcolor="#f8e0ce"] ;
12 -> 13 ;
14 [label="gini = 0.0\nsamples = 2\nvalue = [0, 0, 0, 0, 0, 2, 0]\nclass = 5000", fillcolor="#b139e5"] ;
13 -> 14 ;
15 [label="mean_value <= 223.001\ngini = 0.74\nsamples = 14\nvalue = [7, 2, 3, 3, 2, 0, 0]\nclass = 1000", fillcolor="#f8dbc6"] ;
13 -> 15 ;
16 [label="mean_hue <= 72.063\ngini = 0.49\nsamples = 5\nvalue = [4, 0, 0, 3, 0, 0, 0]\nclass = 1000", fillcolor="#f8e0ce"] ;
15 -> 16 ;
17 [label="mean_saturation <= 19.151\ngini = 0.32\nsamples = 3\nvalue = [4, 0, 0, 1, 0, 0, 0]\nclass = 1000", fillcolor="#eca06a"] ;
16 -> 17 ;
18 [label="gini = 0.0\nsamples = 1\nvalue = [0, 0, 0, 1, 0, 0, 0]\nclass = 2000", fillcolor="#39e5e2"] ;
17 -> 18 ;
19 [label="gini = 0.0\nsamples = 2\nvalue = [4, 0, 0, 0, 0, 0, 0]\nclass = 1000", fillcolor="#e58139"] ;
17 -> 19 ;
20 [label="gini = 0.0\nsamples = 2\nvalue = [0, 0, 0, 2, 0, 0, 0]\nclass = 2000", fillcolor="#39e5e2"] ;
16 -> 20 ;
21 [label="mean_hue <= 88.584\ngini = 0.74\nsamples = 9\nvalue = [3, 2, 3, 0, 2, 0, 0]\nclass = 1000", fillcolor="#ffffff"] ;
15 -> 21 ;
22 [label="mean_value <= 231.242\ngini = 0.653\nsamples = 6\nvalue = [3, 0, 2, 0, 2, 0, 0]\nclass = 1000", fillcolor="#fae6d7"] ;
21 -> 22 ;
23 [label="mean_value <= 229.515\ngini = 0.5\nsamples = 4\nvalue = [0, 0, 2, 0, 2, 0, 0]\nclass = 100000", fillcolor="#ffffff"] ;
22 -> 23 ;
24 [label="gini = 0.0\nsamples = 2\nvalue = [0, 0, 2, 0, 0, 0, 0]\nclass = 100000", fillcolor="#39e54d"] ;
23 -> 24 ;
25 [label="gini = 0.0\nsamples = 2\nvalue = [0, 0, 0, 0, 2, 0, 0]\nclass = 20000", fillcolor="#3956e5"] ;
23 -> 25 ;
26 [label="gini = 0.0\nsamples = 2\nvalue = [3, 0, 0, 0, 0, 0, 0]\nclass = 1000", fillcolor="#e58139"] ;
22 -> 26 ;
27 [label="mean_hue <= 96.532\ngini = 0.444\nsamples = 3\nvalue = [0, 2, 1, 0, 0, 0, 0]\nclass = 10000", fillcolor="#dbf29c"] ;
21 -> 27 ;
28 [label="gini = 0.0\nsamples = 1\nvalue = [0, 1, 0, 0, 0, 0, 0]\nclass = 10000", fillcolor="#b7e539"] ;
27 -> 28 ;
29 [label="mean_hue <= 98.643\ngini = 0.5\nsamples = 2\nvalue = [0, 1, 1, 0, 0, 0, 0]\nclass = 10000", fillcolor="#ffffff"] ;
27 -> 29 ;
30 [label="gini = 0.0\nsamples = 1\nvalue = [0, 0, 1, 0, 0, 0, 0]\nclass = 100000", fillcolor="#39e54d"] ;
29 -> 30 ;
31 [label="gini = 0.0\nsamples = 1\nvalue = [0, 1, 0, 0, 0, 0, 0]\nclass = 10000", fillcolor="#b7e539"] ;
29 -> 31 ;
32 [label="mean_value <= 221.17\ngini = 0.34\nsamples = 8\nvalue = [0, 8, 0, 1, 1, 0, 0]\nclass = 10000", fillcolor="#c7eb65"] ;
12 -> 32 ;
33 [label="mean_saturation <= 48.56\ngini = 0.5\nsamples = 2\nvalue = [0, 0, 0, 1, 1, 0, 0]\nclass = 2000", fillcolor="#ffffff"] ;
32 -> 33 ;
34 [label="gini = 0.0\nsamples = 1\nvalue = [0, 0, 0, 1, 0, 0, 0]\nclass = 2000", fillcolor="#39e5e2"] ;
33 -> 34 ;
35 [label="gini = 0.0\nsamples = 1\nvalue = [0, 0, 0, 0, 1, 0, 0]\nclass = 20000", fillcolor="#3956e5"] ;
33 -> 35 ;
36 [label="gini = 0.0\nsamples = 6\nvalue = [0, 8, 0, 0, 0, 0, 0]\nclass = 10000", fillcolor="#b7e539"] ;
32 -> 36 ;
37 [label="mean_value <= 238.483\ngini = 0.512\nsamples = 11\nvalue = [0, 1, 11, 0, 6, 0, 0]\nclass = 100000", fillcolor="#acf4b5"] ;
11 -> 37 ;
38 [label="mean_value <= 235.355\ngini = 0.562\nsamples = 7\nvalue = [0, 1, 4, 0, 6, 0, 0]\nclass = 20000", fillcolor="#c6cff8"] ;
37 -> 38 ;
39 [label="mean_hue <= 45.152\ngini = 0.32\nsamples = 3\nvalue = [0, 0, 1, 0, 4, 0, 0]\nclass = 20000", fillcolor="#6a80ec"] ;
38 -> 39 ;
40 [label="gini = 0.0\nsamples = 1\nvalue = [0, 0, 1, 0, 0, 0, 0]\nclass = 100000", fillcolor="#39e54d"] ;
39 -> 40 ;
41 [label="gini = 0.0\nsamples = 2\nvalue = [0, 0, 0, 0, 4, 0, 0]\nclass = 20000", fillcolor="#3956e5"] ;
39 -> 41 ;
42 [label="mean_value <= 236.048\ngini = 0.611\nsamples = 4\nvalue = [0, 1, 3, 0, 2, 0, 0]\nclass = 100000", fillcolor="#cef8d2"] ;
38 -> 42 ;
43 [label="gini = 0.0\nsamples = 1\nvalue = [0, 0, 3, 0, 0, 0, 0]\nclass = 100000", fillcolor="#39e54d"] ;
42 -> 43 ;
44 [label="mean_value <= 236.746\ngini = 0.444\nsamples = 3\nvalue = [0, 1, 0, 0, 2, 0, 0]\nclass = 20000", fillcolor="#9caaf2"] ;
42 -> 44 ;
45 [label="gini = 0.0\nsamples = 1\nvalue = [0, 0, 0, 0, 1, 0, 0]\nclass = 20000", fillcolor="#3956e5"] ;
44 -> 45 ;
46 [label="mean_saturation <= 38.719\ngini = 0.5\nsamples = 2\nvalue = [0, 1, 0, 0, 1, 0, 0]\nclass = 10000", fillcolor="#ffffff"] ;
44 -> 46 ;
47 [label="gini = 0.0\nsamples = 1\nvalue = [0, 1, 0, 0, 0, 0, 0]\nclass = 10000", fillcolor="#b7e539"] ;
46 -> 47 ;
48 [label="gini = 0.0\nsamples = 1\nvalue = [0, 0, 0, 0, 1, 0, 0]\nclass = 20000", fillcolor="#3956e5"] ;
46 -> 48 ;
49 [label="gini = 0.0\nsamples = 4\nvalue = [0, 0, 7, 0, 0, 0, 0]\nclass = 100000", fillcolor="#39e54d"] ;
37 -> 49 ;
50 [label="mean_hue <= 83.067\ngini = 0.48\nsamples = 9\nvalue = [0, 0, 0, 0, 4, 0, 6]\nclass = 50000", fillcolor="#f6bdd7"] ;
10 -> 50 ;
51 [label="gini = 0.0\nsamples = 3\nvalue = [0, 0, 0, 0, 4, 0, 0]\nclass = 20000", fillcolor="#3956e5"] ;
50 -> 51 ;
52 [label="gini = 0.0\nsamples = 6\nvalue = [0, 0, 0, 0, 0, 0, 6]\nclass = 50000", fillcolor="#e53986"] ;
50 -> 52 ;
}