digraph Tree {
node [shape=box, style="filled, rounded", color="black", fontname="helvetica"] ;
edge [fontname="helvetica"] ;
0 [label="mean_value <= 235.355\ngini = 0.842\nsamples = 49\nvalue = [13, 5, 13, 8, 15, 16, 10]\nclass = 5000", fillcolor="#fefcff"] ;
1 [label="mean_saturation <= 42.189\ngini = 0.734\nsamples = 25\nvalue = [13, 2, 0, 3, 11, 12, 0]\nclass = 1000", fillcolor="#fefbf8"] ;
0 -> 1 [labeldistance=2.5, labelangle=45, headlabel="True"] ;
2 [label="mean_hue <= 41.806\ngini = 0.704\nsamples = 21\nvalue = [13, 2, 0, 3, 4, 12, 0]\nclass = 1000", fillcolor="#fef9f6"] ;
1 -> 2 ;
3 [label="gini = 0.0\nsamples = 5\nvalue = [0, 0, 0, 0, 0, 12, 0]\nclass = 5000", fillcolor="#b139e5"] ;
2 -> 3 ;
4 [label="mean_hue <= 80.263\ngini = 0.591\nsamples = 16\nvalue = [13, 2, 0, 3, 4, 0, 0]\nclass = 1000", fillcolor="#f2c09c"] ;
2 -> 4 ;
5 [label="mean_value <= 234.344\ngini = 0.388\nsamples = 12\nvalue = [13, 0, 0, 2, 2, 0, 0]\nclass = 1000", fillcolor="#eca36e"] ;
4 -> 5 ;
6 [label="mean_value <= 215.319\ngini = 0.32\nsamples = 11\nvalue = [13, 0, 0, 2, 1, 0, 0]\nclass = 1000", fillcolor="#eb9c63"] ;
5 -> 6 ;
7 [label="gini = 0.0\nsamples = 4\nvalue = [6, 0, 0, 0, 0, 0, 0]\nclass = 1000", fillcolor="#e58139"] ;
6 -> 7 ;
8 [label="mean_value <= 223.97\ngini = 0.46\nsamples = 7\nvalue = [7, 0, 0, 2, 1, 0, 0]\nclass = 1000", fillcolor="#efb083"] ;
6 -> 8 ;
9 [label="gini = 0.0\nsamples = 2\nvalue = [0, 0, 0, 2, 0, 0, 0]\nclass = 2000", fillcolor="#39e5e2"] ;
8 -> 9 ;
10 [label="mean_value <= 230.734\ngini = 0.219\nsamples = 5\nvalue = [7, 0, 0, 0, 1, 0, 0]\nclass = 1000", fillcolor="#e99355"] ;
8 -> 10 ;
11 [label="mean_hue <= 67.78\ngini = 0.444\nsamples = 2\nvalue = [2, 0, 0, 0, 1, 0, 0]\nclass = 1000", fillcolor="#f2c09c"] ;
10 -> 11 ;
12 [label="gini = 0.0\nsamples = 1\nvalue = [2, 0, 0, 0, 0, 0, 0]\nclass = 1000", fillcolor="#e58139"] ;
11 -> 12 ;
13 [label="gini = 0.0\nsamples = 1\nvalue = [0, 0, 0, 0, 1, 0, 0]\nclass = 20000", fillcolor="#3956e5"] ;
11 -> 13 ;
14 [label="gini = 0.0\nsamples = 3\nvalue = [5, 0, 0, 0, 0, 0, 0]\nclass = 1000", fillcolor="#e58139"] ;
10 -> 14 ;
15 [label="gini = 0.0\nsamples = 1\nvalue = [0, 0, 0, 0, 1, 0, 0]\nclass = 20000", fillcolor="#3956e5"] ;
5 -> 15 ;
16 [label="mean_saturation <= 23.913\ngini = 0.64\nsamples = 4\nvalue = [0, 2, 0, 1, 2, 0, 0]\nclass = 10000", fillcolor="#ffffff"] ;
4 -> 16 ;
17 [label="mean_saturation <= 21.683\ngini = 0.444\nsamples = 2\nvalue = [0, 1, 0, 0, 2, 0, 0]\nclass = 20000", fillcolor="#9caaf2"] ;
16 -> 17 ;
18 [label="gini = 0.0\nsamples = 1\nvalue = [0, 1, 0, 0, 0, 0, 0]\nclass = 10000", fillcolor="#b7e539"] ;
17 -> 18 ;
19 [label="gini = 0.0\nsamples = 1\nvalue = [0, 0, 0, 0, 2, 0, 0]\nclass = 20000", fillcolor="#3956e5"] ;
17 -> 19 ;
20 [label="mean_saturation <= 29.923\ngini = 0.5\nsamples = 2\nvalue = [0, 1, 0, 1, 0, 0, 0]\nclass = 10000", fillcolor="#ffffff"] ;
16 -> 20 ;
21 [label="gini = 0.0\nsamples = 1\nvalue = [0, 0, 0, 1, 0, 0, 0]\nclass = 2000", fillcolor="#39e5e2"] ;
20 -> 21 ;
22 [label="gini = 0.0\nsamples = 1\nvalue = [0, 1, 0, 0, 0, 0, 0]\nclass = 10000", fillcolor="#b7e539"] ;
20 -> 22 ;
23 [label="gini = 0.0\nsamples = 4\nvalue = [0, 0, 0, 0, 7, 0, 0]\nclass = 20000", fillcolor="#3956e5"] ;
1 -> 23 ;
24 [label="mean_hue <= 104.013\ngini = 0.78\nsamples = 24\nvalue = [0, 3, 13, 5, 4, 4, 10]\nclass = 100000", fillcolor="#ebfced"] ;
0 -> 24 [labeldistance=2.5, labelangle=-45, headlabel="False"] ;
25 [label="mean_hue <= 80.443\ngini = 0.798\nsamples = 18\nvalue = [0, 3, 4, 5, 4, 4, 10]\nclass = 50000", fillcolor="#fad7e7"] ;
24 -> 25 ;
26 [label="mean_value <= 244.243\ngini = 0.663\nsamples = 9\nvalue = [0, 0, 4, 5, 0, 4, 0]\nclass = 2000", fillcolor="#e9fcfc"] ;
25 -> 26 ;
27 [label="mean_value <= 236.401\ngini = 0.494\nsamples = 6\nvalue = [0, 0, 4, 5, 0, 0, 0]\nclass = 2000", fillcolor="#d7faf9"] ;
26 -> 27 ;
28 [label="gini = 0.0\nsamples = 1\nvalue = [0, 0, 2, 0, 0, 0, 0]\nclass = 100000", fillcolor="#39e54d"] ;
27 -> 28 ;
29 [label="mean_value <= 241.645\ngini = 0.408\nsamples = 5\nvalue = [0, 0, 2, 5, 0, 0, 0]\nclass = 2000", fillcolor="#88efee"] ;
27 -> 29 ;
30 [label="gini = 0.0\nsamples = 3\nvalue = [0, 0, 0, 4, 0, 0, 0]\nclass = 2000", fillcolor="#39e5e2"] ;
29 -> 30 ;
31 [label="mean_value <= 243.487\ngini = 0.444\nsamples = 2\nvalue = [0, 0, 2, 1, 0, 0, 0]\nclass = 100000", fillcolor="#9cf2a6"] ;
29 -> 31 ;
32 [label="gini = 0.0\nsamples = 1\nvalue = [0, 0, 2, 0, 0, 0, 0]\nclass = 100000", fillcolor="#39e54d"] ;
31 -> 32 ;
33 [label="gini = 0.0\nsamples = 1\nvalue = [0, 0, 0, 1, 0, 0, 0]\nclass = 2000", fillcolor="#39e5e2"] ;
31 -> 33 ;
34 [label="gini = 0.0\nsamples = 3\nvalue = [0, 0, 0, 0, 0, 4, 0]\nclass = 5000", fillcolor="#b139e5"] ;
26 -> 34 ;
35 [label="mean_saturation <= 49.979\ngini = 0.567\nsamples = 9\nvalue = [0, 3, 0, 0, 4, 0, 10]\nclass = 50000", fillcolor="#f3a4c7"] ;
25 -> 35 ;
36 [label="mean_hue <= 92.323\ngini = 0.49\nsamples = 3\nvalue = [0, 3, 0, 0, 4, 0, 0]\nclass = 20000", fillcolor="#ced5f8"] ;
35 -> 36 ;
37 [label="gini = 0.0\nsamples = 2\nvalue = [0, 0, 0, 0, 4, 0, 0]\nclass = 20000", fillcolor="#3956e5"] ;
36 -> 37 ;
38 [label="gini = 0.0\nsamples = 1\nvalue = [0, 3, 0, 0, 0, 0, 0]\nclass = 10000", fillcolor="#b7e539"] ;
36 -> 38 ;
39 [label="gini = 0.0\nsamples = 6\nvalue = [0, 0, 0, 0, 0, 0, 10]\nclass = 50000", fillcolor="#e53986"] ;
35 -> 39 ;
40 [label="gini = 0.0\nsamples = 6\nvalue = [0, 0, 9, 0, 0, 0, 0]\nclass = 100000", fillcolor="#39e54d"] ;
24 -> 40 ;
}