digraph Tree {
node [shape=box, style="filled, rounded", color="black", fontname="helvetica"] ;
edge [fontname="helvetica"] ;
0 [label="mean_saturation <= 17.583\ngini = 0.844\nsamples = 52\nvalue = [11, 13, 13, 16, 8, 14, 5]\nclass = 2000", fillcolor="#f9fefe"] ;
1 [label="mean_saturation <= 12.528\ngini = 0.663\nsamples = 20\nvalue = [7, 1, 0, 8, 0, 13, 0]\nclass = 5000", fillcolor="#ecd0f9"] ;
0 -> 1 [labeldistance=2.5, labelangle=45, headlabel="True"] ;
2 [label="mean_hue <= 49.843\ngini = 0.46\nsamples = 8\nvalue = [1, 0, 0, 7, 0, 2, 0]\nclass = 2000", fillcolor="#83efed"] ;
1 -> 2 ;
3 [label="mean_saturation <= 9.937\ngini = 0.5\nsamples = 4\nvalue = [0, 0, 0, 2, 0, 2, 0]\nclass = 2000", fillcolor="#ffffff"] ;
2 -> 3 ;
4 [label="gini = 0.0\nsamples = 1\nvalue = [0, 0, 0, 1, 0, 0, 0]\nclass = 2000", fillcolor="#39e5e2"] ;
3 -> 4 ;
5 [label="mean_hue <= 43.193\ngini = 0.444\nsamples = 3\nvalue = [0, 0, 0, 1, 0, 2, 0]\nclass = 5000", fillcolor="#d89cf2"] ;
3 -> 5 ;
6 [label="gini = 0.0\nsamples = 1\nvalue = [0, 0, 0, 1, 0, 0, 0]\nclass = 2000", fillcolor="#39e5e2"] ;
5 -> 6 ;
7 [label="gini = 0.0\nsamples = 2\nvalue = [0, 0, 0, 0, 0, 2, 0]\nclass = 5000", fillcolor="#b139e5"] ;
5 -> 7 ;
8 [label="mean_saturation <= 11.479\ngini = 0.278\nsamples = 4\nvalue = [1, 0, 0, 5, 0, 0, 0]\nclass = 2000", fillcolor="#61eae8"] ;
2 -> 8 ;
9 [label="mean_value <= 233.263\ngini = 0.5\nsamples = 2\nvalue = [1, 0, 0, 1, 0, 0, 0]\nclass = 1000", fillcolor="#ffffff"] ;
8 -> 9 ;
10 [label="gini = 0.0\nsamples = 1\nvalue = [1, 0, 0, 0, 0, 0, 0]\nclass = 1000", fillcolor="#e58139"] ;
9 -> 10 ;
11 [label="gini = 0.0\nsamples = 1\nvalue = [0, 0, 0, 1, 0, 0, 0]\nclass = 2000", fillcolor="#39e5e2"] ;
9 -> 11 ;
12 [label="gini = 0.0\nsamples = 2\nvalue = [0, 0, 0, 4, 0, 0, 0]\nclass = 2000", fillcolor="#39e5e2"] ;
8 -> 12 ;
13 [label="mean_saturation <= 14.157\ngini = 0.56\nsamples = 12\nvalue = [6, 1, 0, 1, 0, 11, 0]\nclass = 5000", fillcolor="#e1b3f5"] ;
1 -> 13 ;
14 [label="gini = 0.0\nsamples = 4\nvalue = [0, 0, 0, 0, 0, 7, 0]\nclass = 5000", fillcolor="#b139e5"] ;
13 -> 14 ;
15 [label="mean_value <= 230.493\ngini = 0.625\nsamples = 8\nvalue = [6, 1, 0, 1, 0, 4, 0]\nclass = 1000", fillcolor="#f8e0ce"] ;
13 -> 15 ;
16 [label="mean_hue <= 43.359\ngini = 0.5\nsamples = 5\nvalue = [0, 1, 0, 1, 0, 4, 0]\nclass = 5000", fillcolor="#d088ef"] ;
15 -> 16 ;
17 [label="gini = 0.0\nsamples = 3\nvalue = [0, 0, 0, 0, 0, 4, 0]\nclass = 5000", fillcolor="#b139e5"] ;
16 -> 17 ;
18 [label="mean_saturation <= 15.851\ngini = 0.5\nsamples = 2\nvalue = [0, 1, 0, 1, 0, 0, 0]\nclass = 10000", fillcolor="#ffffff"] ;
16 -> 18 ;
19 [label="gini = 0.0\nsamples = 1\nvalue = [0, 0, 0, 1, 0, 0, 0]\nclass = 2000", fillcolor="#39e5e2"] ;
18 -> 19 ;
20 [label="gini = 0.0\nsamples = 1\nvalue = [0, 1, 0, 0, 0, 0, 0]\nclass = 10000", fillcolor="#b7e539"] ;
18 -> 20 ;
21 [label="gini = 0.0\nsamples = 3\nvalue = [6, 0, 0, 0, 0, 0, 0]\nclass = 1000", fillcolor="#e58139"] ;
15 -> 21 ;
22 [label="mean_saturation <= 33.657\ngini = 0.814\nsamples = 32\nvalue = [4, 12, 13, 8, 8, 1, 5]\nclass = 100000", fillcolor="#fafefa"] ;
0 -> 22 [labeldistance=2.5, labelangle=-45, headlabel="False"] ;
23 [label="mean_value <= 226.665\ngini = 0.645\nsamples = 13\nvalue = [4, 1, 12, 3, 1, 1, 0]\nclass = 100000", fillcolor="#a7f3b0"] ;
22 -> 23 ;
24 [label="mean_hue <= 73.194\ngini = 0.594\nsamples = 6\nvalue = [4, 0, 0, 3, 0, 1, 0]\nclass = 1000", fillcolor="#fae6d7"] ;
23 -> 24 ;
25 [label="mean_hue <= 43.231\ngini = 0.32\nsamples = 4\nvalue = [4, 0, 0, 0, 0, 1, 0]\nclass = 1000", fillcolor="#eca06a"] ;
24 -> 25 ;
26 [label="gini = 0.0\nsamples = 1\nvalue = [0, 0, 0, 0, 0, 1, 0]\nclass = 5000", fillcolor="#b139e5"] ;
25 -> 26 ;
27 [label="gini = 0.0\nsamples = 3\nvalue = [4, 0, 0, 0, 0, 0, 0]\nclass = 1000", fillcolor="#e58139"] ;
25 -> 27 ;
28 [label="gini = 0.0\nsamples = 2\nvalue = [0, 0, 0, 3, 0, 0, 0]\nclass = 2000", fillcolor="#39e5e2"] ;
24 -> 28 ;
29 [label="mean_value <= 231.904\ngini = 0.255\nsamples = 7\nvalue = [0, 1, 12, 0, 1, 0, 0]\nclass = 100000", fillcolor="#57e968"] ;
23 -> 29 ;
30 [label="gini = 0.0\nsamples = 2\nvalue = [0, 0, 6, 0, 0, 0, 0]\nclass = 100000", fillcolor="#39e54d"] ;
29 -> 30 ;
31 [label="mean_value <= 235.355\ngini = 0.406\nsamples = 5\nvalue = [0, 1, 6, 0, 1, 0, 0]\nclass = 100000", fillcolor="#72ec80"] ;
29 -> 31 ;
32 [label="mean_hue <= 83.154\ngini = 0.5\nsamples = 2\nvalue = [0, 1, 0, 0, 1, 0, 0]\nclass = 10000", fillcolor="#ffffff"] ;
31 -> 32 ;
33 [label="gini = 0.0\nsamples = 1\nvalue = [0, 0, 0, 0, 1, 0, 0]\nclass = 20000", fillcolor="#3956e5"] ;
32 -> 33 ;
34 [label="gini = 0.0\nsamples = 1\nvalue = [0, 1, 0, 0, 0, 0, 0]\nclass = 10000", fillcolor="#b7e539"] ;
32 -> 34 ;
35 [label="gini = 0.0\nsamples = 3\nvalue = [0, 0, 6, 0, 0, 0, 0]\nclass = 100000", fillcolor="#39e54d"] ;
31 -> 35 ;
36 [label="mean_saturation <= 51.276\ngini = 0.737\nsamples = 19\nvalue = [0, 11, 1, 5, 7, 0, 5]\nclass = 10000", fillcolor="#f2fadb"] ;
22 -> 36 ;
37 [label="mean_hue <= 91.708\ngini = 0.61\nsamples = 12\nvalue = [0, 11, 1, 5, 3, 0, 0]\nclass = 10000", fillcolor="#e2f5b0"] ;
36 -> 37 ;
38 [label="mean_hue <= 81.218\ngini = 0.568\nsamples = 5\nvalue = [0, 0, 1, 5, 3, 0, 0]\nclass = 2000", fillcolor="#bdf6f5"] ;
37 -> 38 ;
39 [label="mean_hue <= 49.283\ngini = 0.444\nsamples = 2\nvalue = [0, 0, 1, 0, 2, 0, 0]\nclass = 20000", fillcolor="#9caaf2"] ;
38 -> 39 ;
40 [label="gini = 0.0\nsamples = 1\nvalue = [0, 0, 1, 0, 0, 0, 0]\nclass = 100000", fillcolor="#39e54d"] ;
39 -> 40 ;
41 [label="gini = 0.0\nsamples = 1\nvalue = [0, 0, 0, 0, 2, 0, 0]\nclass = 20000", fillcolor="#3956e5"] ;
39 -> 41 ;
42 [label="mean_saturation <= 38.833\ngini = 0.278\nsamples = 3\nvalue = [0, 0, 0, 5, 1, 0, 0]\nclass = 2000", fillcolor="#61eae8"] ;
38 -> 42 ;
43 [label="gini = 0.0\nsamples = 1\nvalue = [0, 0, 0, 0, 1, 0, 0]\nclass = 20000", fillcolor="#3956e5"] ;
42 -> 43 ;
44 [label="gini = 0.0\nsamples = 2\nvalue = [0, 0, 0, 5, 0, 0, 0]\nclass = 2000", fillcolor="#39e5e2"] ;
42 -> 44 ;
45 [label="gini = 0.0\nsamples = 7\nvalue = [0, 11, 0, 0, 0, 0, 0]\nclass = 10000", fillcolor="#b7e539"] ;
37 -> 45 ;
46 [label="mean_value <= 225.655\ngini = 0.494\nsamples = 7\nvalue = [0, 0, 0, 0, 4, 0, 5]\nclass = 50000", fillcolor="#fad7e7"] ;
36 -> 46 ;
47 [label="gini = 0.0\nsamples = 3\nvalue = [0, 0, 0, 0, 4, 0, 0]\nclass = 20000", fillcolor="#3956e5"] ;
46 -> 47 ;
48 [label="gini = 0.0\nsamples = 4\nvalue = [0, 0, 0, 0, 0, 0, 5]\nclass = 50000", fillcolor="#e53986"] ;
46 -> 48 ;
}