digraph Tree {
node [shape=box, style="filled, rounded", color="black", fontname="helvetica"] ;
edge [fontname="helvetica"] ;
0 [label="mean_saturation <= 16.898\ngini = 0.842\nsamples = 48\nvalue = [6, 16, 12, 6, 14, 14, 12]\nclass = 10000", fillcolor="#fdfef9"] ;
1 [label="mean_hue <= 56.455\ngini = 0.438\nsamples = 11\nvalue = [3, 0, 0, 2, 0, 13, 0]\nclass = 5000", fillcolor="#cb7bee"] ;
0 -> 1 [labeldistance=2.5, labelangle=45, headlabel="True"] ;
2 [label="mean_hue <= 50.251\ngini = 0.231\nsamples = 8\nvalue = [0, 0, 0, 2, 0, 13, 0]\nclass = 5000", fillcolor="#bd57e9"] ;
1 -> 2 ;
3 [label="gini = 0.0\nsamples = 6\nvalue = [0, 0, 0, 0, 0, 11, 0]\nclass = 5000", fillcolor="#b139e5"] ;
2 -> 3 ;
4 [label="mean_saturation <= 12.151\ngini = 0.5\nsamples = 2\nvalue = [0, 0, 0, 2, 0, 2, 0]\nclass = 2000", fillcolor="#ffffff"] ;
2 -> 4 ;
5 [label="gini = 0.0\nsamples = 1\nvalue = [0, 0, 0, 2, 0, 0, 0]\nclass = 2000", fillcolor="#39e5e2"] ;
4 -> 5 ;
6 [label="gini = 0.0\nsamples = 1\nvalue = [0, 0, 0, 0, 0, 2, 0]\nclass = 5000", fillcolor="#b139e5"] ;
4 -> 6 ;
7 [label="gini = 0.0\nsamples = 3\nvalue = [3, 0, 0, 0, 0, 0, 0]\nclass = 1000", fillcolor="#e58139"] ;
1 -> 7 ;
8 [label="mean_hue <= 94.21\ngini = 0.801\nsamples = 37\nvalue = [3, 16, 12, 4, 14, 1, 12]\nclass = 10000", fillcolor="#fcfef7"] ;
0 -> 8 [labeldistance=2.5, labelangle=-45, headlabel="False"] ;
9 [label="mean_saturation <= 50.033\ngini = 0.726\nsamples = 24\nvalue = [3, 0, 3, 4, 14, 1, 12]\nclass = 20000", fillcolor="#eff1fd"] ;
8 -> 9 ;
10 [label="mean_value <= 214.803\ngini = 0.678\nsamples = 15\nvalue = [3, 0, 3, 4, 11, 1, 0]\nclass = 20000", fillcolor="#b2bdf5"] ;
9 -> 10 ;
11 [label="gini = 0.0\nsamples = 3\nvalue = [3, 0, 0, 0, 0, 0, 0]\nclass = 1000", fillcolor="#e58139"] ;
10 -> 11 ;
12 [label="mean_saturation <= 44.871\ngini = 0.593\nsamples = 12\nvalue = [0, 0, 3, 4, 11, 1, 0]\nclass = 20000", fillcolor="#a3b0f3"] ;
10 -> 12 ;
13 [label="mean_value <= 229.515\ngini = 0.462\nsamples = 9\nvalue = [0, 0, 3, 0, 9, 1, 0]\nclass = 20000", fillcolor="#889aef"] ;
12 -> 13 ;
14 [label="mean_value <= 227.38\ngini = 0.5\nsamples = 2\nvalue = [0, 0, 1, 0, 0, 1, 0]\nclass = 100000", fillcolor="#ffffff"] ;
13 -> 14 ;
15 [label="gini = 0.0\nsamples = 1\nvalue = [0, 0, 0, 0, 0, 1, 0]\nclass = 5000", fillcolor="#b139e5"] ;
14 -> 15 ;
16 [label="gini = 0.0\nsamples = 1\nvalue = [0, 0, 1, 0, 0, 0, 0]\nclass = 100000", fillcolor="#39e54d"] ;
14 -> 16 ;
17 [label="mean_hue <= 50.661\ngini = 0.298\nsamples = 7\nvalue = [0, 0, 2, 0, 9, 0, 0]\nclass = 20000", fillcolor="#657ceb"] ;
13 -> 17 ;
18 [label="gini = 0.0\nsamples = 2\nvalue = [0, 0, 2, 0, 0, 0, 0]\nclass = 100000", fillcolor="#39e54d"] ;
17 -> 18 ;
19 [label="gini = 0.0\nsamples = 5\nvalue = [0, 0, 0, 0, 9, 0, 0]\nclass = 20000", fillcolor="#3956e5"] ;
17 -> 19 ;
20 [label="mean_value <= 218.267\ngini = 0.444\nsamples = 3\nvalue = [0, 0, 0, 4, 2, 0, 0]\nclass = 2000", fillcolor="#9cf2f0"] ;
12 -> 20 ;
21 [label="gini = 0.0\nsamples = 1\nvalue = [0, 0, 0, 0, 2, 0, 0]\nclass = 20000", fillcolor="#3956e5"] ;
20 -> 21 ;
22 [label="gini = 0.0\nsamples = 2\nvalue = [0, 0, 0, 4, 0, 0, 0]\nclass = 2000", fillcolor="#39e5e2"] ;
20 -> 22 ;
23 [label="mean_saturation <= 69.826\ngini = 0.32\nsamples = 9\nvalue = [0, 0, 0, 0, 3, 0, 12]\nclass = 50000", fillcolor="#ec6aa4"] ;
9 -> 23 ;
24 [label="mean_value <= 226.846\ngini = 0.18\nsamples = 6\nvalue = [0, 0, 0, 0, 1, 0, 9]\nclass = 50000", fillcolor="#e84f93"] ;
23 -> 24 ;
25 [label="gini = 0.0\nsamples = 1\nvalue = [0, 0, 0, 0, 1, 0, 0]\nclass = 20000", fillcolor="#3956e5"] ;
24 -> 25 ;
26 [label="gini = 0.0\nsamples = 5\nvalue = [0, 0, 0, 0, 0, 0, 9]\nclass = 50000", fillcolor="#e53986"] ;
24 -> 26 ;
27 [label="mean_saturation <= 90.042\ngini = 0.48\nsamples = 3\nvalue = [0, 0, 0, 0, 2, 0, 3]\nclass = 50000", fillcolor="#f6bdd7"] ;
23 -> 27 ;
28 [label="gini = 0.0\nsamples = 1\nvalue = [0, 0, 0, 0, 2, 0, 0]\nclass = 20000", fillcolor="#3956e5"] ;
27 -> 28 ;
29 [label="gini = 0.0\nsamples = 2\nvalue = [0, 0, 0, 0, 0, 0, 3]\nclass = 50000", fillcolor="#e53986"] ;
27 -> 29 ;
30 [label="mean_saturation <= 25.903\ngini = 0.461\nsamples = 13\nvalue = [0, 16, 9, 0, 0, 0, 0]\nclass = 10000", fillcolor="#e0f4a8"] ;
8 -> 30 ;
31 [label="gini = 0.0\nsamples = 5\nvalue = [0, 0, 9, 0, 0, 0, 0]\nclass = 100000", fillcolor="#39e54d"] ;
30 -> 31 ;
32 [label="gini = 0.0\nsamples = 8\nvalue = [0, 16, 0, 0, 0, 0, 0]\nclass = 10000", fillcolor="#b7e539"] ;
30 -> 32 ;
}