digraph Tree {
node [shape=box, style="filled, rounded", color="black", fontname="helvetica"] ;
edge [fontname="helvetica"] ;
0 [label="mean_hue <= 94.674\ngini = 0.852\nsamples = 47\nvalue = [11, 11, 11, 15, 14, 8, 10]\nclass = 2000", fillcolor="#fcffff"] ;
1 [label="mean_hue <= 81.139\ngini = 0.812\nsamples = 34\nvalue = [11, 0, 4, 15, 14, 8, 10]\nclass = 2000", fillcolor="#fbfefe"] ;
0 -> 1 [labeldistance=2.5, labelangle=45, headlabel="True"] ;
2 [label="mean_value <= 235.817\ngini = 0.759\nsamples = 23\nvalue = [11, 0, 4, 13, 4, 8, 0]\nclass = 2000", fillcolor="#f1fdfd"] ;
1 -> 2 ;
3 [label="mean_saturation <= 29.398\ngini = 0.759\nsamples = 18\nvalue = [11, 0, 4, 5, 4, 5, 0]\nclass = 1000", fillcolor="#f8e0ce"] ;
2 -> 3 ;
4 [label="mean_saturation <= 14.307\ngini = 0.669\nsamples = 14\nvalue = [11, 0, 0, 5, 2, 5, 0]\nclass = 1000", fillcolor="#f6d5bd"] ;
3 -> 4 ;
5 [label="mean_saturation <= 13.624\ngini = 0.397\nsamples = 6\nvalue = [8, 0, 0, 0, 0, 3, 0]\nclass = 1000", fillcolor="#efb083"] ;
4 -> 5 ;
6 [label="mean_saturation <= 12.005\ngini = 0.375\nsamples = 3\nvalue = [1, 0, 0, 0, 0, 3, 0]\nclass = 5000", fillcolor="#cb7bee"] ;
5 -> 6 ;
7 [label="gini = 0.0\nsamples = 1\nvalue = [1, 0, 0, 0, 0, 0, 0]\nclass = 1000", fillcolor="#e58139"] ;
6 -> 7 ;
8 [label="gini = 0.0\nsamples = 2\nvalue = [0, 0, 0, 0, 0, 3, 0]\nclass = 5000", fillcolor="#b139e5"] ;
6 -> 8 ;
9 [label="gini = 0.0\nsamples = 3\nvalue = [7, 0, 0, 0, 0, 0, 0]\nclass = 1000", fillcolor="#e58139"] ;
5 -> 9 ;
10 [label="mean_value <= 220.124\ngini = 0.708\nsamples = 8\nvalue = [3, 0, 0, 5, 2, 2, 0]\nclass = 2000", fillcolor="#d3f9f9"] ;
4 -> 10 ;
11 [label="mean_hue <= 74.851\ngini = 0.278\nsamples = 3\nvalue = [1, 0, 0, 5, 0, 0, 0]\nclass = 2000", fillcolor="#61eae8"] ;
10 -> 11 ;
12 [label="mean_value <= 214.942\ngini = 0.444\nsamples = 2\nvalue = [1, 0, 0, 2, 0, 0, 0]\nclass = 2000", fillcolor="#9cf2f0"] ;
11 -> 12 ;
13 [label="gini = 0.0\nsamples = 1\nvalue = [1, 0, 0, 0, 0, 0, 0]\nclass = 1000", fillcolor="#e58139"] ;
12 -> 13 ;
14 [label="gini = 0.0\nsamples = 1\nvalue = [0, 0, 0, 2, 0, 0, 0]\nclass = 2000", fillcolor="#39e5e2"] ;
12 -> 14 ;
15 [label="gini = 0.0\nsamples = 1\nvalue = [0, 0, 0, 3, 0, 0, 0]\nclass = 2000", fillcolor="#39e5e2"] ;
11 -> 15 ;
16 [label="mean_value <= 227.962\ngini = 0.667\nsamples = 5\nvalue = [2, 0, 0, 0, 2, 2, 0]\nclass = 1000", fillcolor="#ffffff"] ;
10 -> 16 ;
17 [label="gini = 0.0\nsamples = 2\nvalue = [0, 0, 0, 0, 0, 2, 0]\nclass = 5000", fillcolor="#b139e5"] ;
16 -> 17 ;
18 [label="mean_value <= 231.606\ngini = 0.5\nsamples = 3\nvalue = [2, 0, 0, 0, 2, 0, 0]\nclass = 1000", fillcolor="#ffffff"] ;
16 -> 18 ;
19 [label="gini = 0.0\nsamples = 1\nvalue = [0, 0, 0, 0, 1, 0, 0]\nclass = 20000", fillcolor="#3956e5"] ;
18 -> 19 ;
20 [label="mean_hue <= 73.636\ngini = 0.444\nsamples = 2\nvalue = [2, 0, 0, 0, 1, 0, 0]\nclass = 1000", fillcolor="#f2c09c"] ;
18 -> 20 ;
21 [label="gini = 0.0\nsamples = 1\nvalue = [0, 0, 0, 0, 1, 0, 0]\nclass = 20000", fillcolor="#3956e5"] ;
20 -> 21 ;
22 [label="gini = 0.0\nsamples = 1\nvalue = [2, 0, 0, 0, 0, 0, 0]\nclass = 1000", fillcolor="#e58139"] ;
20 -> 22 ;
23 [label="mean_saturation <= 42.593\ngini = 0.444\nsamples = 4\nvalue = [0, 0, 4, 0, 2, 0, 0]\nclass = 100000", fillcolor="#9cf2a6"] ;
3 -> 23 ;
24 [label="gini = 0.0\nsamples = 2\nvalue = [0, 0, 4, 0, 0, 0, 0]\nclass = 100000", fillcolor="#39e54d"] ;
23 -> 24 ;
25 [label="gini = 0.0\nsamples = 2\nvalue = [0, 0, 0, 0, 2, 0, 0]\nclass = 20000", fillcolor="#3956e5"] ;
23 -> 25 ;
26 [label="mean_saturation <= 11.376\ngini = 0.397\nsamples = 5\nvalue = [0, 0, 0, 8, 0, 3, 0]\nclass = 2000", fillcolor="#83efed"] ;
2 -> 26 ;
27 [label="mean_hue <= 38.222\ngini = 0.444\nsamples = 2\nvalue = [0, 0, 0, 1, 0, 2, 0]\nclass = 5000", fillcolor="#d89cf2"] ;
26 -> 27 ;
28 [label="gini = 0.0\nsamples = 1\nvalue = [0, 0, 0, 1, 0, 0, 0]\nclass = 2000", fillcolor="#39e5e2"] ;
27 -> 28 ;
29 [label="gini = 0.0\nsamples = 1\nvalue = [0, 0, 0, 0, 0, 2, 0]\nclass = 5000", fillcolor="#b139e5"] ;
27 -> 29 ;
30 [label="mean_saturation <= 12.637\ngini = 0.219\nsamples = 3\nvalue = [0, 0, 0, 7, 0, 1, 0]\nclass = 2000", fillcolor="#55e9e6"] ;
26 -> 30 ;
31 [label="gini = 0.0\nsamples = 2\nvalue = [0, 0, 0, 7, 0, 0, 0]\nclass = 2000", fillcolor="#39e5e2"] ;
30 -> 31 ;
32 [label="gini = 0.0\nsamples = 1\nvalue = [0, 0, 0, 0, 0, 1, 0]\nclass = 5000", fillcolor="#b139e5"] ;
30 -> 32 ;
33 [label="mean_hue <= 83.713\ngini = 0.579\nsamples = 11\nvalue = [0, 0, 0, 2, 10, 0, 10]\nclass = 20000", fillcolor="#ffffff"] ;
1 -> 33 ;
34 [label="gini = 0.0\nsamples = 2\nvalue = [0, 0, 0, 0, 5, 0, 0]\nclass = 20000", fillcolor="#3956e5"] ;
33 -> 34 ;
35 [label="mean_hue <= 87.343\ngini = 0.554\nsamples = 9\nvalue = [0, 0, 0, 2, 5, 0, 10]\nclass = 50000", fillcolor="#f4accd"] ;
33 -> 35 ;
36 [label="mean_value <= 230.596\ngini = 0.219\nsamples = 4\nvalue = [0, 0, 0, 1, 0, 0, 7]\nclass = 50000", fillcolor="#e95597"] ;
35 -> 36 ;
37 [label="gini = 0.0\nsamples = 1\nvalue = [0, 0, 0, 1, 0, 0, 0]\nclass = 2000", fillcolor="#39e5e2"] ;
36 -> 37 ;
38 [label="gini = 0.0\nsamples = 3\nvalue = [0, 0, 0, 0, 0, 0, 7]\nclass = 50000", fillcolor="#e53986"] ;
36 -> 38 ;
39 [label="mean_value <= 237.406\ngini = 0.568\nsamples = 5\nvalue = [0, 0, 0, 1, 5, 0, 3]\nclass = 20000", fillcolor="#bdc7f6"] ;
35 -> 39 ;
40 [label="mean_value <= 228.119\ngini = 0.278\nsamples = 3\nvalue = [0, 0, 0, 1, 5, 0, 0]\nclass = 20000", fillcolor="#6178ea"] ;
39 -> 40 ;
41 [label="gini = 0.0\nsamples = 1\nvalue = [0, 0, 0, 1, 0, 0, 0]\nclass = 2000", fillcolor="#39e5e2"] ;
40 -> 41 ;
42 [label="gini = 0.0\nsamples = 2\nvalue = [0, 0, 0, 0, 5, 0, 0]\nclass = 20000", fillcolor="#3956e5"] ;
40 -> 42 ;
43 [label="gini = 0.0\nsamples = 2\nvalue = [0, 0, 0, 0, 0, 0, 3]\nclass = 50000", fillcolor="#e53986"] ;
39 -> 43 ;
44 [label="mean_hue <= 106.952\ngini = 0.475\nsamples = 13\nvalue = [0, 11, 7, 0, 0, 0, 0]\nclass = 10000", fillcolor="#e5f6b7"] ;
0 -> 44 [labeldistance=2.5, labelangle=-45, headlabel="False"] ;
45 [label="mean_saturation <= 31.988\ngini = 0.153\nsamples = 9\nvalue = [0, 11, 1, 0, 0, 0, 0]\nclass = 10000", fillcolor="#bee74b"] ;
44 -> 45 ;
46 [label="mean_hue <= 96.532\ngini = 0.444\nsamples = 3\nvalue = [0, 2, 1, 0, 0, 0, 0]\nclass = 10000", fillcolor="#dbf29c"] ;
45 -> 46 ;
47 [label="gini = 0.0\nsamples = 1\nvalue = [0, 1, 0, 0, 0, 0, 0]\nclass = 10000", fillcolor="#b7e539"] ;
46 -> 47 ;
48 [label="mean_saturation <= 26.157\ngini = 0.5\nsamples = 2\nvalue = [0, 1, 1, 0, 0, 0, 0]\nclass = 10000", fillcolor="#ffffff"] ;
46 -> 48 ;
49 [label="gini = 0.0\nsamples = 1\nvalue = [0, 1, 0, 0, 0, 0, 0]\nclass = 10000", fillcolor="#b7e539"] ;
48 -> 49 ;
50 [label="gini = 0.0\nsamples = 1\nvalue = [0, 0, 1, 0, 0, 0, 0]\nclass = 100000", fillcolor="#39e54d"] ;
48 -> 50 ;
51 [label="gini = 0.0\nsamples = 6\nvalue = [0, 9, 0, 0, 0, 0, 0]\nclass = 10000", fillcolor="#b7e539"] ;
45 -> 51 ;
52 [label="gini = 0.0\nsamples = 4\nvalue = [0, 0, 6, 0, 0, 0, 0]\nclass = 100000", fillcolor="#39e54d"] ;
44 -> 52 ;
}