digraph Tree {
node [shape=box, style="filled, rounded", color="black", fontname="helvetica"] ;
edge [fontname="helvetica"] ;
0 [label="mean_hue <= 95.032\ngini = 0.847\nsamples = 53\nvalue = [11, 7, 13, 13, 17, 10, 9]\nclass = 20000", fillcolor="#f3f5fd"] ;
1 [label="mean_hue <= 57.574\ngini = 0.811\nsamples = 39\nvalue = [11, 0, 4, 13, 17, 10, 9]\nclass = 20000", fillcolor="#eff2fd"] ;
0 -> 1 [labeldistance=2.5, labelangle=45, headlabel="True"] ;
2 [label="mean_saturation <= 11.036\ngini = 0.567\nsamples = 12\nvalue = [0, 0, 3, 4, 0, 10, 0]\nclass = 5000", fillcolor="#dba4f3"] ;
1 -> 2 ;
3 [label="gini = 0.0\nsamples = 2\nvalue = [0, 0, 0, 4, 0, 0, 0]\nclass = 2000", fillcolor="#39e5e2"] ;
2 -> 3 ;
4 [label="mean_hue <= 20.435\ngini = 0.355\nsamples = 10\nvalue = [0, 0, 3, 0, 0, 10, 0]\nclass = 5000", fillcolor="#c874ed"] ;
2 -> 4 ;
5 [label="gini = 0.0\nsamples = 2\nvalue = [0, 0, 3, 0, 0, 0, 0]\nclass = 100000", fillcolor="#39e54d"] ;
4 -> 5 ;
6 [label="gini = 0.0\nsamples = 8\nvalue = [0, 0, 0, 0, 0, 10, 0]\nclass = 5000", fillcolor="#b139e5"] ;
4 -> 6 ;
7 [label="mean_hue <= 86.877\ngini = 0.741\nsamples = 27\nvalue = [11, 0, 1, 9, 17, 0, 9]\nclass = 20000", fillcolor="#dee3fb"] ;
1 -> 7 ;
8 [label="mean_saturation <= 48.56\ngini = 0.681\nsamples = 20\nvalue = [11, 0, 1, 9, 16, 0, 1]\nclass = 20000", fillcolor="#dae0fa"] ;
7 -> 8 ;
9 [label="mean_saturation <= 30.068\ngini = 0.679\nsamples = 15\nvalue = [11, 0, 1, 9, 7, 0, 0]\nclass = 1000", fillcolor="#fcf2ea"] ;
8 -> 9 ;
10 [label="mean_hue <= 75.251\ngini = 0.565\nsamples = 11\nvalue = [11, 0, 0, 2, 7, 0, 0]\nclass = 1000", fillcolor="#f7d8c2"] ;
9 -> 10 ;
11 [label="mean_value <= 234.051\ngini = 0.375\nsamples = 7\nvalue = [9, 0, 0, 0, 3, 0, 0]\nclass = 1000", fillcolor="#eeab7b"] ;
10 -> 11 ;
12 [label="gini = 0.0\nsamples = 5\nvalue = [9, 0, 0, 0, 0, 0, 0]\nclass = 1000", fillcolor="#e58139"] ;
11 -> 12 ;
13 [label="gini = 0.0\nsamples = 2\nvalue = [0, 0, 0, 0, 3, 0, 0]\nclass = 20000", fillcolor="#3956e5"] ;
11 -> 13 ;
14 [label="mean_saturation <= 15.96\ngini = 0.625\nsamples = 4\nvalue = [2, 0, 0, 2, 4, 0, 0]\nclass = 20000", fillcolor="#bdc7f6"] ;
10 -> 14 ;
15 [label="mean_saturation <= 13.017\ngini = 0.5\nsamples = 2\nvalue = [2, 0, 0, 2, 0, 0, 0]\nclass = 1000", fillcolor="#ffffff"] ;
14 -> 15 ;
16 [label="gini = 0.0\nsamples = 1\nvalue = [0, 0, 0, 2, 0, 0, 0]\nclass = 2000", fillcolor="#39e5e2"] ;
15 -> 16 ;
17 [label="gini = 0.0\nsamples = 1\nvalue = [2, 0, 0, 0, 0, 0, 0]\nclass = 1000", fillcolor="#e58139"] ;
15 -> 17 ;
18 [label="gini = 0.0\nsamples = 2\nvalue = [0, 0, 0, 0, 4, 0, 0]\nclass = 20000", fillcolor="#3956e5"] ;
14 -> 18 ;
19 [label="mean_saturation <= 37.192\ngini = 0.219\nsamples = 4\nvalue = [0, 0, 1, 7, 0, 0, 0]\nclass = 2000", fillcolor="#55e9e6"] ;
9 -> 19 ;
20 [label="mean_saturation <= 30.359\ngini = 0.375\nsamples = 2\nvalue = [0, 0, 1, 3, 0, 0, 0]\nclass = 2000", fillcolor="#7beeec"] ;
19 -> 20 ;
21 [label="gini = 0.0\nsamples = 1\nvalue = [0, 0, 0, 3, 0, 0, 0]\nclass = 2000", fillcolor="#39e5e2"] ;
20 -> 21 ;
22 [label="gini = 0.0\nsamples = 1\nvalue = [0, 0, 1, 0, 0, 0, 0]\nclass = 100000", fillcolor="#39e54d"] ;
20 -> 22 ;
23 [label="gini = 0.0\nsamples = 2\nvalue = [0, 0, 0, 4, 0, 0, 0]\nclass = 2000", fillcolor="#39e5e2"] ;
19 -> 23 ;
24 [label="mean_saturation <= 55.07\ngini = 0.18\nsamples = 5\nvalue = [0, 0, 0, 0, 9, 0, 1]\nclass = 20000", fillcolor="#4f69e8"] ;
8 -> 24 ;
25 [label="gini = 0.0\nsamples = 2\nvalue = [0, 0, 0, 0, 5, 0, 0]\nclass = 20000", fillcolor="#3956e5"] ;
24 -> 25 ;
26 [label="mean_value <= 229.362\ngini = 0.32\nsamples = 3\nvalue = [0, 0, 0, 0, 4, 0, 1]\nclass = 20000", fillcolor="#6a80ec"] ;
24 -> 26 ;
27 [label="gini = 0.0\nsamples = 2\nvalue = [0, 0, 0, 0, 4, 0, 0]\nclass = 20000", fillcolor="#3956e5"] ;
26 -> 27 ;
28 [label="gini = 0.0\nsamples = 1\nvalue = [0, 0, 0, 0, 0, 0, 1]\nclass = 50000", fillcolor="#e53986"] ;
26 -> 28 ;
29 [label="mean_hue <= 90.852\ngini = 0.198\nsamples = 7\nvalue = [0, 0, 0, 0, 1, 0, 8]\nclass = 50000", fillcolor="#e85295"] ;
7 -> 29 ;
30 [label="mean_value <= 239.703\ngini = 0.444\nsamples = 3\nvalue = [0, 0, 0, 0, 1, 0, 2]\nclass = 50000", fillcolor="#f29cc2"] ;
29 -> 30 ;
31 [label="gini = 0.0\nsamples = 1\nvalue = [0, 0, 0, 0, 1, 0, 0]\nclass = 20000", fillcolor="#3956e5"] ;
30 -> 31 ;
32 [label="gini = 0.0\nsamples = 2\nvalue = [0, 0, 0, 0, 0, 0, 2]\nclass = 50000", fillcolor="#e53986"] ;
30 -> 32 ;
33 [label="gini = 0.0\nsamples = 4\nvalue = [0, 0, 0, 0, 0, 0, 6]\nclass = 50000", fillcolor="#e53986"] ;
29 -> 33 ;
34 [label="mean_hue <= 107.435\ngini = 0.492\nsamples = 14\nvalue = [0, 7, 9, 0, 0, 0, 0]\nclass = 100000", fillcolor="#d3f9d7"] ;
0 -> 34 [labeldistance=2.5, labelangle=-45, headlabel="False"] ;
35 [label="mean_saturation <= 33.111\ngini = 0.346\nsamples = 8\nvalue = [0, 7, 2, 0, 0, 0, 0]\nclass = 10000", fillcolor="#ccec72"] ;
34 -> 35 ;
36 [label="mean_value <= 229.029\ngini = 0.5\nsamples = 3\nvalue = [0, 2, 2, 0, 0, 0, 0]\nclass = 10000", fillcolor="#ffffff"] ;
35 -> 36 ;
37 [label="gini = 0.0\nsamples = 2\nvalue = [0, 2, 0, 0, 0, 0, 0]\nclass = 10000", fillcolor="#b7e539"] ;
36 -> 37 ;
38 [label="gini = 0.0\nsamples = 1\nvalue = [0, 0, 2, 0, 0, 0, 0]\nclass = 100000", fillcolor="#39e54d"] ;
36 -> 38 ;
39 [label="gini = 0.0\nsamples = 5\nvalue = [0, 5, 0, 0, 0, 0, 0]\nclass = 10000", fillcolor="#b7e539"] ;
35 -> 39 ;
40 [label="gini = 0.0\nsamples = 6\nvalue = [0, 0, 7, 0, 0, 0, 0]\nclass = 100000", fillcolor="#39e54d"] ;
34 -> 40 ;
}