digraph Tree {
node [shape=box, style="filled, rounded", color="black", fontname="helvetica"] ;
edge [fontname="helvetica"] ;
0 [label="mean_value <= 221.17\ngini = 0.849\nsamples = 53\nvalue = [12, 11, 13, 17, 9, 10, 8]\nclass = 2000", fillcolor="#f3fdfd"] ;
1 [label="mean_saturation <= 50.005\ngini = 0.586\nsamples = 11\nvalue = [4, 0, 0, 9, 3, 0, 0]\nclass = 2000", fillcolor="#acf4f3"] ;
0 -> 1 [labeldistance=2.5, labelangle=45, headlabel="True"] ;
2 [label="mean_value <= 214.942\ngini = 0.426\nsamples = 8\nvalue = [4, 0, 0, 9, 0, 0, 0]\nclass = 2000", fillcolor="#91f1ef"] ;
1 -> 2 ;
3 [label="gini = 0.0\nsamples = 4\nvalue = [4, 0, 0, 0, 0, 0, 0]\nclass = 1000", fillcolor="#e58139"] ;
2 -> 3 ;
4 [label="gini = 0.0\nsamples = 4\nvalue = [0, 0, 0, 9, 0, 0, 0]\nclass = 2000", fillcolor="#39e5e2"] ;
2 -> 4 ;
5 [label="gini = 0.0\nsamples = 3\nvalue = [0, 0, 0, 0, 3, 0, 0]\nclass = 20000", fillcolor="#3956e5"] ;
1 -> 5 ;
6 [label="mean_hue <= 94.425\ngini = 0.849\nsamples = 42\nvalue = [8, 11, 13, 8, 6, 10, 8]\nclass = 100000", fillcolor="#f8fef8"] ;
0 -> 6 [labeldistance=2.5, labelangle=-45, headlabel="False"] ;
7 [label="mean_value <= 226.375\ngini = 0.828\nsamples = 29\nvalue = [8, 0, 6, 8, 6, 10, 8]\nclass = 5000", fillcolor="#fbf5fe"] ;
6 -> 7 ;
8 [label="gini = 0.0\nsamples = 3\nvalue = [0, 0, 0, 0, 0, 7, 0]\nclass = 5000", fillcolor="#b139e5"] ;
7 -> 8 ;
9 [label="mean_value <= 235.423\ngini = 0.821\nsamples = 26\nvalue = [8, 0, 6, 8, 6, 3, 8]\nclass = 1000", fillcolor="#ffffff"] ;
7 -> 9 ;
10 [label="mean_value <= 229.071\ngini = 0.673\nsamples = 12\nvalue = [8, 0, 4, 0, 5, 0, 1]\nclass = 1000", fillcolor="#f9e2d1"] ;
9 -> 10 ;
11 [label="gini = 0.0\nsamples = 2\nvalue = [0, 0, 2, 0, 0, 0, 0]\nclass = 100000", fillcolor="#39e54d"] ;
10 -> 11 ;
12 [label="mean_hue <= 39.906\ngini = 0.633\nsamples = 10\nvalue = [8, 0, 2, 0, 5, 0, 1]\nclass = 1000", fillcolor="#f8ddc9"] ;
10 -> 12 ;
13 [label="gini = 0.0\nsamples = 1\nvalue = [0, 0, 2, 0, 0, 0, 0]\nclass = 100000", fillcolor="#39e54d"] ;
12 -> 13 ;
14 [label="mean_value <= 231.242\ngini = 0.541\nsamples = 9\nvalue = [8, 0, 0, 0, 5, 0, 1]\nclass = 1000", fillcolor="#f6d5bd"] ;
12 -> 14 ;
15 [label="mean_saturation <= 14.423\ngini = 0.571\nsamples = 4\nvalue = [2, 0, 0, 0, 4, 0, 1]\nclass = 20000", fillcolor="#b0bbf5"] ;
14 -> 15 ;
16 [label="gini = 0.0\nsamples = 1\nvalue = [2, 0, 0, 0, 0, 0, 0]\nclass = 1000", fillcolor="#e58139"] ;
15 -> 16 ;
17 [label="mean_hue <= 86.719\ngini = 0.32\nsamples = 3\nvalue = [0, 0, 0, 0, 4, 0, 1]\nclass = 20000", fillcolor="#6a80ec"] ;
15 -> 17 ;
18 [label="gini = 0.0\nsamples = 2\nvalue = [0, 0, 0, 0, 4, 0, 0]\nclass = 20000", fillcolor="#3956e5"] ;
17 -> 18 ;
19 [label="gini = 0.0\nsamples = 1\nvalue = [0, 0, 0, 0, 0, 0, 1]\nclass = 50000", fillcolor="#e53986"] ;
17 -> 19 ;
20 [label="mean_saturation <= 16.958\ngini = 0.245\nsamples = 5\nvalue = [6, 0, 0, 0, 1, 0, 0]\nclass = 1000", fillcolor="#e9965a"] ;
14 -> 20 ;
21 [label="gini = 0.0\nsamples = 4\nvalue = [6, 0, 0, 0, 0, 0, 0]\nclass = 1000", fillcolor="#e58139"] ;
20 -> 21 ;
22 [label="gini = 0.0\nsamples = 1\nvalue = [0, 0, 0, 0, 1, 0, 0]\nclass = 20000", fillcolor="#3956e5"] ;
20 -> 22 ;
23 [label="mean_saturation <= 49.979\ngini = 0.712\nsamples = 14\nvalue = [0, 0, 2, 8, 1, 3, 7]\nclass = 2000", fillcolor="#f1fdfd"] ;
9 -> 23 ;
24 [label="mean_saturation <= 17.537\ngini = 0.602\nsamples = 9\nvalue = [0, 0, 2, 8, 1, 3, 0]\nclass = 2000", fillcolor="#a5f3f2"] ;
23 -> 24 ;
25 [label="mean_value <= 244.243\ngini = 0.397\nsamples = 7\nvalue = [0, 0, 0, 8, 0, 3, 0]\nclass = 2000", fillcolor="#83efed"] ;
24 -> 25 ;
26 [label="gini = 0.0\nsamples = 4\nvalue = [0, 0, 0, 8, 0, 0, 0]\nclass = 2000", fillcolor="#39e5e2"] ;
25 -> 26 ;
27 [label="gini = 0.0\nsamples = 3\nvalue = [0, 0, 0, 0, 0, 3, 0]\nclass = 5000", fillcolor="#b139e5"] ;
25 -> 27 ;
28 [label="mean_saturation <= 32.06\ngini = 0.444\nsamples = 2\nvalue = [0, 0, 2, 0, 1, 0, 0]\nclass = 100000", fillcolor="#9cf2a6"] ;
24 -> 28 ;
29 [label="gini = 0.0\nsamples = 1\nvalue = [0, 0, 2, 0, 0, 0, 0]\nclass = 100000", fillcolor="#39e54d"] ;
28 -> 29 ;
30 [label="gini = 0.0\nsamples = 1\nvalue = [0, 0, 0, 0, 1, 0, 0]\nclass = 20000", fillcolor="#3956e5"] ;
28 -> 30 ;
31 [label="gini = 0.0\nsamples = 5\nvalue = [0, 0, 0, 0, 0, 0, 7]\nclass = 50000", fillcolor="#e53986"] ;
23 -> 31 ;
32 [label="mean_value <= 239.356\ngini = 0.475\nsamples = 13\nvalue = [0, 11, 7, 0, 0, 0, 0]\nclass = 10000", fillcolor="#e5f6b7"] ;
6 -> 32 ;
33 [label="mean_saturation <= 31.988\ngini = 0.153\nsamples = 8\nvalue = [0, 11, 1, 0, 0, 0, 0]\nclass = 10000", fillcolor="#bee74b"] ;
32 -> 33 ;
34 [label="mean_hue <= 96.532\ngini = 0.5\nsamples = 2\nvalue = [0, 1, 1, 0, 0, 0, 0]\nclass = 10000", fillcolor="#ffffff"] ;
33 -> 34 ;
35 [label="gini = 0.0\nsamples = 1\nvalue = [0, 1, 0, 0, 0, 0, 0]\nclass = 10000", fillcolor="#b7e539"] ;
34 -> 35 ;
36 [label="gini = 0.0\nsamples = 1\nvalue = [0, 0, 1, 0, 0, 0, 0]\nclass = 100000", fillcolor="#39e54d"] ;
34 -> 36 ;
37 [label="gini = 0.0\nsamples = 6\nvalue = [0, 10, 0, 0, 0, 0, 0]\nclass = 10000", fillcolor="#b7e539"] ;
33 -> 37 ;
38 [label="gini = 0.0\nsamples = 5\nvalue = [0, 0, 6, 0, 0, 0, 0]\nclass = 100000", fillcolor="#39e54d"] ;
32 -> 38 ;
}