digraph Tree {
node [shape=box, style="filled, rounded", color="black", fontname="helvetica"] ;
edge [fontname="helvetica"] ;
0 [label="mean_value <= 239.475\ngini = 0.853\nsamples = 49\nvalue = [11, 9, 10, 14, 10, 12, 14]\nclass = 2000", fillcolor="#ffffff"] ;
1 [label="mean_hue <= 94.425\ngini = 0.821\nsamples = 33\nvalue = [11, 9, 3, 12, 10, 5, 2]\nclass = 2000", fillcolor="#fafefe"] ;
0 -> 1 [labeldistance=2.5, labelangle=45, headlabel="True"] ;
2 [label="mean_value <= 212.605\ngini = 0.782\nsamples = 26\nvalue = [11, 0, 3, 12, 10, 5, 2]\nclass = 2000", fillcolor="#f9fefe"] ;
1 -> 2 ;
3 [label="gini = 0.0\nsamples = 3\nvalue = [6, 0, 0, 0, 0, 0, 0]\nclass = 1000", fillcolor="#e58139"] ;
2 -> 3 ;
4 [label="mean_hue <= 25.726\ngini = 0.776\nsamples = 23\nvalue = [5, 0, 3, 12, 10, 5, 2]\nclass = 2000", fillcolor="#f0fdfd"] ;
2 -> 4 ;
5 [label="mean_value <= 230.138\ngini = 0.408\nsamples = 3\nvalue = [0, 0, 2, 0, 0, 5, 0]\nclass = 5000", fillcolor="#d088ef"] ;
4 -> 5 ;
6 [label="gini = 0.0\nsamples = 2\nvalue = [0, 0, 0, 0, 0, 5, 0]\nclass = 5000", fillcolor="#b139e5"] ;
5 -> 6 ;
7 [label="gini = 0.0\nsamples = 1\nvalue = [0, 0, 2, 0, 0, 0, 0]\nclass = 100000", fillcolor="#39e54d"] ;
5 -> 7 ;
8 [label="mean_value <= 234.086\ngini = 0.696\nsamples = 20\nvalue = [5, 0, 1, 12, 10, 0, 2]\nclass = 2000", fillcolor="#ebfcfc"] ;
4 -> 8 ;
9 [label="mean_value <= 231.242\ngini = 0.685\nsamples = 12\nvalue = [5, 0, 1, 4, 7, 0, 0]\nclass = 20000", fillcolor="#dee3fb"] ;
8 -> 9 ;
10 [label="mean_saturation <= 48.56\ngini = 0.643\nsamples = 9\nvalue = [2, 0, 1, 4, 7, 0, 0]\nclass = 20000", fillcolor="#c4ccf7"] ;
9 -> 10 ;
11 [label="mean_saturation <= 24.562\ngini = 0.7\nsamples = 7\nvalue = [2, 0, 1, 4, 3, 0, 0]\nclass = 2000", fillcolor="#e3fbfb"] ;
10 -> 11 ;
12 [label="mean_hue <= 68.898\ngini = 0.48\nsamples = 3\nvalue = [2, 0, 0, 0, 3, 0, 0]\nclass = 20000", fillcolor="#bdc7f6"] ;
11 -> 12 ;
13 [label="gini = 0.0\nsamples = 1\nvalue = [2, 0, 0, 0, 0, 0, 0]\nclass = 1000", fillcolor="#e58139"] ;
12 -> 13 ;
14 [label="gini = 0.0\nsamples = 2\nvalue = [0, 0, 0, 0, 3, 0, 0]\nclass = 20000", fillcolor="#3956e5"] ;
12 -> 14 ;
15 [label="mean_saturation <= 27.616\ngini = 0.32\nsamples = 4\nvalue = [0, 0, 1, 4, 0, 0, 0]\nclass = 2000", fillcolor="#6aece9"] ;
11 -> 15 ;
16 [label="gini = 0.0\nsamples = 1\nvalue = [0, 0, 0, 2, 0, 0, 0]\nclass = 2000", fillcolor="#39e5e2"] ;
15 -> 16 ;
17 [label="mean_saturation <= 30.15\ngini = 0.444\nsamples = 3\nvalue = [0, 0, 1, 2, 0, 0, 0]\nclass = 2000", fillcolor="#9cf2f0"] ;
15 -> 17 ;
18 [label="gini = 0.0\nsamples = 1\nvalue = [0, 0, 1, 0, 0, 0, 0]\nclass = 100000", fillcolor="#39e54d"] ;
17 -> 18 ;
19 [label="gini = 0.0\nsamples = 2\nvalue = [0, 0, 0, 2, 0, 0, 0]\nclass = 2000", fillcolor="#39e5e2"] ;
17 -> 19 ;
20 [label="gini = 0.0\nsamples = 2\nvalue = [0, 0, 0, 0, 4, 0, 0]\nclass = 20000", fillcolor="#3956e5"] ;
10 -> 20 ;
21 [label="gini = 0.0\nsamples = 3\nvalue = [3, 0, 0, 0, 0, 0, 0]\nclass = 1000", fillcolor="#e58139"] ;
9 -> 21 ;
22 [label="mean_saturation <= 15.341\ngini = 0.544\nsamples = 8\nvalue = [0, 0, 0, 8, 3, 0, 2]\nclass = 2000", fillcolor="#9cf2f0"] ;
8 -> 22 ;
23 [label="gini = 0.0\nsamples = 4\nvalue = [0, 0, 0, 8, 0, 0, 0]\nclass = 2000", fillcolor="#39e5e2"] ;
22 -> 23 ;
24 [label="mean_hue <= 90.852\ngini = 0.48\nsamples = 4\nvalue = [0, 0, 0, 0, 3, 0, 2]\nclass = 20000", fillcolor="#bdc7f6"] ;
22 -> 24 ;
25 [label="gini = 0.0\nsamples = 2\nvalue = [0, 0, 0, 0, 3, 0, 0]\nclass = 20000", fillcolor="#3956e5"] ;
24 -> 25 ;
26 [label="gini = 0.0\nsamples = 2\nvalue = [0, 0, 0, 0, 0, 0, 2]\nclass = 50000", fillcolor="#e53986"] ;
24 -> 26 ;
27 [label="gini = 0.0\nsamples = 7\nvalue = [0, 9, 0, 0, 0, 0, 0]\nclass = 10000", fillcolor="#b7e539"] ;
1 -> 27 ;
28 [label="mean_value <= 244.324\ngini = 0.686\nsamples = 16\nvalue = [0, 0, 7, 2, 0, 7, 12]\nclass = 50000", fillcolor="#f9d0e2"] ;
0 -> 28 [labeldistance=2.5, labelangle=-45, headlabel="False"] ;
29 [label="mean_value <= 239.852\ngini = 0.604\nsamples = 10\nvalue = [0, 0, 6, 2, 0, 0, 7]\nclass = 50000", fillcolor="#fce9f2"] ;
28 -> 29 ;
30 [label="gini = 0.0\nsamples = 1\nvalue = [0, 0, 0, 0, 0, 0, 3]\nclass = 50000", fillcolor="#e53986"] ;
29 -> 30 ;
31 [label="mean_saturation <= 39.601\ngini = 0.611\nsamples = 9\nvalue = [0, 0, 6, 2, 0, 0, 4]\nclass = 100000", fillcolor="#cef8d2"] ;
29 -> 31 ;
32 [label="mean_hue <= 75.004\ngini = 0.375\nsamples = 6\nvalue = [0, 0, 6, 2, 0, 0, 0]\nclass = 100000", fillcolor="#7bee88"] ;
31 -> 32 ;
33 [label="mean_hue <= 34.499\ngini = 0.5\nsamples = 2\nvalue = [0, 0, 2, 2, 0, 0, 0]\nclass = 100000", fillcolor="#ffffff"] ;
32 -> 33 ;
34 [label="gini = 0.0\nsamples = 1\nvalue = [0, 0, 2, 0, 0, 0, 0]\nclass = 100000", fillcolor="#39e54d"] ;
33 -> 34 ;
35 [label="gini = 0.0\nsamples = 1\nvalue = [0, 0, 0, 2, 0, 0, 0]\nclass = 2000", fillcolor="#39e5e2"] ;
33 -> 35 ;
36 [label="gini = 0.0\nsamples = 4\nvalue = [0, 0, 4, 0, 0, 0, 0]\nclass = 100000", fillcolor="#39e54d"] ;
32 -> 36 ;
37 [label="gini = 0.0\nsamples = 3\nvalue = [0, 0, 0, 0, 0, 0, 4]\nclass = 50000", fillcolor="#e53986"] ;
31 -> 37 ;
38 [label="mean_value <= 247.427\ngini = 0.556\nsamples = 6\nvalue = [0, 0, 1, 0, 0, 7, 5]\nclass = 5000", fillcolor="#eccef8"] ;
28 -> 38 ;
39 [label="mean_hue <= 68.466\ngini = 0.512\nsamples = 5\nvalue = [0, 0, 1, 0, 0, 7, 3]\nclass = 5000", fillcolor="#d89cf2"] ;
38 -> 39 ;
40 [label="gini = 0.0\nsamples = 3\nvalue = [0, 0, 0, 0, 0, 7, 0]\nclass = 5000", fillcolor="#b139e5"] ;
39 -> 40 ;
41 [label="mean_saturation <= 38.697\ngini = 0.375\nsamples = 2\nvalue = [0, 0, 1, 0, 0, 0, 3]\nclass = 50000", fillcolor="#ee7bae"] ;
39 -> 41 ;
42 [label="gini = 0.0\nsamples = 1\nvalue = [0, 0, 1, 0, 0, 0, 0]\nclass = 100000", fillcolor="#39e54d"] ;
41 -> 42 ;
43 [label="gini = 0.0\nsamples = 1\nvalue = [0, 0, 0, 0, 0, 0, 3]\nclass = 50000", fillcolor="#e53986"] ;
41 -> 43 ;
44 [label="gini = 0.0\nsamples = 1\nvalue = [0, 0, 0, 0, 0, 0, 2]\nclass = 50000", fillcolor="#e53986"] ;
38 -> 44 ;
}