digraph Tree {
node [shape=box, style="filled, rounded", color="black", fontname="helvetica"] ;
edge [fontname="helvetica"] ;
0 [label="mean_value <= 237.511\ngini = 0.843\nsamples = 51\nvalue = [13, 7, 18, 12, 7, 13, 10]\nclass = 100000", fillcolor="#f0fdf2"] ;
1 [label="mean_saturation <= 32.444\ngini = 0.821\nsamples = 34\nvalue = [13, 7, 4, 10, 7, 8, 1]\nclass = 1000", fillcolor="#fdf6f0"] ;
0 -> 1 [labeldistance=2.5, labelangle=45, headlabel="True"] ;
2 [label="mean_hue <= 38.953\ngini = 0.742\nsamples = 23\nvalue = [13, 0, 4, 10, 2, 8, 0]\nclass = 1000", fillcolor="#fcf1e9"] ;
1 -> 2 ;
3 [label="gini = 0.0\nsamples = 5\nvalue = [0, 0, 0, 0, 0, 8, 0]\nclass = 5000", fillcolor="#b139e5"] ;
2 -> 3 ;
4 [label="mean_hue <= 61.057\ngini = 0.656\nsamples = 18\nvalue = [13, 0, 4, 10, 2, 0, 0]\nclass = 1000", fillcolor="#fbebe0"] ;
2 -> 4 ;
5 [label="mean_value <= 231.959\ngini = 0.245\nsamples = 4\nvalue = [1, 0, 0, 6, 0, 0, 0]\nclass = 2000", fillcolor="#5ae9e7"] ;
4 -> 5 ;
6 [label="mean_value <= 223.197\ngini = 0.444\nsamples = 2\nvalue = [1, 0, 0, 2, 0, 0, 0]\nclass = 2000", fillcolor="#9cf2f0"] ;
5 -> 6 ;
7 [label="gini = 0.0\nsamples = 1\nvalue = [0, 0, 0, 2, 0, 0, 0]\nclass = 2000", fillcolor="#39e5e2"] ;
6 -> 7 ;
8 [label="gini = 0.0\nsamples = 1\nvalue = [1, 0, 0, 0, 0, 0, 0]\nclass = 1000", fillcolor="#e58139"] ;
6 -> 8 ;
9 [label="gini = 0.0\nsamples = 2\nvalue = [0, 0, 0, 4, 0, 0, 0]\nclass = 2000", fillcolor="#39e5e2"] ;
5 -> 9 ;
10 [label="mean_hue <= 75.242\ngini = 0.628\nsamples = 14\nvalue = [12, 0, 4, 4, 2, 0, 0]\nclass = 1000", fillcolor="#f3c7a7"] ;
4 -> 10 ;
11 [label="mean_value <= 220.1\ngini = 0.165\nsamples = 7\nvalue = [10, 0, 1, 0, 0, 0, 0]\nclass = 1000", fillcolor="#e88e4d"] ;
10 -> 11 ;
12 [label="gini = 0.0\nsamples = 4\nvalue = [7, 0, 0, 0, 0, 0, 0]\nclass = 1000", fillcolor="#e58139"] ;
11 -> 12 ;
13 [label="mean_hue <= 72.841\ngini = 0.375\nsamples = 3\nvalue = [3, 0, 1, 0, 0, 0, 0]\nclass = 1000", fillcolor="#eeab7b"] ;
11 -> 13 ;
14 [label="gini = 0.0\nsamples = 1\nvalue = [0, 0, 1, 0, 0, 0, 0]\nclass = 100000", fillcolor="#39e54d"] ;
13 -> 14 ;
15 [label="gini = 0.0\nsamples = 2\nvalue = [3, 0, 0, 0, 0, 0, 0]\nclass = 1000", fillcolor="#e58139"] ;
13 -> 15 ;
16 [label="mean_value <= 223.832\ngini = 0.727\nsamples = 7\nvalue = [2, 0, 3, 4, 2, 0, 0]\nclass = 2000", fillcolor="#e6fcfb"] ;
10 -> 16 ;
17 [label="gini = 0.0\nsamples = 1\nvalue = [0, 0, 0, 3, 0, 0, 0]\nclass = 2000", fillcolor="#39e5e2"] ;
16 -> 17 ;
18 [label="mean_hue <= 89.632\ngini = 0.719\nsamples = 6\nvalue = [2, 0, 3, 1, 2, 0, 0]\nclass = 100000", fillcolor="#defbe1"] ;
16 -> 18 ;
19 [label="mean_saturation <= 18.526\ngini = 0.722\nsamples = 5\nvalue = [2, 0, 1, 1, 2, 0, 0]\nclass = 1000", fillcolor="#ffffff"] ;
18 -> 19 ;
20 [label="mean_hue <= 76.227\ngini = 0.444\nsamples = 3\nvalue = [2, 0, 0, 1, 0, 0, 0]\nclass = 1000", fillcolor="#f2c09c"] ;
19 -> 20 ;
21 [label="gini = 0.0\nsamples = 1\nvalue = [1, 0, 0, 0, 0, 0, 0]\nclass = 1000", fillcolor="#e58139"] ;
20 -> 21 ;
22 [label="mean_saturation <= 13.017\ngini = 0.5\nsamples = 2\nvalue = [1, 0, 0, 1, 0, 0, 0]\nclass = 1000", fillcolor="#ffffff"] ;
20 -> 22 ;
23 [label="gini = 0.0\nsamples = 1\nvalue = [0, 0, 0, 1, 0, 0, 0]\nclass = 2000", fillcolor="#39e5e2"] ;
22 -> 23 ;
24 [label="gini = 0.0\nsamples = 1\nvalue = [1, 0, 0, 0, 0, 0, 0]\nclass = 1000", fillcolor="#e58139"] ;
22 -> 24 ;
25 [label="mean_value <= 230.023\ngini = 0.444\nsamples = 2\nvalue = [0, 0, 1, 0, 2, 0, 0]\nclass = 20000", fillcolor="#9caaf2"] ;
19 -> 25 ;
26 [label="gini = 0.0\nsamples = 1\nvalue = [0, 0, 1, 0, 0, 0, 0]\nclass = 100000", fillcolor="#39e54d"] ;
25 -> 26 ;
27 [label="gini = 0.0\nsamples = 1\nvalue = [0, 0, 0, 0, 2, 0, 0]\nclass = 20000", fillcolor="#3956e5"] ;
25 -> 27 ;
28 [label="gini = 0.0\nsamples = 1\nvalue = [0, 0, 2, 0, 0, 0, 0]\nclass = 100000", fillcolor="#39e54d"] ;
18 -> 28 ;
29 [label="mean_saturation <= 64.132\ngini = 0.556\nsamples = 11\nvalue = [0, 7, 0, 0, 5, 0, 1]\nclass = 10000", fillcolor="#edf8ce"] ;
1 -> 29 ;
30 [label="mean_saturation <= 43.319\ngini = 0.42\nsamples = 8\nvalue = [0, 7, 0, 0, 3, 0, 0]\nclass = 10000", fillcolor="#d6f08e"] ;
29 -> 30 ;
31 [label="mean_hue <= 92.107\ngini = 0.49\nsamples = 6\nvalue = [0, 4, 0, 0, 3, 0, 0]\nclass = 10000", fillcolor="#edf8ce"] ;
30 -> 31 ;
32 [label="gini = 0.0\nsamples = 2\nvalue = [0, 0, 0, 0, 3, 0, 0]\nclass = 20000", fillcolor="#3956e5"] ;
31 -> 32 ;
33 [label="gini = 0.0\nsamples = 4\nvalue = [0, 4, 0, 0, 0, 0, 0]\nclass = 10000", fillcolor="#b7e539"] ;
31 -> 33 ;
34 [label="gini = 0.0\nsamples = 2\nvalue = [0, 3, 0, 0, 0, 0, 0]\nclass = 10000", fillcolor="#b7e539"] ;
30 -> 34 ;
35 [label="mean_hue <= 87.878\ngini = 0.444\nsamples = 3\nvalue = [0, 0, 0, 0, 2, 0, 1]\nclass = 20000", fillcolor="#9caaf2"] ;
29 -> 35 ;
36 [label="gini = 0.0\nsamples = 2\nvalue = [0, 0, 0, 0, 2, 0, 0]\nclass = 20000", fillcolor="#3956e5"] ;
35 -> 36 ;
37 [label="gini = 0.0\nsamples = 1\nvalue = [0, 0, 0, 0, 0, 0, 1]\nclass = 50000", fillcolor="#e53986"] ;
35 -> 37 ;
38 [label="mean_saturation <= 36.009\ngini = 0.66\nsamples = 17\nvalue = [0, 0, 14, 2, 0, 5, 9]\nclass = 100000", fillcolor="#d0f9d5"] ;
0 -> 38 [labeldistance=2.5, labelangle=-45, headlabel="False"] ;
39 [label="mean_hue <= 93.876\ngini = 0.49\nsamples = 12\nvalue = [0, 0, 14, 2, 0, 5, 0]\nclass = 100000", fillcolor="#90f09b"] ;
38 -> 39 ;
40 [label="mean_saturation <= 17.537\ngini = 0.62\nsamples = 6\nvalue = [0, 0, 3, 2, 0, 5, 0]\nclass = 5000", fillcolor="#e9c6f8"] ;
39 -> 40 ;
41 [label="mean_value <= 244.243\ngini = 0.408\nsamples = 5\nvalue = [0, 0, 0, 2, 0, 5, 0]\nclass = 5000", fillcolor="#d088ef"] ;
40 -> 41 ;
42 [label="gini = 0.0\nsamples = 2\nvalue = [0, 0, 0, 2, 0, 0, 0]\nclass = 2000", fillcolor="#39e5e2"] ;
41 -> 42 ;
43 [label="gini = 0.0\nsamples = 3\nvalue = [0, 0, 0, 0, 0, 5, 0]\nclass = 5000", fillcolor="#b139e5"] ;
41 -> 43 ;
44 [label="gini = 0.0\nsamples = 1\nvalue = [0, 0, 3, 0, 0, 0, 0]\nclass = 100000", fillcolor="#39e54d"] ;
40 -> 44 ;
45 [label="gini = 0.0\nsamples = 6\nvalue = [0, 0, 11, 0, 0, 0, 0]\nclass = 100000", fillcolor="#39e54d"] ;
39 -> 45 ;
46 [label="gini = 0.0\nsamples = 5\nvalue = [0, 0, 0, 0, 0, 0, 9]\nclass = 50000", fillcolor="#e53986"] ;
38 -> 46 ;
}