digraph Tree {
node [shape=box, style="filled, rounded", color="black", fontname="helvetica"] ;
edge [fontname="helvetica"] ;
0 [label="mean_saturation <= 53.726\ngini = 0.839\nsamples = 50\nvalue = [9, 18, 16, 10, 6, 8, 13]\nclass = 10000", fillcolor="#fdfef9"] ;
1 [label="mean_hue <= 107.435\ngini = 0.801\nsamples = 40\nvalue = [9, 18, 16, 10, 4, 8, 0]\nclass = 10000", fillcolor="#fcfef7"] ;
0 -> 1 [labeldistance=2.5, labelangle=45, headlabel="True"] ;
2 [label="mean_saturation <= 31.425\ngini = 0.78\nsamples = 34\nvalue = [9, 18, 3, 10, 4, 8, 0]\nclass = 10000", fillcolor="#f1fad9"] ;
1 -> 2 ;
3 [label="mean_value <= 234.086\ngini = 0.768\nsamples = 24\nvalue = [9, 2, 2, 9, 2, 8, 0]\nclass = 1000", fillcolor="#ffffff"] ;
2 -> 3 ;
4 [label="mean_hue <= 43.359\ngini = 0.753\nsamples = 19\nvalue = [9, 2, 2, 4, 1, 6, 0]\nclass = 1000", fillcolor="#fbeade"] ;
3 -> 4 ;
5 [label="gini = 0.0\nsamples = 5\nvalue = [0, 0, 0, 0, 0, 6, 0]\nclass = 5000", fillcolor="#b139e5"] ;
4 -> 5 ;
6 [label="mean_saturation <= 24.853\ngini = 0.673\nsamples = 14\nvalue = [9, 2, 2, 4, 1, 0, 0]\nclass = 1000", fillcolor="#f6d2b8"] ;
4 -> 6 ;
7 [label="mean_saturation <= 21.846\ngini = 0.541\nsamples = 11\nvalue = [9, 2, 0, 2, 1, 0, 0]\nclass = 1000", fillcolor="#f0b68c"] ;
6 -> 7 ;
8 [label="mean_hue <= 67.364\ngini = 0.66\nsamples = 8\nvalue = [5, 2, 0, 2, 1, 0, 0]\nclass = 1000", fillcolor="#f5d0b5"] ;
7 -> 8 ;
9 [label="gini = 0.0\nsamples = 1\nvalue = [0, 0, 0, 2, 0, 0, 0]\nclass = 2000", fillcolor="#39e5e2"] ;
8 -> 9 ;
10 [label="mean_hue <= 87.462\ngini = 0.531\nsamples = 7\nvalue = [5, 2, 0, 0, 1, 0, 0]\nclass = 1000", fillcolor="#f2c09c"] ;
8 -> 10 ;
11 [label="mean_saturation <= 16.322\ngini = 0.278\nsamples = 5\nvalue = [5, 0, 0, 0, 1, 0, 0]\nclass = 1000", fillcolor="#ea9a61"] ;
10 -> 11 ;
12 [label="gini = 0.0\nsamples = 4\nvalue = [5, 0, 0, 0, 0, 0, 0]\nclass = 1000", fillcolor="#e58139"] ;
11 -> 12 ;
13 [label="gini = 0.0\nsamples = 1\nvalue = [0, 0, 0, 0, 1, 0, 0]\nclass = 20000", fillcolor="#3956e5"] ;
11 -> 13 ;
14 [label="gini = 0.0\nsamples = 2\nvalue = [0, 2, 0, 0, 0, 0, 0]\nclass = 10000", fillcolor="#b7e539"] ;
10 -> 14 ;
15 [label="gini = 0.0\nsamples = 3\nvalue = [4, 0, 0, 0, 0, 0, 0]\nclass = 1000", fillcolor="#e58139"] ;
7 -> 15 ;
16 [label="mean_value <= 220.193\ngini = 0.5\nsamples = 3\nvalue = [0, 0, 2, 2, 0, 0, 0]\nclass = 100000", fillcolor="#ffffff"] ;
6 -> 16 ;
17 [label="gini = 0.0\nsamples = 1\nvalue = [0, 0, 0, 2, 0, 0, 0]\nclass = 2000", fillcolor="#39e5e2"] ;
16 -> 17 ;
18 [label="gini = 0.0\nsamples = 2\nvalue = [0, 0, 2, 0, 0, 0, 0]\nclass = 100000", fillcolor="#39e54d"] ;
16 -> 18 ;
19 [label="mean_saturation <= 17.699\ngini = 0.531\nsamples = 5\nvalue = [0, 0, 0, 5, 1, 2, 0]\nclass = 2000", fillcolor="#9cf2f0"] ;
3 -> 19 ;
20 [label="mean_hue <= 51.198\ngini = 0.408\nsamples = 4\nvalue = [0, 0, 0, 5, 0, 2, 0]\nclass = 2000", fillcolor="#88efee"] ;
19 -> 20 ;
21 [label="mean_value <= 242.365\ngini = 0.444\nsamples = 2\nvalue = [0, 0, 0, 1, 0, 2, 0]\nclass = 5000", fillcolor="#d89cf2"] ;
20 -> 21 ;
22 [label="gini = 0.0\nsamples = 1\nvalue = [0, 0, 0, 1, 0, 0, 0]\nclass = 2000", fillcolor="#39e5e2"] ;
21 -> 22 ;
23 [label="gini = 0.0\nsamples = 1\nvalue = [0, 0, 0, 0, 0, 2, 0]\nclass = 5000", fillcolor="#b139e5"] ;
21 -> 23 ;
24 [label="gini = 0.0\nsamples = 2\nvalue = [0, 0, 0, 4, 0, 0, 0]\nclass = 2000", fillcolor="#39e5e2"] ;
20 -> 24 ;
25 [label="gini = 0.0\nsamples = 1\nvalue = [0, 0, 0, 0, 1, 0, 0]\nclass = 20000", fillcolor="#3956e5"] ;
19 -> 25 ;
26 [label="mean_hue <= 94.522\ngini = 0.345\nsamples = 10\nvalue = [0, 16, 1, 1, 2, 0, 0]\nclass = 10000", fillcolor="#c7eb65"] ;
2 -> 26 ;
27 [label="mean_hue <= 49.283\ngini = 0.625\nsamples = 4\nvalue = [0, 0, 1, 1, 2, 0, 0]\nclass = 20000", fillcolor="#bdc7f6"] ;
26 -> 27 ;
28 [label="gini = 0.0\nsamples = 1\nvalue = [0, 0, 1, 0, 0, 0, 0]\nclass = 100000", fillcolor="#39e54d"] ;
27 -> 28 ;
29 [label="mean_saturation <= 44.871\ngini = 0.444\nsamples = 3\nvalue = [0, 0, 0, 1, 2, 0, 0]\nclass = 20000", fillcolor="#9caaf2"] ;
27 -> 29 ;
30 [label="gini = 0.0\nsamples = 1\nvalue = [0, 0, 0, 0, 1, 0, 0]\nclass = 20000", fillcolor="#3956e5"] ;
29 -> 30 ;
31 [label="mean_hue <= 83.432\ngini = 0.5\nsamples = 2\nvalue = [0, 0, 0, 1, 1, 0, 0]\nclass = 2000", fillcolor="#ffffff"] ;
29 -> 31 ;
32 [label="gini = 0.0\nsamples = 1\nvalue = [0, 0, 0, 0, 1, 0, 0]\nclass = 20000", fillcolor="#3956e5"] ;
31 -> 32 ;
33 [label="gini = 0.0\nsamples = 1\nvalue = [0, 0, 0, 1, 0, 0, 0]\nclass = 2000", fillcolor="#39e5e2"] ;
31 -> 33 ;
34 [label="gini = 0.0\nsamples = 6\nvalue = [0, 16, 0, 0, 0, 0, 0]\nclass = 10000", fillcolor="#b7e539"] ;
26 -> 34 ;
35 [label="gini = 0.0\nsamples = 6\nvalue = [0, 0, 13, 0, 0, 0, 0]\nclass = 100000", fillcolor="#39e54d"] ;
1 -> 35 ;
36 [label="mean_hue <= 83.713\ngini = 0.231\nsamples = 10\nvalue = [0, 0, 0, 0, 2, 0, 13]\nclass = 50000", fillcolor="#e95799"] ;
0 -> 36 [labeldistance=2.5, labelangle=-45, headlabel="False"] ;
37 [label="gini = 0.0\nsamples = 2\nvalue = [0, 0, 0, 0, 2, 0, 0]\nclass = 20000", fillcolor="#3956e5"] ;
36 -> 37 ;
38 [label="gini = 0.0\nsamples = 8\nvalue = [0, 0, 0, 0, 0, 0, 13]\nclass = 50000", fillcolor="#e53986"] ;
36 -> 38 ;
}