digraph Tree {
node [shape=box, style="filled, rounded", color="black", fontname="helvetica"] ;
edge [fontname="helvetica"] ;
0 [label="mean_hue <= 94.783\ngini = 0.85\nsamples = 48\nvalue = [16, 14, 9, 12, 9, 10, 10]\nclass = 1000", fillcolor="#fefbf9"] ;
1 [label="mean_hue <= 89.578\ngini = 0.813\nsamples = 36\nvalue = [16, 0, 4, 12, 9, 10, 10]\nclass = 1000", fillcolor="#fdf5ef"] ;
0 -> 1 [labeldistance=2.5, labelangle=45, headlabel="True"] ;
2 [label="mean_saturation <= 30.068\ngini = 0.779\nsamples = 32\nvalue = [16, 0, 4, 12, 9, 10, 1]\nclass = 1000", fillcolor="#fcf2eb"] ;
1 -> 2 ;
3 [label="mean_saturation <= 22.79\ngini = 0.708\nsamples = 23\nvalue = [16, 0, 1, 7, 4, 10, 0]\nclass = 1000", fillcolor="#f9e4d5"] ;
2 -> 3 ;
4 [label="mean_saturation <= 18.156\ngini = 0.742\nsamples = 18\nvalue = [6, 0, 1, 7, 4, 10, 0]\nclass = 5000", fillcolor="#f4e3fb"] ;
3 -> 4 ;
5 [label="mean_value <= 233.999\ngini = 0.657\nsamples = 13\nvalue = [6, 0, 0, 7, 0, 9, 0]\nclass = 5000", fillcolor="#f5e5fc"] ;
4 -> 5 ;
6 [label="mean_value <= 227.431\ngini = 0.496\nsamples = 7\nvalue = [6, 0, 0, 0, 0, 5, 0]\nclass = 1000", fillcolor="#fbeade"] ;
5 -> 6 ;
7 [label="gini = 0.0\nsamples = 3\nvalue = [0, 0, 0, 0, 0, 5, 0]\nclass = 5000", fillcolor="#b139e5"] ;
6 -> 7 ;
8 [label="gini = 0.0\nsamples = 4\nvalue = [6, 0, 0, 0, 0, 0, 0]\nclass = 1000", fillcolor="#e58139"] ;
6 -> 8 ;
9 [label="mean_saturation <= 13.307\ngini = 0.463\nsamples = 6\nvalue = [0, 0, 0, 7, 0, 4, 0]\nclass = 2000", fillcolor="#aaf4f3"] ;
5 -> 9 ;
10 [label="mean_value <= 244.243\ngini = 0.346\nsamples = 5\nvalue = [0, 0, 0, 7, 0, 2, 0]\nclass = 2000", fillcolor="#72ecea"] ;
9 -> 10 ;
11 [label="gini = 0.0\nsamples = 4\nvalue = [0, 0, 0, 7, 0, 0, 0]\nclass = 2000", fillcolor="#39e5e2"] ;
10 -> 11 ;
12 [label="gini = 0.0\nsamples = 1\nvalue = [0, 0, 0, 0, 0, 2, 0]\nclass = 5000", fillcolor="#b139e5"] ;
10 -> 12 ;
13 [label="gini = 0.0\nsamples = 1\nvalue = [0, 0, 0, 0, 0, 2, 0]\nclass = 5000", fillcolor="#b139e5"] ;
9 -> 13 ;
14 [label="mean_hue <= 50.661\ngini = 0.5\nsamples = 5\nvalue = [0, 0, 1, 0, 4, 1, 0]\nclass = 20000", fillcolor="#889aef"] ;
4 -> 14 ;
15 [label="mean_value <= 234.519\ngini = 0.5\nsamples = 2\nvalue = [0, 0, 1, 0, 0, 1, 0]\nclass = 100000", fillcolor="#ffffff"] ;
14 -> 15 ;
16 [label="gini = 0.0\nsamples = 1\nvalue = [0, 0, 0, 0, 0, 1, 0]\nclass = 5000", fillcolor="#b139e5"] ;
15 -> 16 ;
17 [label="gini = 0.0\nsamples = 1\nvalue = [0, 0, 1, 0, 0, 0, 0]\nclass = 100000", fillcolor="#39e54d"] ;
15 -> 17 ;
18 [label="gini = 0.0\nsamples = 3\nvalue = [0, 0, 0, 0, 4, 0, 0]\nclass = 20000", fillcolor="#3956e5"] ;
14 -> 18 ;
19 [label="gini = 0.0\nsamples = 5\nvalue = [10, 0, 0, 0, 0, 0, 0]\nclass = 1000", fillcolor="#e58139"] ;
3 -> 19 ;
20 [label="mean_hue <= 77.961\ngini = 0.694\nsamples = 9\nvalue = [0, 0, 3, 5, 5, 0, 1]\nclass = 2000", fillcolor="#ffffff"] ;
2 -> 20 ;
21 [label="mean_value <= 223.832\ngini = 0.48\nsamples = 3\nvalue = [0, 0, 3, 2, 0, 0, 0]\nclass = 100000", fillcolor="#bdf6c4"] ;
20 -> 21 ;
22 [label="gini = 0.0\nsamples = 1\nvalue = [0, 0, 0, 2, 0, 0, 0]\nclass = 2000", fillcolor="#39e5e2"] ;
21 -> 22 ;
23 [label="gini = 0.0\nsamples = 2\nvalue = [0, 0, 3, 0, 0, 0, 0]\nclass = 100000", fillcolor="#39e54d"] ;
21 -> 23 ;
24 [label="mean_value <= 218.788\ngini = 0.568\nsamples = 6\nvalue = [0, 0, 0, 3, 5, 0, 1]\nclass = 20000", fillcolor="#bdc7f6"] ;
20 -> 24 ;
25 [label="gini = 0.0\nsamples = 2\nvalue = [0, 0, 0, 0, 3, 0, 0]\nclass = 20000", fillcolor="#3956e5"] ;
24 -> 25 ;
26 [label="mean_value <= 229.326\ngini = 0.611\nsamples = 4\nvalue = [0, 0, 0, 3, 2, 0, 1]\nclass = 2000", fillcolor="#cef8f8"] ;
24 -> 26 ;
27 [label="gini = 0.0\nsamples = 2\nvalue = [0, 0, 0, 3, 0, 0, 0]\nclass = 2000", fillcolor="#39e5e2"] ;
26 -> 27 ;
28 [label="mean_saturation <= 46.386\ngini = 0.444\nsamples = 2\nvalue = [0, 0, 0, 0, 2, 0, 1]\nclass = 20000", fillcolor="#9caaf2"] ;
26 -> 28 ;
29 [label="gini = 0.0\nsamples = 1\nvalue = [0, 0, 0, 0, 2, 0, 0]\nclass = 20000", fillcolor="#3956e5"] ;
28 -> 29 ;
30 [label="gini = 0.0\nsamples = 1\nvalue = [0, 0, 0, 0, 0, 0, 1]\nclass = 50000", fillcolor="#e53986"] ;
28 -> 30 ;
31 [label="gini = 0.0\nsamples = 4\nvalue = [0, 0, 0, 0, 0, 0, 9]\nclass = 50000", fillcolor="#e53986"] ;
1 -> 31 ;
32 [label="mean_saturation <= 27.027\ngini = 0.388\nsamples = 12\nvalue = [0, 14, 5, 0, 0, 0, 0]\nclass = 10000", fillcolor="#d1ee80"] ;
0 -> 32 [labeldistance=2.5, labelangle=-45, headlabel="False"] ;
33 [label="mean_saturation <= 17.471\ngini = 0.278\nsamples = 5\nvalue = [0, 1, 5, 0, 0, 0, 0]\nclass = 100000", fillcolor="#61ea71"] ;
32 -> 33 ;
34 [label="gini = 0.0\nsamples = 1\nvalue = [0, 1, 0, 0, 0, 0, 0]\nclass = 10000", fillcolor="#b7e539"] ;
33 -> 34 ;
35 [label="gini = 0.0\nsamples = 4\nvalue = [0, 0, 5, 0, 0, 0, 0]\nclass = 100000", fillcolor="#39e54d"] ;
33 -> 35 ;
36 [label="gini = 0.0\nsamples = 7\nvalue = [0, 13, 0, 0, 0, 0, 0]\nclass = 10000", fillcolor="#b7e539"] ;
32 -> 36 ;
}