digraph Tree {
node [shape=box, style="filled, rounded", color="black", fontname="helvetica"] ;
edge [fontname="helvetica"] ;
0 [label="mean_value <= 243.414\ngini = 0.848\nsamples = 49\nvalue = [12, 8, 8, 10, 16, 15, 11]\nclass = 20000", fillcolor="#fcfcff"] ;
1 [label="mean_hue <= 25.918\ngini = 0.843\nsamples = 43\nvalue = [12, 8, 8, 10, 16, 8, 6]\nclass = 20000", fillcolor="#f1f3fd"] ;
0 -> 1 [labeldistance=2.5, labelangle=45, headlabel="True"] ;
2 [label="mean_value <= 230.427\ngini = 0.198\nsamples = 5\nvalue = [0, 0, 1, 0, 0, 8, 0]\nclass = 5000", fillcolor="#bb52e8"] ;
1 -> 2 ;
3 [label="gini = 0.0\nsamples = 4\nvalue = [0, 0, 0, 0, 0, 8, 0]\nclass = 5000", fillcolor="#b139e5"] ;
2 -> 3 ;
4 [label="gini = 0.0\nsamples = 1\nvalue = [0, 0, 1, 0, 0, 0, 0]\nclass = 100000", fillcolor="#39e54d"] ;
2 -> 4 ;
5 [label="mean_value <= 238.978\ngini = 0.814\nsamples = 38\nvalue = [12, 8, 7, 10, 16, 0, 6]\nclass = 20000", fillcolor="#eef1fd"] ;
1 -> 5 ;
6 [label="mean_value <= 211.349\ngini = 0.788\nsamples = 33\nvalue = [12, 8, 4, 5, 16, 0, 5]\nclass = 20000", fillcolor="#eaedfc"] ;
5 -> 6 ;
7 [label="gini = 0.0\nsamples = 1\nvalue = [0, 0, 0, 0, 4, 0, 0]\nclass = 20000", fillcolor="#3956e5"] ;
6 -> 7 ;
8 [label="mean_value <= 212.605\ngini = 0.802\nsamples = 32\nvalue = [12, 8, 4, 5, 12, 0, 5]\nclass = 1000", fillcolor="#ffffff"] ;
6 -> 8 ;
9 [label="gini = 0.0\nsamples = 2\nvalue = [4, 0, 0, 0, 0, 0, 0]\nclass = 1000", fillcolor="#e58139"] ;
8 -> 9 ;
10 [label="mean_value <= 222.479\ngini = 0.808\nsamples = 30\nvalue = [8, 8, 4, 5, 12, 0, 5]\nclass = 20000", fillcolor="#e8ebfc"] ;
8 -> 10 ;
11 [label="mean_hue <= 80.98\ngini = 0.49\nsamples = 6\nvalue = [0, 0, 0, 3, 4, 0, 0]\nclass = 20000", fillcolor="#ced5f8"] ;
10 -> 11 ;
12 [label="gini = 0.0\nsamples = 3\nvalue = [0, 0, 0, 0, 3, 0, 0]\nclass = 20000", fillcolor="#3956e5"] ;
11 -> 12 ;
13 [label="mean_value <= 218.519\ngini = 0.375\nsamples = 3\nvalue = [0, 0, 0, 3, 1, 0, 0]\nclass = 2000", fillcolor="#7beeec"] ;
11 -> 13 ;
14 [label="mean_value <= 214.188\ngini = 0.5\nsamples = 2\nvalue = [0, 0, 0, 1, 1, 0, 0]\nclass = 2000", fillcolor="#ffffff"] ;
13 -> 14 ;
15 [label="gini = 0.0\nsamples = 1\nvalue = [0, 0, 0, 1, 0, 0, 0]\nclass = 2000", fillcolor="#39e5e2"] ;
14 -> 15 ;
16 [label="gini = 0.0\nsamples = 1\nvalue = [0, 0, 0, 0, 1, 0, 0]\nclass = 20000", fillcolor="#3956e5"] ;
14 -> 16 ;
17 [label="gini = 0.0\nsamples = 1\nvalue = [0, 0, 0, 2, 0, 0, 0]\nclass = 2000", fillcolor="#39e5e2"] ;
13 -> 17 ;
18 [label="mean_hue <= 94.425\ngini = 0.807\nsamples = 24\nvalue = [8, 8, 4, 2, 8, 0, 5]\nclass = 1000", fillcolor="#ffffff"] ;
10 -> 18 ;
19 [label="mean_value <= 229.071\ngini = 0.754\nsamples = 17\nvalue = [8, 0, 3, 2, 8, 0, 5]\nclass = 1000", fillcolor="#ffffff"] ;
18 -> 19 ;
20 [label="gini = 0.0\nsamples = 2\nvalue = [0, 0, 3, 0, 0, 0, 0]\nclass = 100000", fillcolor="#39e54d"] ;
19 -> 20 ;
21 [label="mean_saturation <= 16.322\ngini = 0.703\nsamples = 15\nvalue = [8, 0, 0, 2, 8, 0, 5]\nclass = 1000", fillcolor="#ffffff"] ;
19 -> 21 ;
22 [label="mean_value <= 234.806\ngini = 0.32\nsamples = 7\nvalue = [8, 0, 0, 2, 0, 0, 0]\nclass = 1000", fillcolor="#eca06a"] ;
21 -> 22 ;
23 [label="gini = 0.0\nsamples = 6\nvalue = [8, 0, 0, 0, 0, 0, 0]\nclass = 1000", fillcolor="#e58139"] ;
22 -> 23 ;
24 [label="gini = 0.0\nsamples = 1\nvalue = [0, 0, 0, 2, 0, 0, 0]\nclass = 2000", fillcolor="#39e5e2"] ;
22 -> 24 ;
25 [label="mean_hue <= 89.578\ngini = 0.473\nsamples = 8\nvalue = [0, 0, 0, 0, 8, 0, 5]\nclass = 20000", fillcolor="#b5c0f5"] ;
21 -> 25 ;
26 [label="gini = 0.0\nsamples = 5\nvalue = [0, 0, 0, 0, 8, 0, 0]\nclass = 20000", fillcolor="#3956e5"] ;
25 -> 26 ;
27 [label="gini = 0.0\nsamples = 3\nvalue = [0, 0, 0, 0, 0, 0, 5]\nclass = 50000", fillcolor="#e53986"] ;
25 -> 27 ;
28 [label="mean_value <= 228.958\ngini = 0.198\nsamples = 7\nvalue = [0, 8, 1, 0, 0, 0, 0]\nclass = 10000", fillcolor="#c0e852"] ;
18 -> 28 ;
29 [label="gini = 0.0\nsamples = 3\nvalue = [0, 4, 0, 0, 0, 0, 0]\nclass = 10000", fillcolor="#b7e539"] ;
28 -> 29 ;
30 [label="mean_hue <= 96.898\ngini = 0.32\nsamples = 4\nvalue = [0, 4, 1, 0, 0, 0, 0]\nclass = 10000", fillcolor="#c9ec6a"] ;
28 -> 30 ;
31 [label="gini = 0.0\nsamples = 2\nvalue = [0, 3, 0, 0, 0, 0, 0]\nclass = 10000", fillcolor="#b7e539"] ;
30 -> 31 ;
32 [label="mean_value <= 230.623\ngini = 0.5\nsamples = 2\nvalue = [0, 1, 1, 0, 0, 0, 0]\nclass = 10000", fillcolor="#ffffff"] ;
30 -> 32 ;
33 [label="gini = 0.0\nsamples = 1\nvalue = [0, 0, 1, 0, 0, 0, 0]\nclass = 100000", fillcolor="#39e54d"] ;
32 -> 33 ;
34 [label="gini = 0.0\nsamples = 1\nvalue = [0, 1, 0, 0, 0, 0, 0]\nclass = 10000", fillcolor="#b7e539"] ;
32 -> 34 ;
35 [label="mean_hue <= 61.572\ngini = 0.568\nsamples = 5\nvalue = [0, 0, 3, 5, 0, 0, 1]\nclass = 2000", fillcolor="#bdf6f5"] ;
5 -> 35 ;
36 [label="gini = 0.0\nsamples = 2\nvalue = [0, 0, 0, 5, 0, 0, 0]\nclass = 2000", fillcolor="#39e5e2"] ;
35 -> 36 ;
37 [label="mean_saturation <= 38.297\ngini = 0.375\nsamples = 3\nvalue = [0, 0, 3, 0, 0, 0, 1]\nclass = 100000", fillcolor="#7bee88"] ;
35 -> 37 ;
38 [label="gini = 0.0\nsamples = 2\nvalue = [0, 0, 3, 0, 0, 0, 0]\nclass = 100000", fillcolor="#39e54d"] ;
37 -> 38 ;
39 [label="gini = 0.0\nsamples = 1\nvalue = [0, 0, 0, 0, 0, 0, 1]\nclass = 50000", fillcolor="#e53986"] ;
37 -> 39 ;
40 [label="mean_value <= 244.335\ngini = 0.486\nsamples = 6\nvalue = [0, 0, 0, 0, 0, 7, 5]\nclass = 5000", fillcolor="#e9c6f8"] ;
0 -> 40 [labeldistance=2.5, labelangle=-45, headlabel="False"] ;
41 [label="gini = 0.0\nsamples = 1\nvalue = [0, 0, 0, 0, 0, 0, 3]\nclass = 50000", fillcolor="#e53986"] ;
40 -> 41 ;
42 [label="mean_hue <= 70.388\ngini = 0.346\nsamples = 5\nvalue = [0, 0, 0, 0, 0, 7, 2]\nclass = 5000", fillcolor="#c772ec"] ;
40 -> 42 ;
43 [label="gini = 0.0\nsamples = 4\nvalue = [0, 0, 0, 0, 0, 7, 0]\nclass = 5000", fillcolor="#b139e5"] ;
42 -> 43 ;
44 [label="gini = 0.0\nsamples = 1\nvalue = [0, 0, 0, 0, 0, 0, 2]\nclass = 50000", fillcolor="#e53986"] ;
42 -> 44 ;
}