digraph Tree {
node [shape=box, style="filled, rounded", color="black", fontname="helvetica"] ;
edge [fontname="helvetica"] ;
0 [label="mean_hue <= 94.425\ngini = 0.84\nsamples = 49\nvalue = [11, 14, 14, 18, 5, 8, 10]\nclass = 2000", fillcolor="#f3fdfd"] ;
1 [label="mean_value <= 235.522\ngini = 0.806\nsamples = 37\nvalue = [11, 0, 8, 18, 5, 8, 10]\nclass = 2000", fillcolor="#e3fbfb"] ;
0 -> 1 [labeldistance=2.5, labelangle=45, headlabel="True"] ;
2 [label="mean_saturation <= 29.95\ngini = 0.758\nsamples = 22\nvalue = [11, 0, 5, 10, 5, 3, 0]\nclass = 1000", fillcolor="#fefaf7"] ;
1 -> 2 ;
3 [label="mean_hue <= 38.895\ngini = 0.649\nsamples = 16\nvalue = [11, 0, 0, 3, 4, 3, 0]\nclass = 1000", fillcolor="#f4cbad"] ;
2 -> 3 ;
4 [label="gini = 0.0\nsamples = 3\nvalue = [0, 0, 0, 0, 0, 3, 0]\nclass = 5000", fillcolor="#b139e5"] ;
3 -> 4 ;
5 [label="mean_saturation <= 16.322\ngini = 0.549\nsamples = 13\nvalue = [11, 0, 0, 3, 4, 0, 0]\nclass = 1000", fillcolor="#f2c09c"] ;
3 -> 5 ;
6 [label="mean_hue <= 57.12\ngini = 0.375\nsamples = 6\nvalue = [6, 0, 0, 2, 0, 0, 0]\nclass = 1000", fillcolor="#eeab7b"] ;
5 -> 6 ;
7 [label="gini = 0.0\nsamples = 1\nvalue = [0, 0, 0, 1, 0, 0, 0]\nclass = 2000", fillcolor="#39e5e2"] ;
6 -> 7 ;
8 [label="mean_value <= 223.197\ngini = 0.245\nsamples = 5\nvalue = [6, 0, 0, 1, 0, 0, 0]\nclass = 1000", fillcolor="#e9965a"] ;
6 -> 8 ;
9 [label="gini = 0.0\nsamples = 1\nvalue = [0, 0, 0, 1, 0, 0, 0]\nclass = 2000", fillcolor="#39e5e2"] ;
8 -> 9 ;
10 [label="gini = 0.0\nsamples = 4\nvalue = [6, 0, 0, 0, 0, 0, 0]\nclass = 1000", fillcolor="#e58139"] ;
8 -> 10 ;
11 [label="mean_value <= 221.775\ngini = 0.58\nsamples = 7\nvalue = [5, 0, 0, 1, 4, 0, 0]\nclass = 1000", fillcolor="#fbeade"] ;
5 -> 11 ;
12 [label="mean_hue <= 75.982\ngini = 0.278\nsamples = 5\nvalue = [5, 0, 0, 1, 0, 0, 0]\nclass = 1000", fillcolor="#ea9a61"] ;
11 -> 12 ;
13 [label="gini = 0.0\nsamples = 4\nvalue = [5, 0, 0, 0, 0, 0, 0]\nclass = 1000", fillcolor="#e58139"] ;
12 -> 13 ;
14 [label="gini = 0.0\nsamples = 1\nvalue = [0, 0, 0, 1, 0, 0, 0]\nclass = 2000", fillcolor="#39e5e2"] ;
12 -> 14 ;
15 [label="gini = 0.0\nsamples = 2\nvalue = [0, 0, 0, 0, 4, 0, 0]\nclass = 20000", fillcolor="#3956e5"] ;
11 -> 15 ;
16 [label="mean_value <= 224.524\ngini = 0.556\nsamples = 6\nvalue = [0, 0, 5, 7, 1, 0, 0]\nclass = 2000", fillcolor="#cef8f8"] ;
2 -> 16 ;
17 [label="mean_value <= 214.928\ngini = 0.219\nsamples = 4\nvalue = [0, 0, 0, 7, 1, 0, 0]\nclass = 2000", fillcolor="#55e9e6"] ;
16 -> 17 ;
18 [label="gini = 0.0\nsamples = 1\nvalue = [0, 0, 0, 0, 1, 0, 0]\nclass = 20000", fillcolor="#3956e5"] ;
17 -> 18 ;
19 [label="gini = 0.0\nsamples = 3\nvalue = [0, 0, 0, 7, 0, 0, 0]\nclass = 2000", fillcolor="#39e5e2"] ;
17 -> 19 ;
20 [label="gini = 0.0\nsamples = 2\nvalue = [0, 0, 5, 0, 0, 0, 0]\nclass = 100000", fillcolor="#39e54d"] ;
16 -> 20 ;
21 [label="mean_value <= 244.243\ngini = 0.707\nsamples = 15\nvalue = [0, 0, 3, 8, 0, 5, 10]\nclass = 50000", fillcolor="#fce9f2"] ;
1 -> 21 ;
22 [label="mean_hue <= 80.898\ngini = 0.623\nsamples = 10\nvalue = [0, 0, 3, 8, 0, 0, 7]\nclass = 2000", fillcolor="#edfdfc"] ;
21 -> 22 ;
23 [label="mean_saturation <= 17.453\ngini = 0.397\nsamples = 6\nvalue = [0, 0, 3, 8, 0, 0, 0]\nclass = 2000", fillcolor="#83efed"] ;
22 -> 23 ;
24 [label="gini = 0.0\nsamples = 5\nvalue = [0, 0, 0, 8, 0, 0, 0]\nclass = 2000", fillcolor="#39e5e2"] ;
23 -> 24 ;
25 [label="gini = 0.0\nsamples = 1\nvalue = [0, 0, 3, 0, 0, 0, 0]\nclass = 100000", fillcolor="#39e54d"] ;
23 -> 25 ;
26 [label="gini = 0.0\nsamples = 4\nvalue = [0, 0, 0, 0, 0, 0, 7]\nclass = 50000", fillcolor="#e53986"] ;
22 -> 26 ;
27 [label="mean_hue <= 67.824\ngini = 0.469\nsamples = 5\nvalue = [0, 0, 0, 0, 0, 5, 3]\nclass = 5000", fillcolor="#e0b0f5"] ;
21 -> 27 ;
28 [label="gini = 0.0\nsamples = 3\nvalue = [0, 0, 0, 0, 0, 5, 0]\nclass = 5000", fillcolor="#b139e5"] ;
27 -> 28 ;
29 [label="gini = 0.0\nsamples = 2\nvalue = [0, 0, 0, 0, 0, 0, 3]\nclass = 50000", fillcolor="#e53986"] ;
27 -> 29 ;
30 [label="mean_saturation <= 32.444\ngini = 0.42\nsamples = 12\nvalue = [0, 14, 6, 0, 0, 0, 0]\nclass = 10000", fillcolor="#d6f08e"] ;
0 -> 30 [labeldistance=2.5, labelangle=-45, headlabel="False"] ;
31 [label="mean_hue <= 96.532\ngini = 0.444\nsamples = 4\nvalue = [0, 3, 6, 0, 0, 0, 0]\nclass = 100000", fillcolor="#9cf2a6"] ;
30 -> 31 ;
32 [label="gini = 0.0\nsamples = 1\nvalue = [0, 3, 0, 0, 0, 0, 0]\nclass = 10000", fillcolor="#b7e539"] ;
31 -> 32 ;
33 [label="gini = 0.0\nsamples = 3\nvalue = [0, 0, 6, 0, 0, 0, 0]\nclass = 100000", fillcolor="#39e54d"] ;
31 -> 33 ;
34 [label="gini = 0.0\nsamples = 8\nvalue = [0, 11, 0, 0, 0, 0, 0]\nclass = 10000", fillcolor="#b7e539"] ;
30 -> 34 ;
}